tree
version=v2
num_class=1
num_tree_per_iteration=1
label_index=0
max_feature_idx=16
objective=binary sigmoid:1
feature_names=smart_1_raw smart_2_raw smart_3_raw smart_4_raw smart_5_raw smart_7_raw smart_8_raw smart_9_raw smart_10_raw smart_12_raw smart_192_raw smart_193_raw smart_194_raw smart_196_raw smart_197_raw smart_198_raw smart_199_raw
feature_infos=none [0:124] [0:508] [1:11] none none [0:18] [0:9780] none [1:11] [1:366] [1:366] [20:48] none none none none
tree_sizes=482 1128 2503 2491

Tree=0
num_leaves=5
num_cat=0
split_feature=3 10 10 1
split_gain=21.3056 119.463 241.431 1.11022e-16
threshold=5.5000000000000009 90.500000000000014 74.500000000000014 120.00000000000001
decision_type=2 2 2 2
left_child=3 2 -2 -1
right_child=1 -3 -4 -5
leaf_value=-8.9546819870309626 -8.9546819870309609 -8.9546819870309626 -5.1201820644818827 -8.9546819870309626
leaf_count=5621 34 286 20 173
internal_value=0 21.5558 141.018 -1.00013
internal_count=6134 340 54 5794
shrinkage=1


Tree=1
num_leaves=13
num_cat=0
split_feature=9 7 7 10 7 7 10 10 10 12 10 10
split_gain=5.16453 17.6605 95.7259 1.41781e-07 1.11022e-16 1.11022e-16 6.93889e-18 6.93889e-18 3.46945e-18 3.46945e-18 1.73472e-18 8.67362e-19
threshold=5.5000000000000009 2142.5000000000005 2601.5000000000005 74.500000000000014 7617.5000000000009 7187.5000000000009 311.50000000000006 290.50000000000006 265.50000000000006 30.500000000000004 327.50000000000006 342.50000000000006
decision_type=2 2 2 2 2 2 2 2 2 2 2 2
left_child=4 3 -3 -2 5 -1 7 8 -6 -9 -8 -12
right_child=1 2 -4 -5 6 -7 10 9 -10 -11 11 -13
leaf_value=-0.010001290644887329 -0.010001290644885068 1.1865549895593779 -0.010001290644887044 -0.010059216172993341 -0.010001290644884579 -0.010001290644886879 -0.010001290644885356 -0.010001290644886284 -0.010001290644886741 -0.010001290644886116 -0.010001290644883656 -0.010001290644883469
leaf_count=5255 34 20 259 27 28 167 39 73 128 63 21 20
internal_value=0 5.26927 22.9263 -1.00571 -1.00013 -1.00013 -1.00013 -1.00013 -1.00013 -1.00013 -1.00013 -1.00013
internal_count=6134 340 279 61 5794 5422 372 292 156 136 80 41
shrinkage=0.01


Tree=2
num_leaves=30
num_cat=0
split_feature=3 7 1 10 7 1 7 1 1 10 7 7 7 7 10 10 10 10 10 10 7 7 10 3 7 10 7 7 7
split_gain=4.56911 11.0074 28.5467 1.37571e-07 4.75434e-10 2.22045e-16 1.11022e-16 5.55112e-17 5.55112e-17 1.11022e-16 5.55112e-17 5.55112e-17 2.77556e-17 2.77556e-17 2.77556e-17 2.77556e-17 1.38778e-17 1.38778e-17 1.38778e-17 1.38778e-17 6.93889e-18 6.93889e-18 6.93889e-18 3.46945e-18 3.46945e-18 3.46945e-18 1.73472e-18 1.73472e-18 1.73472e-18
threshold=5.5000000000000009 2142.5000000000005 107.50000000000001 74.500000000000014 2653.5000000000005 104.50000000000001 5213.5000000000009 102.50000000000001 114.00000000000001 268.50000000000006 6947.5000000000009 6848.5000000000009 5093.5000000000009 4978.5000000000009 309.50000000000006 265.50000000000006 249.50000000000003 247.50000000000003 245.50000000000003 240.50000000000003 6491.5000000000009 5146.5000000000009 290.50000000000006 9.5000000000000018 5622.5000000000009 256.50000000000006 4978.5000000000009 5693.0000000000009 5024.5000000000009
decision_type=2 2 2 2 2 2 2 2 2 2 2 2 2 2 2 2 2 2 2 2 2 2 2 2 2 2 2 2 2
left_child=5 3 -3 -2 -4 6 7 -1 9 10 11 -7 13 -9 15 16 17 18 19 -8 21 -10 -17 24 26 -18 -6 -23 -25
right_child=1 2 4 -5 23 8 14 12 20 -11 -12 -13 -14 -15 -16 22 25 -19 -20 -21 -22 27 -24 28 -26 -27 -28 -29 -30
leaf_value=-0.01000127856680277 -0.010001278566800595 0.44227960676507899 -0.010004080585520624 -0.010058623602735569 -0.010001278566801497 -0.010001278566802859 -0.010001278566802742 -0.010001278566802838 -0.010001278566802612 -0.010001278566802392 -0.010001278566801965 -0.010001278566799767 -0.010001278566800782 -0.010001278566799767 -0.010001278566800595 -0.010001278566802474 -0.010001278566801745 -0.010001278566798985 -0.010001278566799887 -0.010001278566801266 -0.010001278566798985 -0.010001278566799996 -0.010001278566802073 -0.010001278566802036 -0.01000127856680103 -0.010001278566801879 -0.010001278566799171 -0.010001278566801034 -0.010001278566799995
leaf_count=616 34 22 20 27 56 2063 510 1361 275 155 84 25 37 25 34 186 68 20 26 48 20 27 95 91 42 77 21 42 27
internal_value=0 4.66307 15.6709 -1.00565 -1.00018 -1.00013 -1.00013 -1.00013 -1.00013 -1.00013 -1.00013 -1.00013 -1.00013 -1.00013 -1.00013 -1.00013 -1.00013 -1.00013 -1.00013 -1.00013 -1.00013 -1.00013 -1.00013 -1.00013 -1.00013 -1.00013 -1.00013 -1.00013 -1.00013
internal_count=6134 340 279 61 257 5794 3103 2039 2691 2327 2172 2088 1423 1386 1064 1030 749 604 584 558 364 344 281 237 119 145 77 69 118
shrinkage=0.01


Tree=3
num_leaves=30
num_cat=0
split_feature=3 7 1 10 7 1 7 1 1 10 7 7 7 1 3 3 7 10 7 7 7 3 7 10 7 7 7 7 7
split_gain=4.26043 8.66363 15.5443 1.33487e-07 4.61195e-10 1.11022e-16 1.11022e-16 5.55112e-17 5.55112e-17 1.11022e-16 5.55112e-17 2.77556e-17 2.77556e-17 1.38778e-17 1.38778e-17 1.38778e-17 1.38778e-17 1.38778e-17 6.93889e-18 6.93889e-18 6.93889e-18 3.46945e-18 3.46945e-18 3.46945e-18 1.73472e-18 3.46945e-18 1.73472e-18 1.73472e-18 1.73472e-18
threshold=5.5000000000000009 2142.5000000000005 107.50000000000001 74.500000000000014 2653.5000000000005 107.50000000000001 8267.5000000000018 104.50000000000001 102.50000000000001 282.50000000000006 6848.5000000000009 6708.5000000000009 2831.5000000000005 101.50000000000001 1.5000000000000002 3.5000000000000004 2532.0000000000005 246.50000000000003 107.50000000000001 6203.5000000000009 5652.5000000000009 2.5000000000000004 6236.5000000000009 307.50000000000006 6491.5000000000009 4858.5000000000009 3300.5000000000005 3434.5000000000005 7741.5000000000009
decision_type=2 2 2 2 2 2 2 2 2 2 2 2 2 2 2 2 2 2 2 2 2 2 2 2 2 2 2 2 2
left_child=5 3 -3 -2 -4 7 -7 8 13 10 11 12 16 14 18 17 -10 19 -1 20 -16 -11 -6 28 25 26 -9 -15 -19
right_child=1 2 4 -5 22 6 -8 24 9 21 -12 -13 -14 27 15 -17 -18 23 -20 -21 -22 -23 -24 -25 -26 -27 -28 -29 -30
leaf_value=-0.010001266115659511 -0.010001266115660622 0.28578026581154925 -0.010004039684116631 -0.010058036423194701 -0.010001266115662568 -0.010001266115662913 -0.010001266115661931 -0.010001266115661329 -0.01000126611566283 -0.010001266115661669 -0.01000126611566253 -0.010001266115660474 -0.010001266115662868 -0.010001266115661015 -0.01000126611566267 -0.010001266115662367 -0.010001266115662013 -0.010001266115661423 -0.01000126611566263 -0.010001266115658996 -0.010001266115659784 -0.010001266115661748 -0.010001266115659905 -0.010001266115659647 -0.010001266115658989 -0.010001266115659347 -0.010001266115658991 -0.010001266115660967 -0.010001266115659782
leaf_count=23 34 22 20 27 211 2502 78 49 696 62 191 32 1043 41 289 137 85 52 252 20 25 66 26 24 20 22 20 40 25
internal_value=0 4.35235 13.0202 -1.00559 -1.00018 -1.00013 -1.00013 -1.00013 -1.00013 -1.00013 -1.00013 -1.00013 -1.00013 -1.00013 -1.00013 -1.00013 -1.00013 -1.00013 -1.00013 -1.00013 -1.00013 -1.00013 -1.00013 -1.00013 -1.00013 -1.00013 -1.00013 -1.00013 -1.00013
internal_count=6134 340 279 61 257 5794 2580 3214 3103 2175 2047 1856 1824 928 847 572 781 435 275 334 314 128 237 101 111 91 69 81 77
shrinkage=0.01



feature importances:
smart_9_raw=33
smart_192_raw=22
smart_2_raw=10
smart_4_raw=7
smart_12_raw=1
smart_194_raw=1

pandas_categorical:[]
