tree
version=v2
num_class=1
num_tree_per_iteration=1
label_index=0
max_feature_idx=4
objective=binary sigmoid:1
feature_names=smart_1_raw smart_5_raw smart_9_raw smart_194_raw smart_197_raw
feature_infos=[0:68178] [0:1967] [0:41336] [12:42] [0:187]
tree_sizes=2290 2367 2363 2379 2403

Tree=0
num_leaves=30
num_cat=0
split_feature=4 3 2 2 2 0 2 4 2 3 3 0 0 0 2 0 4 2 2 0 2 3 0 0 2 2 2 2 2
split_gain=1526.26 909.057 971.567 3328.12 1198.96 439.712 486.211 543.665 599.052 793.369 591.049 308.135 289.729 422.042 311.522 639.458 624.459 568.233 502.623 559.75 738.26 275.954 238.755 223.093 213.816 206.777 200.511 200.179 409.094
threshold=1.5000000000000002 27.500000000000004 9131.5000000000018 16300.500000000002 1639.5000000000002 101.50000000000001 4617.5000000000009 1.0000000180025095e-35 4112.5000000000009 24.500000000000004 24.500000000000004 105.50000000000001 2561.5000000000005 2709.0000000000005 4309.5000000000009 48.500000000000007 7.5000000000000009 9568.5000000000018 5841.5000000000009 55.500000000000007 5284.5000000000009 31.500000000000004 68163.500000000015 1486.5000000000002 1953.5000000000002 8708.5000000000018 21448.500000000004 22158.500000000004 31826.500000000004
decision_type=2 2 2 2 2 2 2 2 2 2 2 2 2 2 2 2 2 2 2 2 2 2 2 2 2 2 2 2 2
left_child=5 12 4 -4 -3 -1 7 8 21 -10 24 -8 14 -14 -2 17 18 25 19 -17 -21 23 -13 -7 -9 -16 -5 -20 -29
right_child=1 2 3 26 -6 6 11 10 9 -11 -12 22 13 -15 15 16 -18 -19 27 20 -22 -23 -24 -25 -26 -27 -28 28 -30
leaf_value=-8.9185841981025611 -8.924890324989919 -1.8354082301459478 5.2540738646980163 -5.541273870632514 -8.924890324989919 -8.924890324989919 -5.5412738706325131 -8.9248903249899172 -8.9248903249899172 -3.3419231752993541 -1.8354082301459504 -8.7935167322330017 -4.4134017191795385 -8.9248903249899172 -5.2029122251968989 -8.924890324989919 -4.7893591029969924 -1.8354082301459504 -8.924890324989919 -7.59561243220638 -2.5443564396294436 -5.6883876295175702 -6.2663345394231929 -6.5236141315747496 -5.2029122251968989 -8.9248903249899154 -8.9248903249899172 -5.6883876295170488 -8.924890324989919
leaf_count=802694 590 21 21 22 115 406 22 27 36 40 21 4533 33 29 20 68 36 21 658 56 35 23 28 31 20 25 32 46 79
internal_value=0 77.0697 245.956 495.264 108.47 -0.207715 24.832 97.5953 68.4398 292.84 327.41 15.2424 56.0585 239.127 49.1122 77.4324 59.8911 337.362 46.4136 186.269 326.207 31.3649 13.6887 16.0341 157.382 164.421 136.851 18.0138 118.103
internal_count=809788 1907 211 75 136 807881 5187 604 536 76 68 4583 1696 62 1634 1044 978 66 942 159 91 460 4561 437 47 45 54 783 125
shrinkage=1


Tree=1
num_leaves=30
num_cat=0
split_feature=0 4 4 3 0 4 4 0 0 3 0 0 4 0 0 3 3 3 0 0 0 3 3 0 0 0 3 0 0
split_gain=57.036 324.129 77.9369 99.5177 1428.49 60.9483 32.3416 340.589 27.0166 24.53 33.5289 29.1102 36.6577 76.7784 220.363 851.198 56.9431 249.148 98.8534 142.695 81.7904 63.6462 23.5887 15.9271 14.6226 68.1613 100.806 25.1112 204.662
threshold=1.0000000180025095e-35 1.0000000180025095e-35 1.5000000000000002 27.500000000000004 55.500000000000007 42.500000000000007 2.5000000000000004 911.50000000000011 4.5000000000000009 19.500000000000004 10.500000000000002 280.00000000000006 1.0000000180025095e-35 189.50000000000003 243.50000000000003 25.500000000000004 28.500000000000004 26.500000000000004 28.500000000000004 23.500000000000004 10.500000000000002 27.500000000000004 28.500000000000004 68163.500000000015 13.500000000000002 12.500000000000002 18.500000000000004 30.500000000000004 31.500000000000004
decision_type=2 2 2 2 2 2 2 2 2 2 2 2 2 2 2 2 2 2 2 2 2 2 2 2 2 2 2 2 2
left_child=1 -1 8 5 -5 -4 7 22 -2 10 -10 12 13 -11 15 -15 17 -14 19 20 -19 -22 -6 -13 25 -12 -27 -26 -29
right_child=2 -3 3 4 6 -7 -8 -9 9 11 24 23 16 14 -16 -17 -18 18 -20 -21 21 -23 -24 -25 27 26 -28 28 -30
leaf_value=-0.0064544520027152302 0.0033363496003118902 3.2384795593264024 0.0089882821454262893 -1.3879887219990741 -0.1881638396642491 0.63855515130368856 -0.011498449675885742 -1.2844015124164554 -0.010001338401355144 0.029723567102172294 0.14468822815710725 0.0039708604359060505 0.12117923852710208 -0.010001472464305697 0.12062234700274131 5.7853895778281483 -0.01083065308180696 2.3248443068399278 -0.010001352069216055 3.5478586924420701 1.3736108958158328 -0.010001338401353522 0.051936824273575759 0.17874733173794752 -0.010001338401355069 2.0654170129242835 -0.010001338401352946 2.3248443068399278 0.12614841738279819
leaf_count=737274 28009 23 1668 54 55 28 59 23 1856 31571 483 2889 1455 65 71 23 731 32 44 21 54 46 20 28 971 36 34 32 2133
internal_value=0 -0.635323 1.13178 -1.20294 -6.24087 1.05996 -2.25803 -13.3684 2.62111 3.48418 8.70955 3.0117 4.37757 3.4887 32.5422 152.94 11.5466 18.6517 112.549 145.5 112.205 73.7149 -0.944705 0.672708 12.9008 26.0216 105.736 10.9642 15.1496
internal_count=809788 737297 72491 1907 211 1696 157 98 70584 42575 5545 37030 34113 31730 159 88 2383 1652 197 153 132 100 75 2917 3689 553 70 3136 2165
shrinkage=0.01


Tree=2
num_leaves=30
num_cat=0
split_feature=0 3 2 0 4 2 2 2 2 2 3 2 0 4 0 3 2 4 0 0 2 0 4 3 2 4 2 2 2
split_gain=51.2168 70.5192 163.5 171.029 68.4455 253.992 345.397 57.1815 72.9195 48.3019 38.2491 127.783 155.889 226.629 84.57 132.292 32.2679 28.7292 28.0053 21.02 17.3381 37.9258 49.5405 77.191 58.9032 30.4232 30.8495 56.0511 28.8347
threshold=1.0000000180025095e-35 26.500000000000004 228.50000000000003 12.500000000000002 1.5000000000000002 9998.5000000000018 15848.500000000002 20478.500000000004 22606.500000000004 1755.5000000000002 23.500000000000004 659.50000000000011 4.5000000000000009 1.0000000180025095e-35 1.5000000000000002 22.500000000000004 128.50000000000003 39.000000000000007 5.5000000000000009 2790.0000000000005 17110.500000000004 189.50000000000003 1.5000000000000002 25.500000000000004 25416.500000000004 1.5000000000000002 11504.500000000002 12160.500000000002 32657.500000000004
decision_type=2 2 2 2 2 2 2 2 2 2 2 2 2 2 2 2 2 2 2 2 2 2 2 2 2 2 2 2 2
left_child=16 2 3 -2 -3 -6 -7 -8 -9 10 11 12 -4 18 15 -13 -1 -16 -14 20 25 -22 -23 24 -24 -11 -27 -28 -26
right_child=1 4 9 -5 5 6 7 8 -10 19 -12 14 13 -15 17 -17 -18 -19 -20 -21 21 22 23 -25 28 26 27 -29 -30
leaf_value=0.077477055983587756 -0.010001402533246278 0.012169094124505182 -0.010001342613658098 3.4053288581617114 -0.013365297569944175 -0.51418651926381598 -0.011003131138735909 1.3366876511352734 -0.010026679320820969 0.046093456990626176 0.046524652064858105 -0.010001342613656136 3.7329636572846185 -0.010001448228795416 -0.010005348273370003 2.39213642929007 -0.0067248171453621062 0.36379275116900445 2.4183204030587762 0.15169710972279973 -0.0071316520035415807 0.028090092548988865 -0.010065716398633216 1.2261649047725296 0.64597282623843655 0.0063047962758714183 0.89311763758751483 -0.01000134240777804 -0.010001342407777428
leaf_count=3365 21 20449 62 21 223 46 56 21 20 23792 321 38 20 30 474 31 733932 29 21 104 24162 1365 92 36 21 815 22 135 64
internal_value=0 0.990936 2.57618 169.504 -0.846923 -3.80558 -26.1392 3.65886 60.7498 2.50081 14.6902 26.7051 102.303 180.247 14.996 106.922 -0.633243 7.63596 293.562 2.19575 2.0679 0.299411 10.0405 28.9622 20.7291 2.84916 0.863339 33.2568 50.179
internal_count=809788 72491 51676 42 20815 366 143 97 41 51634 1026 705 133 71 572 69 737297 503 41 50608 50504 25740 1578 213 177 24764 972 157 85
shrinkage=0.01


Tree=3
num_leaves=30
num_cat=0
split_feature=0 3 4 2 2 2 2 2 2 0 4 4 3 2 0 3 0 0 2 0 0 2 0 2 2 0 0 0 2
split_gain=49.1128 65.1888 65.1591 166.749 175.966 29.6472 25.5272 23.0733 18.5537 32.3104 32.1077 26.8407 31.6468 23.4667 40.2007 23.448 62.9589 107.875 150.422 34.1597 725.924 62.0006 44.3469 102.506 30.2231 198.162 27.2849 188.206 18.8899
threshold=1.0000000180025095e-35 26.500000000000004 1.5000000000000002 9998.5000000000018 15848.500000000002 128.50000000000003 1755.5000000000002 20478.500000000004 17110.500000000004 189.50000000000003 1.5000000000000002 1.5000000000000002 21.500000000000004 22158.500000000004 531.50000000000011 19.500000000000004 10.500000000000002 11.500000000000002 3295.5000000000005 1217.5000000000002 589.50000000000011 2785.5000000000005 13.500000000000002 13920.500000000002 17000.500000000004 47.500000000000007 163.50000000000003 234.50000000000003 11504.500000000002
decision_type=2 2 2 2 2 2 2 2 2 2 2 2 2 2 2 2 2 2 2 2 2 2 2 2 2 2 2 2 2
left_child=5 6 -3 -4 -5 -1 -2 -6 10 -10 15 -11 -13 -14 -15 16 -8 18 -18 20 21 -19 23 -23 -17 -26 -24 -28 -12
right_child=1 2 3 4 7 -7 8 -9 9 11 28 12 13 14 -16 24 17 19 -20 -21 -22 22 26 -25 25 -27 27 -29 -30
leaf_value=0.07095785097875941 0.087184275581348669 0.011915083954692421 -0.013357908467706223 -0.31472497754545031 -0.010993245869195414 -0.0067027050677878654 -0.01000139872090919 0.26274068763565361 -0.0071110949162742024 0.027047686563061623 0.0061940849074758088 -0.010063655974692188 -0.010003929993110124 0.19975567435990232 0.66989913931944745 0.035981942363947514 -0.010001619918144159 0.87175314150604011 2.9300698457116363 0.056449412199864012 4.0436975350086 -0.010001616749686441 -0.010003485493659909 1.6292729698482424 -0.010001426627853765 2.3621915155156619 2.2101805294953745 -0.010001781771765035 0.21226450071301312
leaf_count=3365 1068 20449 223 46 56 733932 1935 41 24162 1365 831 74 63 55 21 20181 22 21 21 450 28 63 778 34 150 28 25 141 160
internal_value=0 0.940297 -0.821273 -3.65752 -18.8167 -0.630918 2.42092 3.27945 2.12242 0.289706 2.90326 8.62426 19.5432 30.0923 37.9162 4.61804 10.4039 19.3987 142.585 16.8466 25.9181 15.5913 10.8011 60.4215 3.80114 38.0573 5.52752 32.8123 0.843771
internal_count=809788 72491 20815 366 143 737297 51676 97 50608 25740 24868 1578 213 139 76 23877 3518 1583 43 1540 1090 1062 1041 97 20359 178 944 166 991
shrinkage=0.01


Tree=4
num_leaves=30
num_cat=0
split_feature=0 3 4 2 2 2 2 2 0 2 2 2 0 2 4 2 2 3 3 4 2 0 4 2 0 2 2 0 0
split_gain=46.7556 59.5159 62.4368 123.96 115.025 27.4169 22.7829 16.9993 16.2401 15.452 14.8554 53.2479 99.8323 77.3778 14.3376 27.0197 146.81 159.872 153.93 14.294 13.5492 28.6665 22.7555 28.0526 29.0448 50.0314 95.6347 181.743 125.874
threshold=1.0000000180025095e-35 26.500000000000004 1.5000000000000002 9998.5000000000018 15848.500000000002 128.50000000000003 1755.5000000000002 20478.500000000004 2790.0000000000005 6749.5000000000009 1755.5000000000002 2573.5000000000005 1056.5000000000002 2476.5000000000005 1.0000000180025095e-35 8922.5000000000018 5841.5000000000009 28.500000000000004 27.500000000000004 1.0000000180025095e-35 17110.500000000004 189.50000000000003 2.5000000000000004 5733.5000000000009 10.500000000000002 11081.500000000002 10863.500000000002 14.500000000000002 147.00000000000003
decision_type=2 2 2 2 2 2 2 2 2 2 2 2 2 2 2 2 2 2 2 2 2 2 2 2 2 2 2 2 2
left_child=5 6 10 9 -5 -1 -2 -6 20 -4 -3 12 13 -12 -13 16 -16 18 -18 -7 22 -22 23 -8 -25 26 -26 -28 -29
right_child=1 2 3 4 7 19 8 -9 -10 -11 11 14 -14 -15 15 -17 17 -19 -20 -21 21 -23 -24 24 25 -27 27 28 -30
leaf_value=0.065414479899043754 0.079618480393212718 -0.011529082760609374 -0.0010821557223294927 -0.23306157908298836 -0.010983455231879982 -0.0067820361036080258 0.011128570652624958 0.20043344659447082 0.12312894131486182 -0.044297487650733373 -0.010018052526689249 0.012566914440604317 1.4515366127561113 0.94476697695500644 -0.010031023610058053 -0.010011353811778565 0.61118646923456921 -0.010001367810929458 2.2539464439733914 0.13943830869921073 -0.0070904511461093748 0.07706067951391514 0.0022012224119639322 0.020897591098944041 0.11549274329756934 0.036619746148544442 2.8386873765350296 -0.010001505375936548 1.6624370227727525
leaf_count=3365 1068 355 202 46 56 733912 4321 41 104 21 154 18691 20 27 110 893 32 145 22 20 24162 1578 592 11083 3407 5182 23 121 35
internal_value=0 0.88455 -0.799124 -3.53913 -15.1543 -0.628587 2.25073 3.11688 1.97145 -1.33508 1.16692 2.11586 31.2105 17.099 1.73371 8.09205 17.0993 66.0341 119.325 -0.668052 1.85613 0.283031 2.49566 3.54004 5.30108 7.67908 13.3785 71.2477 40.3699
internal_count=809788 72491 20815 366 143 737297 51676 97 50608 223 20449 20094 201 181 19893 1202 309 199 54 733932 50504 25740 24764 24172 19851 8768 3586 179 156
shrinkage=0.01



feature importances:
smart_9_raw=54
smart_1_raw=49
smart_194_raw=22
smart_197_raw=20

pandas_categorical:[]
