tree
version=v2
num_class=1
num_tree_per_iteration=1
label_index=0
max_feature_idx=4
objective=binary sigmoid:1
feature_names=smart_1_raw smart_5_raw smart_9_raw smart_194_raw smart_197_raw
feature_infos=[0:2603325181] [0:1927] [7:63095] [17:51] [0:198]
tree_sizes=2308 2371

Tree=0
num_leaves=30
num_cat=0
split_feature=4 2 4 2 3 4 2 4 4 4 2 2 0 3 0 2 0 2 0 2 3 3 4 4 0 3 2 4 2
split_gain=15525.8 32893.7 2813.71 2441.35 3531.74 1510.36 1246.14 2185.79 3198.27 4360.34 3356.7 2282.1 1638.65 3901.12 3337.78 760.922 698.956 672.897 659.265 648.166 603.671 480.01 1822.72 245.321 770.89 2423.91 482.726 1086.26 2091.05
threshold=108.50000000000001 31193.500000000004 61.500000000000007 28347.500000000004 28.500000000000004 1.0000000180025095e-35 35284.500000000007 11.500000000000002 23.500000000000004 17.500000000000004 41510.500000000007 36715.500000000007 3145765.0000000005 32.500000000000007 3538949.0000000005 47756.500000000007 119.00000000000001 35506.500000000007 327680.50000000006 41852.500000000007 31.500000000000004 20.500000000000004 1.5000000000000002 9.5000000000000018 141789174.00000003 28.500000000000004 34299.500000000007 18.500000000000004 34628.500000000007
decision_type=2 2 2 2 2 2 2 2 2 2 2 2 2 2 2 2 2 2 2 2 2 2 2 2 2 2 2 2 2
left_child=2 18 5 20 -5 -1 23 12 9 11 -10 -9 21 14 19 17 -13 -16 -2 -14 -4 22 -8 -7 26 -26 -25 28 -28
right_child=1 -3 3 4 -6 6 7 8 10 -11 -12 16 13 -15 15 -17 -18 -19 -20 -21 -22 -23 -24 24 25 -27 27 -29 -30
leaf_value=-10.029812773500534 -10.034878699948932 58.696962386224143 -10.034878699948932 17.065104356887161 -5.1254614795055824 -10.003412461668242 -10.03487869994893 -10.034878699948928 -10.03487869994893 18.194270317587595 8.0317766712751162 9.6027901818148127 -1.3489866945524351 6.9026107105793724 -1.9694075520802556 -0.62516236077007292 -1.6706863984557465 -9.4653120110699938 -0.21604425906705593 9.6027901818148127 -2.2475272468341361 -9.676621824891285 2.1723208752060401 -9.8252563062541576 -10.034878699948928 6.6935059030374315 8.7845539784087752 -10.034878699948928 -10.034878699948923
leaf_count=3343414 47 23 100 25 46 28708 109 64 327 24 25 23 26 40 28 24 27 793 23 23 29 18911 37 3232 71 27 24 100 30
internal_value=0 1941.65 -0.0624769 563.583 1271.3 -0.0956707 25.1534 54.1323 367.707 980.883 127.314 593.298 46.4463 240.791 175.827 105.903 1354 81.5212 321.619 1381.65 174.064 36.9213 308.36 6.71667 44.374 459.884 32.348 292.29 835.419
internal_count=3396380 93 3396287 200 71 3396087 52673 20481 490 138 352 114 19991 934 894 845 50 821 70 49 129 19057 146 32192 3484 98 3386 154 54
shrinkage=1


Tree=1
num_leaves=30
num_cat=0
split_feature=3 1 4 0 1 4 3 4 3 1 4 1 4 3 1 3 0 1 4 3 4 1 4 0 0 1 4 4 4
split_gain=2696.46 71726.2 1506.32 4251.07 56093.6 68650.2 18682.8 30917.7 12806 11547.2 51002.8 6253.18 1777.01 2934.88 2954.98 6289.85 1116.49 753.531 665.251 491.76 625.724 3381.53 468.606 332.992 1406.3 1668.84 1176.29 19394.7 3203.66
threshold=46.500000000000007 1.5000000000000002 9.5000000000000018 1.0000000180025095e-35 79.000000000000014 11.500000000000002 26.500000000000004 15.500000000000002 26.500000000000004 155.50000000000003 27.500000000000004 37.500000000000007 11.500000000000002 26.500000000000004 444.00000000000006 27.500000000000004 27164990.000000004 1436.5000000000002 10.500000000000002 28.500000000000004 27.500000000000004 152.50000000000003 26.500000000000004 14352546.500000002 18481455.000000004 1021.5000000000001 57.000000000000007 17.500000000000004 23.500000000000004
decision_type=2 2 2 2 2 2 2 2 2 2 2 2 2 2 2 2 2 2 2 2 2 2 2 2 2 2 2 2 2
left_child=2 -2 17 4 5 -4 11 -8 9 -6 18 -7 13 -5 15 -15 -16 -1 -11 20 -10 -22 -20 -14 25 -25 27 -26 -29
right_child=1 -3 3 12 8 6 7 -9 19 10 -12 -13 23 14 16 -17 -18 -19 22 -21 21 -23 -24 24 26 -27 -28 28 -30
leaf_value=-0.0086253177593971237 -0.010000440066167104 -82.715257404505309 -0.010000560742273155 -0.010000556899367248 -0.010000511107848116 -36.482418344962802 -38.50917745434996 -99.855365816256423 -0.010000541025549248 5.956777323695869 -30.66645575003502 -7.8795324339042816 -0.04697506518008334 -22.186917721665491 -0.010000541025548813 -0.010000555581281954 -6.3185162898889091 7.5281216079667059 -0.010000541025549481 -0.010818343986217395 -0.010000541025548586 -15.059984930067513 -5.3852925747581528 -0.0078753332350750601 -0.082246952339432161 -15.723558020994687 -0.053296435558074277 -15.671268624803188 -6.9600458123459763
leaf_count=3391269 654 32 143 469 396 30 43 23 181 31 50 23 1460 39 127 44 22 30 235 278 110 48 36 25 351 28 54 64 85
internal_value=0 -301.952 -1.6484 -12.3166 -91.678 -2004.64 -4293.41 -5791.62 -45.8543 -563.229 -1025.39 -2508.86 -7.969 -211.634 -538.068 -1170.06 -258.766 -0.856508 -0.960051 -6.24731 -170.247 -378.821 -69.6183 -7.22203 -18.5557 -738.051 -17.6338 -62.7844 -846.728
internal_count=3396380 686 3395694 4395 1627 262 119 66 1365 748 352 53 2768 701 232 83 149 3391299 302 617 339 158 271 2067 607 53 554 500 149
shrinkage=0.01



feature importances:
smart_197_raw=20
smart_194_raw=11
smart_9_raw=10
smart_1_raw=9
smart_5_raw=8

pandas_categorical:[]
