tree
version=v2
num_class=1
num_tree_per_iteration=1
label_index=0
max_feature_idx=19
objective=binary sigmoid:1
feature_names=smart_1_raw smart_2_raw smart_3_raw smart_4_raw smart_5_raw smart_7_raw smart_8_raw smart_9_raw smart_10_raw smart_12_raw smart_191_raw smart_192_raw smart_193_raw smart_194_raw smart_196_raw smart_197_raw smart_198_raw smart_199_raw smart_223_raw smart_240_raw
feature_infos=none none [517:2322] [2:65] [0:16376] none none [0:17905] none [2:65] [0:90] [0:60] [6:82149] [19:52] [0:1563] [0:136] none [0:2] none none
tree_sizes=2358 2385 2399 2399 2409 2387 2406 2389

Tree=0
num_leaves=30
num_cat=0
split_feature=4 15 15 10 13 2 7 2 2 7 15 13 13 7 7 7 7 12 2 2 13 2 12 2 2 7 7 12 12
split_gain=1198.56 1087.29 866.794 17.8311 124.145 166.342 45.2243 144.146 61.5683 197.541 11.8721 45.2857 242.227 10.8081 213.043 5.81497 9.81826 178.922 7.59086 223.962 3.62332 5.682 166.525 5.24622 34.7326 92.0881 184.176 12.2501 107.73
threshold=1060.0000000000002 20.000000000000004 52.000000000000007 10.500000000000002 25.500000000000004 2047.5000000000002 13086.500000000002 1318.5000000000002 1336.5000000000002 13906.500000000002 1.0000000180025095e-35 35.500000000000007 33.500000000000007 3405.5000000000005 3334.5000000000005 2905.5000000000005 2864.5000000000005 13247.500000000002 2059.0000000000005 2061.5000000000005 31.500000000000004 2037.5000000000002 200.50000000000003 1961.5000000000002 1959.5000000000002 584.50000000000011 366.50000000000006 8132.5000000000009 8169.5000000000009
decision_type=2 2 2 2 2 2 2 2 2 2 2 2 2 2 2 2 2 2 2 2 2 2 2 2 2 2 2 2 2
left_child=1 3 -3 10 5 -5 13 -8 -9 -10 15 12 -12 14 -6 16 18 -18 20 -20 -1 23 -23 24 27 26 -26 -22 -29
right_child=-2 2 -4 4 6 -7 7 8 9 -11 11 -13 -14 -15 -16 -17 17 -19 19 -21 21 22 -24 -25 25 -27 -28 28 -30
leaf_value=-8.7568050422572838 -2.7463874867148679 -2.2279461548500521 -8.7603069363467405 -5.753347211530806 -8.7603069363467441 -8.7603069363467423 -6.9030671063137135 -8.7603069363467441 -8.7603069363467423 -6.0148219702112051 -8.7603069363467441 -8.7603069363467441 -5.7533472115317066 -8.7603069363467441 -6.505087142735297 -8.7574184393842582 -8.7603069363467441 -6.8467871114642387 -6.421560483712609 -8.7603069363467441 -8.7479083197708292 -7.0062470968710517 -8.7603069363467441 -8.7603069363467441 -8.7603069363467423 -8.7603069363467441 -5.6029992252910032 -7.5459578167096684 -8.712177245629416
leaf_count=18032 21 29 23 21 478 26 34 327 59 23 87 371 21 3272 28 87445 475 33 27 610 10186 36 675 7460 28 112 20 52 1312
internal_value=0 0.00977992 363.305 -0.134154 4.91794 133.353 3.48784 27.5083 14.439 76.0073 -0.30396 12.1828 57.4685 0.671259 11.4793 -0.351241 0.454897 11.4302 0.310268 8.9129 0.165729 0.905565 7.88116 0.646846 1.69609 38.4662 130.554 1.18672 8.25881
internal_count=131323 131302 52 131250 4268 47 4221 443 409 82 126982 479 108 3778 506 126503 39058 508 38550 637 37913 19881 711 19170 11710 160 48 11550 1364
shrinkage=1


Tree=1
num_leaves=30
num_cat=0
split_feature=10 12 2 7 13 13 10 7 7 14 7 2 2 12 12 10 7 13 12 12 7 12 12 13 7 7 13 2 2
split_gain=12.6528 22.362 128.871 17.0625 98.1746 19.8105 59.3355 43.9699 10.5608 17.0077 9.08193 30.3295 105.631 8.02617 24.3916 97.557 92.2238 4.43679 7.00684 33.1068 53.5565 9.13517 34.0773 155.917 7.30249 18.5362 116.821 18.9063 181.26
threshold=10.500000000000002 191.50000000000003 2028.5000000000002 13086.500000000002 38.500000000000007 30.500000000000004 12.500000000000002 14156.500000000002 3192.5000000000005 23.500000000000004 3152.5000000000005 2005.5000000000002 2012.5000000000002 8920.5000000000018 11675.500000000002 14.500000000000002 2577.5000000000005 33.500000000000007 8132.5000000000009 8169.5000000000009 1175.5000000000002 13459.000000000002 13247.500000000002 37.500000000000007 584.50000000000011 548.50000000000011 34.500000000000007 1317.5000000000002 1316.5000000000002
decision_type=2 2 2 2 2 2 2 2 2 2 2 2 2 2 2 2 2 2 2 2 2 2 2 2 2 2 2 2 2
left_child=8 2 -2 13 5 6 7 -5 9 10 17 -12 -13 -3 15 -15 -17 -1 24 20 -20 22 -21 -24 25 27 -27 28 -19
right_child=1 3 -4 4 -6 -7 -8 -9 -10 -11 11 12 -14 14 -16 16 -18 18 19 21 -22 -23 23 -25 -26 26 -28 -29 -30
leaf_value=-0.0020535663358824912 1.5803492679336322 -0.010005119613050463 -0.010013669407475761 -0.010001568541550805 1.1670746268404804 -0.010014081121747617 -0.010006210122856971 1.2915647549934135 -0.0069896693230821604 0.10521766324412095 -0.010001572338095375 1.4673836796948307 -0.01000157224241752 -0.010004306743106973 -0.010002361996522532 -0.01000156854155017 2.2269783291592042 -0.010001587721230916 -0.01000528264640113 0.037439748720675209 0.93753254045092949 -0.010002211414572611 -0.010002147741966541 1.9979111316276454 -0.0044182313769571529 1.4223125111743478 -0.010009945141211108 -0.010005231190121424 2.0220957482600306
leaf_count=24960 21 3097 97 25 38 272 88 20 83760 20 389 24 108 114 456 20 20 256 26 2042 20 2168 103 26 11335 22 151 1614 31
internal_value=0 3.70252 29.1633 2.66983 12.2869 6.04028 25.8503 85.1861 -0.222362 0.701787 0.489491 10.7762 41.106 0.499157 8.52514 32.9169 130.474 0.378931 1.34006 3.80991 40.1968 2.71319 5.76786 43.8738 0.390311 4.45791 25.4092 2.04329 20.9493
internal_count=131323 4268 118 4150 443 405 133 45 127055 43295 43275 521 132 3707 610 154 40 42754 17794 4385 46 4339 2171 129 13409 2074 173 1901 287
shrinkage=0.01


Tree=2
num_leaves=30
num_cat=0
split_feature=10 10 7 10 3 3 7 14 7 7 7 7 12 12 2 2 3 7 7 10 2 2 12 12 2 7 7 3 2
split_gain=10.9108 12.2896 21.0335 24.9428 60.1265 38.325 10.2048 15.0726 8.63491 7.21018 18.3848 6.77406 13.819 36.0338 4.38773 16.1367 3.2698 9.24299 32.3763 179.251 25.8276 164.826 3.25926 20.6336 158.993 4.0139 177.772 3.22995 3.37701
threshold=10.500000000000002 12.500000000000002 14664.500000000002 11.500000000000002 4.5000000000000009 3.5000000000000004 3192.5000000000005 23.500000000000004 15362.500000000002 3405.5000000000005 3295.5000000000005 3152.5000000000005 532.50000000000011 355.50000000000006 2059.0000000000005 2061.5000000000005 6.5000000000000009 12682.500000000002 12883.500000000002 5.5000000000000009 1357.5000000000002 1364.5000000000002 5196.5000000000009 5242.5000000000009 1320.5000000000002 4449.5000000000009 4414.5000000000009 5.5000000000000009 1341.5000000000002
decision_type=2 2 2 2 2 2 2 2 2 2 2 2 2 2 2 2 2 2 2 2 2 2 2 2 2 2 2 2 2
left_child=6 2 3 -2 5 -5 7 11 -4 10 -3 14 13 -13 27 -16 -8 22 19 -19 -20 -22 -18 24 -24 26 -25 28 -1
right_child=1 9 8 4 -6 -7 16 -9 -10 -11 -12 12 -14 -15 15 -17 17 18 20 -21 21 -23 23 25 -26 -27 -28 -29 -30
leaf_value=0.019980963164379955 -0.01000887888235261 -0.010006233493704237 0.42863798469841058 -0.010017949264630802 -0.010006765495753123 0.67438016491781927 -0.0093767965960544104 0.094955607266401149 -0.0100015533866248 -0.010005039980439515 0.26222112048242785 -0.010002379131234456 -0.010002463259788142 0.58255712930750025 0.21895702499875849 -0.010001654129930546 -0.010001561936672345 -0.010001561938357592 -0.010001561938358008 2.1983678583545996 1.9306867165009596 -0.010001561938357703 1.8197902434473414 -0.010001561938357993 -0.010001561938357771 -0.010001561937194538 1.8197902434473046 -0.010002457125618694 0.0020344070238111768
leaf_count=8055 842 334 23 35 264 34 61811 20 36 2677 23 148 353 20 27 661 14284 125 1656 29 33 186 35 1195 232 4139 35 9882 24129
internal_value=0 3.24721 8.21944 5.73356 18.2064 48.2735 -0.223116 0.674673 34.2276 0.622034 7.83374 0.46851 8.39388 22.2153 0.362976 5.75794 -0.696721 0.166963 5.31258 40.586 2.41546 28.2431 -0.357157 1.27247 22.9859 0.192668 4.20657 0.261219 0.587617
internal_count=131323 4268 1234 1175 333 69 127055 43295 59 3034 357 43275 521 168 42754 688 83760 21949 2029 154 1875 219 19920 5636 267 5369 1230 42066 32184
shrinkage=0.01


Tree=3
num_leaves=30
num_cat=0
split_feature=7 10 4 10 7 11 13 7 13 11 13 12 10 7 3 12 13 7 3 13 12 12 7 7 12 3 7 7 12
split_gain=10.3063 16.6144 13.7328 11.0107 10.3655 9.49178 9.56216 8.78973 36.0954 96.0417 5.35421 4.62089 8.0566 17.8207 15.2733 120.784 13.1431 9.14871 4.38863 5.9985 7.38655 260.885 10.5758 15.8633 12.972 47.465 6.5072 25.4327 9.50865
threshold=3405.5000000000005 11.500000000000002 236.00000000000003 15.500000000000002 2905.5000000000005 1.0000000180025095e-35 29.500000000000004 12682.500000000002 38.500000000000007 1.0000000180025095e-35 33.500000000000007 1565.5000000000002 2.5000000000000004 14156.500000000002 7.5000000000000009 720.50000000000011 30.500000000000004 15010.500000000002 5.5000000000000009 35.500000000000007 8367.5000000000018 8347.5000000000018 3152.5000000000005 3192.5000000000005 8132.5000000000009 3.5000000000000004 584.50000000000011 548.50000000000011 2280.5000000000005
decision_type=2 2 2 2 2 2 2 2 2 2 2 2 2 2 2 2 2 2 2 2 2 2 2 2 2 2 2 2 2
left_child=1 2 10 4 -3 6 -6 -2 11 -10 -1 12 -9 -14 16 -16 17 -15 19 20 21 22 24 -24 26 -26 27 -12 -29
right_child=7 3 -4 -5 5 -7 -8 8 9 -11 18 -13 13 14 15 -17 -18 -19 -20 -21 -22 -23 23 -25 25 -27 -28 28 -30
leaf_value=-0.0025626487097766362 -0.0080983055004019231 -0.010014094772724082 0.086423711140430529 -0.010007488013883289 0.3062534910669924 -0.010011362235996584 -0.010010983289011111 -0.010001547248398444 -0.010003369984515141 0.69152534417461498 -0.010007430585664888 -0.010001988883020061 -0.010008671713550688 0.32027696678643758 -0.010004623866652138 1.5779956482867781 -0.010016106744664086 -0.01000154748638267 -0.010002061576266657 0.0099808794706455067 -0.010001783310892106 2.7230325491589329 0.33697272850298471 -0.010001547486383121 -0.010002371889087173 0.65176106531312927 -0.010001585156931598 0.42686516554169374 -0.010004738200120709
leaf_count=26951 76535 60 23 256 22 30 33 1754 298 34 413 5079 464 26 72 23 130 75 3961 11293 1202 21 34 157 196 31 2109 20 21
internal_value=0 0.759708 0.568652 10.3988 15.9074 21.093 25.8416 -0.576942 1.78226 21.1289 0.376376 0.484226 2.79527 6.82465 15.7366 37.0154 9.72867 22.8757 1.35586 1.90521 4.31013 6.15717 4.40283 17.8249 2.98333 17.7099 1.22862 7.73765 33.1758
internal_count=131323 46833 46432 401 145 85 55 84490 7955 332 46409 7623 2544 790 326 95 231 101 19458 15497 4204 3002 2981 191 2790 227 2563 454 41
shrinkage=0.01


Tree=4
num_leaves=30
num_cat=0
split_feature=7 10 2 4 7 13 11 7 13 13 2 7 7 13 12 12 2 10 7 12 13 7 9 2 2 7 12 12 12
split_gain=9.99063 14.3469 13.438 12.4193 8.40754 26.139 36.8778 7.82791 5.93517 4.99968 5.68386 8.44428 189.268 8.30358 17.1661 173.459 4.47257 6.63272 9.57123 33.6302 8.51453 7.9013 4.02381 5.60075 10.8294 10.5742 7.12644 23.6802 9.66289
threshold=3405.5000000000005 11.500000000000002 1998.5000000000002 236.00000000000003 12682.500000000002 38.500000000000007 1.0000000180025095e-35 2905.5000000000005 31.500000000000004 33.500000000000007 2037.5000000000002 2577.5000000000005 2618.5000000000005 27.500000000000004 1573.5000000000002 2199.5000000000005 1336.5000000000002 2.5000000000000004 14156.500000000002 977.50000000000011 30.500000000000004 15010.500000000002 5.5000000000000009 2006.5000000000002 2005.5000000000002 2936.5000000000005 8132.5000000000009 8169.5000000000009 13459.000000000002
decision_type=2 2 2 2 2 2 2 2 2 2 2 2 2 2 2 2 2 2 2 2 2 2 2 2 2 2 2 2 2
left_child=1 3 7 9 -2 16 -7 -3 -9 10 -1 13 -13 14 -12 -16 -6 -18 -19 -20 21 -21 23 24 26 -26 -11 -28 -29
right_child=4 2 -4 -5 5 6 -8 8 -10 22 11 12 -14 -15 15 -17 17 18 19 20 -22 -23 -24 -25 25 -27 27 28 -30
leaf_value=-0.0076928329188078693 -0.0080809387514583844 -0.01000805066098864 -0.010009967725652127 0.079460232364297514 -0.010002434074052689 -0.010003336145205486 0.34434379230846746 0.22820033808006476 -0.010012681954386963 0.0094717675594311306 -0.010007098054879418 2.0115008184280452 -0.010002339544962663 0.00084095910820689154 2.0085178596002216 -0.010001560227413013 -0.010001531413687035 -0.010007665532554591 0.4955520804335925 0.22105500278366641 -0.010010261707409089 -0.010001530743195946 -0.010002036378623852 -0.010003281070291178 -0.010001581637701675 0.26411725849202572 0.32270875662545218 0.067969021053563505 -0.010001992723199449
leaf_count=24799 76535 79 269 23 4929 298 34 21 32 9040 251 27 443 1217 20 194 1670 452 31 48 346 147 3925 3410 145 21 35 1221 1661
internal_value=0 0.736477 9.20528 0.551123 -0.57506 1.6893 15.9911 15.9313 19.8494 0.363349 -0.254335 1.85341 11.8816 1.03445 10.2261 27.3919 0.459987 2.69722 6.01507 10.8024 5.67908 14.1989 1.29132 1.79508 2.49623 15.8258 2.1406 4.82419 3.56458
internal_count=131323 46833 401 46432 84490 7955 332 132 53 46409 26951 2152 470 1682 465 214 7623 2694 1024 572 541 195 19458 15533 12123 166 11957 2917 2882
shrinkage=0.01


Tree=5
num_leaves=30
num_cat=0
split_feature=15 7 12 13 7 7 7 12 2 13 7 13 7 2 2 2 7 7 2 10 7 12 13 12 10 13 2 12 12
split_gain=291.138 11.3947 43.5009 145.519 43.8859 185.127 9.54543 47.8502 138.779 141.219 7.24734 21.1165 24.1244 14.732 7.51517 5.77322 22.8933 23.9208 4.34729 6.02459 7.46989 16.4352 6.91915 5.67014 3.86897 43.6543 271.079 4.8998 4.93433
threshold=76.000000000000014 1767.5000000000002 46243.500000000007 42.500000000000007 884.50000000000011 813.50000000000011 1662.5000000000002 8132.5000000000009 1341.5000000000002 34.500000000000007 12682.500000000002 38.500000000000007 12883.500000000002 1362.5000000000002 1310.5000000000002 2059.0000000000005 1134.5000000000002 1248.5000000000002 1336.5000000000002 2.5000000000000004 14156.500000000002 977.50000000000011 30.500000000000004 1899.5000000000002 1.5000000000000002 26.500000000000004 1386.5000000000002 9011.0000000000018 9248.0000000000018
decision_type=2 2 2 2 2 2 2 2 2 2 2 2 2 2 2 2 2 2 2 2 2 2 2 2 2 2 2 2 2
left_child=1 2 6 4 5 -4 15 -8 9 -9 -3 18 13 -13 -14 24 -17 -18 -12 -20 -21 -22 23 -23 27 26 -26 -1 -29
right_child=-2 10 3 -5 -6 -7 7 8 -10 -11 11 12 14 -15 -16 16 17 -19 19 20 21 22 -24 -25 25 -27 -28 28 -30
leaf_value=-0.0043020644800319729 2.9190521449522993 -0.0063808873249164731 -0.010001555456796525 1.8207484903933218 -0.010001552361880113 2.418226064761086 -0.010001777077173897 -0.010010950801128318 -0.010002221983663828 1.707129254673011 -0.010002413459187889 0.58036595538364144 0.15103693271793234 -0.01000751474250821 -0.010003085276566596 -0.010014751962611293 0.54212414821841659 -0.010001539384746634 -0.010001516470454695 -0.010007575847865031 0.29957722143175775 0.17832643439838117 -0.010010019950194949 -0.010001604170815451 3.1956723118122792 0.010349122891729175 -0.010001553972112727 0.093632290266363952 0.013964006842494981
leaf_count=16892 22 100720 85 36 355 26 1208 33 259 30 4956 21 48 21 241 194 24 90 1651 436 31 52 355 144 20 1259 110 116 1888
internal_value=0 -0.135305 1.23761 24.683 12.8101 56.696 0.856538 6.78754 30.713 100.103 -0.46699 1.63475 13.3826 43.3041 7.58169 0.52062 7.38908 30.2864 0.449986 2.62509 5.63949 9.37669 5.23066 12.1566 0.335246 2.96156 48.488 0.00158381 2.89829
internal_count=131323 131301 22625 502 466 111 22123 1530 322 63 108676 7956 331 42 289 20593 308 114 7625 2669 1018 582 551 196 20285 1389 130 18896 2004
shrinkage=0.01


Tree=6
num_leaves=30
num_cat=0
split_feature=15 7 12 7 7 12 13 2 7 12 12 2 7 13 11 2 7 2 2 10 7 12 13 7 12 12 10 13 11
split_gain=14.1833 10.5093 19.808 84.1885 91.1105 8.94922 26.2507 76.313 7.30259 21.983 22.1237 34.8016 7.02576 17.3151 16.2067 5.09606 14.8913 12.1391 4.15334 5.44907 6.30532 10.1455 5.75617 4.37122 3.10857 4.60714 4.51692 6.03238 32.4379
threshold=76.000000000000014 1767.5000000000002 46243.500000000007 1662.5000000000002 1733.5000000000002 47059.500000000007 38.500000000000007 2007.5000000000002 1662.5000000000002 8132.5000000000009 8367.5000000000018 1336.5000000000002 12682.500000000002 38.500000000000007 1.0000000180025095e-35 2059.0000000000005 1134.5000000000002 2064.0000000000005 1336.5000000000002 2.5000000000000004 14156.500000000002 977.50000000000011 30.500000000000004 15010.500000000002 9011.0000000000018 9248.0000000000018 1.5000000000000002 26.500000000000004 1.0000000180025095e-35
decision_type=2 2 2 2 2 2 2 2 2 2 2 2 2 2 2 2 2 2 2 2 2 2 2 2 2 2 2 2 2
left_child=1 2 8 5 -5 6 7 -4 15 -10 11 -11 -3 18 -15 24 -17 -18 -14 -20 -21 -22 23 -23 26 -26 -1 28 -28
right_child=-2 12 3 4 -6 -7 -8 -9 9 10 -12 -13 13 14 -16 16 17 -19 19 20 21 22 -24 -25 25 -27 27 -29 -30
leaf_value=-0.0042769354988637662 0.14895702782459019 -0.0063567008886310054 1.1777097873564777 1.9418050105359788 -0.010003260836252921 -0.010008224211321177 -0.010009864837671405 -0.010006954079822779 -0.010001759337644229 -0.010009770523181376 -0.010002497681213607 0.45003126078321787 -0.010002389163454589 -0.010003167986390385 0.19495527778967772 -0.010014606151487467 0.33694111246538355 -0.010001885437494487 -0.010001501453112275 -0.010007500606312661 0.22047020283436691 0.15045402614841727 -0.010009920719417991 -0.010001577855823536 0.085079523634007989 0.011465285032919867 0.42647500601751914 0.011947903349029452 -0.010034662084472162
leaf_count=16892 22 100720 29 23 24 297 61 68 1208 34 257 31 4956 300 31 194 26 88 1651 436 31 47 355 149 119 2159 53 1007 55
internal_value=0 -0.139516 1.14609 12.5698 103.07 6.25769 15.207 41.4576 0.804436 5.53663 16.5317 27.5971 -0.464633 1.58223 11.3866 0.491276 6.64752 21.5474 0.441081 2.51978 5.24704 8.40255 4.90343 10.6677 0.312174 2.50633 -0.0032747 2.70705 10.2102
internal_count=131323 131301 22625 502 47 455 158 97 22123 1530 322 65 108676 7956 331 20593 308 114 7625 2669 1018 582 551 196 20285 2278 18007 1115 108
shrinkage=0.01


Tree=7
num_leaves=30
num_cat=0
split_feature=7 7 12 13 12 2 7 13 11 7 7 13 12 2 12 12 2 13 10 7 7 12 2 12 7 3 12 2 2
split_gain=12.4299 13.7565 26.3089 32.7076 18.3102 17.1686 6.83296 14.7807 11.8345 5.58873 16.9474 28.083 111.124 11.0926 6.87453 8.82293 20.4593 24.2914 4.77524 8.7997 23.9867 4.35193 3.97947 5.0041 6.7838 6.68751 3.74218 3.72759 7.22318
threshold=1767.5000000000002 1662.5000000000002 8132.5000000000009 41.500000000000007 8367.5000000000018 1336.5000000000002 12682.500000000002 38.500000000000007 1.0000000180025095e-35 1175.5000000000002 1102.5000000000002 28.500000000000004 8428.5000000000018 2035.5000000000002 46243.500000000007 47059.500000000007 1983.5000000000002 37.500000000000007 1.5000000000000002 918.50000000000011 958.50000000000011 12900.500000000002 1336.5000000000002 1565.5000000000002 14156.500000000002 7.5000000000000009 1004.5000000000001 1961.5000000000002 1959.5000000000002
decision_type=2 2 2 2 2 2 2 2 2 2 2 2 2 2 2 2 2 2 2 2 2 2 2 2 2 2 2 2 2
left_child=1 9 -3 4 5 -4 -2 22 -9 10 14 12 13 -12 18 16 -16 -18 27 -20 -21 -13 -8 24 -24 26 -26 28 -1
right_child=6 2 3 -5 -6 -7 7 8 -10 -11 11 21 -14 -15 15 -17 17 -19 19 20 -22 -23 23 -25 25 -27 -28 -29 -30
leaf_value=0.0063294166533920757 -0.0063324609100555889 -0.010001742073669637 -0.010009673337763517 0.57542067111380701 -0.010005206458815325 0.29255879531770496 -0.010002365647884728 -0.010003136697081525 0.15962139350683111 -0.010003129185191067 -0.010005871592774622 -0.010002558216220371 1.480585022728071 0.24417981404851649 -0.01001857402977061 -0.010012020927522585 -0.010010113535934008 0.62489582209250505 0.0171299852100107 0.3833830229406941 -0.010018915960193917 0.075279107884958105 -0.010006633914150046 -0.010001532786266419 -0.010002016382532482 0.18182692862034205 0.089082378129969803 -0.010377469231006456 0.097964739806180465
leaf_count=6639 100720 1208 34 20 288 27 4956 300 31 7340 174 746 22 21 32 114 29 23 414 38 126 81 546 1624 361 71 67 5173 98
internal_value=0 1.26796 7.17367 15.9481 11.5032 20.6653 -0.46221 1.53721 10.0389 0.82356 1.45214 8.44775 25.1298 13.3121 0.783909 8.91309 17.7367 38.1967 0.528366 3.6597 14.3504 3.12223 0.433039 2.42543 4.93088 8.32709 5.1584 0.0530571 1.27983
internal_count=131323 22647 1577 369 349 61 108676 7956 331 21070 13730 1044 217 195 12686 198 84 52 12488 578 164 827 7625 2669 1045 499 428 11910 6737
shrinkage=0.01



feature importances:
smart_9_raw=68
smart_193_raw=48
smart_3_raw=41
smart_194_raw=32
smart_191_raw=18
smart_4_raw=8
smart_192_raw=6
smart_197_raw=5
smart_5_raw=3
smart_196_raw=2
smart_12_raw=1

pandas_categorical:[]
