tree
version=v2
num_class=1
num_tree_per_iteration=1
label_index=0
max_feature_idx=4
objective=binary sigmoid:1
feature_names=smart_1_raw smart_5_raw smart_9_raw smart_194_raw smart_197_raw
feature_infos=[0:130267] none [4335:18337] [18:33] [0:1083]
tree_sizes=877 892 1927 654 1604 2117

Tree=0
num_leaves=10
num_cat=0
split_feature=4 4 0 0 3 3 3 3 0
split_gain=23.2086 137.859 1.11022e-16 1.11022e-16 1.11022e-16 1.11022e-16 1.11022e-16 1.38778e-17 6.93889e-18
threshold=32.500000000000007 426.00000000000006 59.500000000000007 1.0000000180025095e-35 28.500000000000004 18.500000000000004 27.500000000000004 26.500000000000004 60.500000000000007
decision_type=2 2 2 2 2 2 2 2 2
left_child=2 -2 3 4 5 -1 -7 -5 -4
right_child=1 -3 8 7 -6 6 -8 -9 -10
leaf_value=-8.1900435254370976 -6.566861693366743 -8.1900435254370976 -8.1900435254370958 -8.1900435254370976 -8.1900435254370976 -8.1900435254370976 -8.1900435254370958 -8.1900435254370958 -8.1900435254370976
leaf_count=131 22 124 33 289 60 2010 25 28 134
internal_value=0 23.4586 -1.00028 -1.00028 -1.00028 -1.00028 -1.00028 -1.00028 -1.00028
internal_count=2856 146 2710 2543 2226 2166 2035 317 167
shrinkage=1


Tree=1
num_leaves=10
num_cat=0
split_feature=4 2 4 2 2 2 2 2 2
split_gain=14.1051 123.088 1.84743e-08 2.22045e-16 1.11022e-16 1.11022e-16 1.11022e-16 1.11022e-16 3.46945e-18
threshold=32.500000000000007 10499.500000000002 426.00000000000006 15043.500000000002 14927.000000000002 13071.000000000002 12461.500000000002 12397.000000000002 10060.500000000002
decision_type=2 2 2 2 2 2 2 2 2
left_child=3 2 -2 4 5 6 7 -1 -4
right_child=1 -3 8 -5 -6 -7 -8 -9 -10
leaf_value=-0.010002773413191939 -0.010014061919768015 1.3741806443484328 -0.010002773413191463 -0.010002773413191801 -0.010002773413190389 -0.010002773413191859 -0.010002773413191779 -0.01000277341319024 -0.010002773413190755
leaf_count=1861 21 22 73 231 23 371 203 21 30
internal_value=0 14.3299 -1.00085 -1.00028 -1.00028 -1.00028 -1.00028 -1.00028 -1.00028
internal_count=2856 146 124 2710 2479 2456 2085 1882 103
shrinkage=0.01


Tree=2
num_leaves=23
num_cat=0
split_feature=2 2 2 0 2 0 2 2 3 2 3 2 3 2 3 2 2 2 2 2 0 2
split_gain=1.23523 69.0212 9.19499e-09 2.1102e-09 1.64967e-09 1.52082e-09 1.17384e-09 3.94504e-09 4.23978e-10 2.91179e-10 1.96993e-10 2.31849e-10 3.38032e-10 2.21361e-10 6.77235e-11 1.3216e-10 4.9076e-11 4.68524e-11 6.87132e-11 2.77556e-17 1.38778e-17 2.77556e-17
threshold=10715.500000000002 10782.500000000002 4946.5000000000009 86274.500000000015 11021.000000000002 1.0000000180025095e-35 8783.0000000000018 8999.0000000000018 24.500000000000004 8878.5000000000018 27.500000000000004 10499.500000000002 22.500000000000004 9099.5000000000018 25.500000000000004 9880.5000000000018 10879.000000000002 11167.500000000002 11100.500000000002 8323.0000000000018 1.0000000180025095e-35 10122.000000000002
decision_type=2 2 2 2 2 2 2 2 2 2 2 2 2 2 2 2 2 2 2 2 2 2
left_child=2 -2 -1 6 5 16 19 8 9 -8 11 13 -13 -9 20 -16 -3 18 -6 -4 21 -15
right_child=1 4 3 -5 17 -7 7 10 -10 -11 -12 12 -14 14 15 -17 -18 -19 -20 -21 -22 -23
leaf_value=-0.01001088326298135 0.70463346694257856 -0.010003838036010624 -0.01000274614381496 -0.010007794767426871 -0.010002746143813981 -0.010007967290859501 -0.010004691446360727 -0.010004509403225146 -0.010008660276654988 -0.010007075061717304 -0.010004760778259996 -0.010005404000323237 -0.010002746143813919 -0.010002746143814878 -0.010004157260441167 -0.010002746143814426 -0.010002746143813808 -0.010002746143814993 -0.010004056545415354 -0.010002746143814743 -0.010002746143814134 -0.010002746143814469
leaf_count=26 23 27 588 21 35 23 25 28 22 36 24 28 33 252 36 61 30 1278 22 131 41 66
internal_value=0 1.44002 -1.00037 -1.00034 -1.0003 -1.00053 -1.00033 -1.00038 -1.0007 -1.00062 -1.00032 -1.00031 -1.00042 -1.0003 -1.00029 -1.00033 -1.00033 -1.00028 -1.00033 -1.00027 -1.00027 -1.00027
internal_count=2856 1438 1418 1392 1415 80 1371 652 83 61 569 545 61 484 456 97 57 1335 57 719 359 318
shrinkage=0.01


Tree=3
num_leaves=7
num_cat=0
split_feature=4 2 4 2 2 2
split_gain=9.44206 16.2996 1.73958e-08 1.28163e-11 6.23494e-10 5.55112e-17
threshold=32.500000000000007 10499.500000000002 426.00000000000006 10782.500000000002 10684.500000000002 16188.000000000002
decision_type=2 2 2 2 2 2
left_child=3 2 -2 4 -1 -5
right_child=1 -3 -4 5 -6 -7
leaf_value=-0.010002719118872695 -0.010013783144848588 0.25941410584303365 -0.010002719120494231 -0.010002719117902393 -0.010004886197820795 -0.0100027191176133
leaf_count=1273 21 22 103 1307 31 99
internal_value=0 9.63971 -1.00083 -1.00028 -1.00028 -1.00027
internal_count=2856 146 124 2710 1304 1406
shrinkage=0.01


Tree=4
num_leaves=19
num_cat=0
split_feature=4 4 2 2 2 2 2 2 2 2 2 4 2 2 2 2 3 3
split_gain=8.39314 13.8043 3.47177e-08 1.24176e-11 6.04859e-10 5.55112e-17 5.55112e-17 1.11022e-16 5.55112e-17 5.55112e-17 5.55112e-17 2.08167e-17 3.46945e-18 3.46945e-18 3.46945e-18 3.46945e-18 3.46945e-18 3.46945e-18
threshold=32.500000000000007 426.00000000000006 10499.500000000002 10782.500000000002 10684.500000000002 10534.500000000002 10230.500000000002 6134.5000000000009 16762.500000000004 15304.500000000002 10148.000000000002 1008.5000000000001 9612.0000000000018 17133.000000000004 16032.500000000002 15597.000000000002 26.500000000000004 24.500000000000004
decision_type=2 2 2 2 2 2 2 2 2 2 2 2 2 2 2 2 2 2
left_child=3 -2 11 4 5 6 7 16 9 -5 -9 12 -3 -10 15 -11 -1 -8
right_child=1 2 -4 8 -6 -7 17 10 13 14 -12 -13 -14 -15 -16 -17 -18 -19
leaf_value=-0.010002692356183007 0.22394214512534522 -0.010002692355050533 -0.010017789028371858 -0.010002692353179134 -0.01000483744474154 -0.010002691928644647 -0.010002692230746972 -0.010002692319972509 -0.010002692352872253 -0.01000269235287316 -0.01000269231575357 -0.010002691759368893 -0.01000269235287302 -0.01000269235287341 -0.010002692352873132 -0.01000269235287302 -0.010002692356695609 -0.010002692106825292
leaf_count=66 22 42 21 1222 31 38 44 1021 20 39 29 27 34 53 38 34 40 35
internal_value=0 8.58717 -1.0011 -1.00027 -1.00028 -1.00027 -1.00027 -1.00027 -1.00027 -1.00027 -1.00027 -1.00027 -1.00027 -1.00027 -1.00027 -1.00027 -1.00027 -1.00027
internal_count=2856 146 124 2710 1304 1273 1235 1156 1406 1333 1050 103 76 73 111 73 106 79
shrinkage=0.01


Tree=5
num_leaves=25
num_cat=0
split_feature=4 4 4 0 3 0 0 3 4 0 3 3 3 3 3 3 0 4 3 3 3 3 3 4
split_gain=8.97529e-08 9.24052e-09 2.03327e-08 8.1198e-10 2.07501e-12 3.21893e-12 1.73877e-11 1.61421e-12 9.07441e-13 1.09515e-12 6.92335e-13 1.08494e-12 6.81066e-13 1.93334e-12 3.64792e-13 2.39697e-13 3.31846e-13 2.51493e-13 1.12549e-13 7.10543e-15 2.77556e-17 3.46945e-18 3.46945e-18 1.73472e-18
threshold=32.500000000000007 426.00000000000006 1024.5000000000002 127876.00000000001 23.500000000000004 59.500000000000007 60.500000000000007 18.500000000000004 1.0000000180025095e-35 1.0000000180025095e-35 28.500000000000004 27.500000000000004 25.500000000000004 24.500000000000004 26.500000000000004 20.500000000000004 1.0000000180025095e-35 1.0000000180025095e-35 22.500000000000004 21.500000000000004 21.500000000000004 22.500000000000004 22.500000000000004 986.00000000000011
decision_type=2 2 2 2 2 2 2 2 2 2 2 2 2 2 2 2 2 2 2 2 2 2 2 2
left_child=4 -2 21 -4 5 7 -7 -1 9 10 11 12 13 -6 -14 -9 17 18 19 -17 -18 -3 -8 -23
right_child=1 2 3 -5 8 6 22 15 -10 -11 -12 -13 14 -15 -16 16 20 -19 -20 -21 -22 23 -24 -25
leaf_value=-0.010002751850049386 -0.010017071186505964 -0.010002665868528014 -0.010012950821193179 -0.010016018358241143 -0.010002755001935615 -0.010003164900979701 -0.010002665868362402 -0.010002665789819684 -0.010002665868362424 -0.010002848670660329 -0.010002665657370194 -0.010002848426633227 -0.010002764996144014 -0.010002665868682261 -0.010002728258157838 -0.010002703920489171 -0.010002665821656083 -0.010002665736997858 -0.010002685221934602 -0.0100026988523038 -0.0100026657907732 -0.010002665546578906 -0.010002665868361977 -0.010002665869171758
leaf_count=130 21 28 23 24 188 31 73 303 76 30 56 30 225 175 180 148 23 131 292 342 237 27 40 23
internal_value=0 -1.00131 -1.00106 -1.0015 -1.00027 -1.00027 -1.00028 -1.00027 -1.00027 -1.00027 -1.00027 -1.00027 -1.00027 -1.00027 -1.00027 -1.00027 -1.00027 -1.00027 -1.00027 -1.00027 -1.00027 -1.00027 -1.00027 -1.00027
internal_count=2856 146 125 47 2710 1750 144 1606 960 884 854 798 768 363 405 1476 1173 913 782 490 260 78 113 50
shrinkage=0.01



feature importances:
smart_9_raw=39
smart_194_raw=23
smart_197_raw=15
smart_1_raw=11

pandas_categorical:[]
