tree
version=v2
num_class=1
num_tree_per_iteration=1
label_index=0
max_feature_idx=4
objective=binary sigmoid:1
feature_names=smart_1_raw smart_5_raw smart_9_raw smart_194_raw smart_197_raw
feature_infos=[0:244133939] [0:3975] [3:37542] [14:36] [0:900]
tree_sizes=2328

Tree=0
num_leaves=30
num_cat=0
split_feature=4 0 0 3 0 2 0 2 0 0 2 2 2 0 3 0 0 2 0 0 3 0 0 2 2 0 3 0 3
split_gain=56.0244 86.5171 97.5771 64.4417 111.622 11.4759 170.884 2.9276 10.3446 169.234 3.00011 22.2998 84.4671 106.543 217.464 352.085 114.475 10.4067 62.4614 108.683 2.82362 9.59725 146.842 2.00214 46.011 86.6001 33.279 99.8229 5.75805
threshold=2.5000000000000004 18123306.500000004 230867369.50000003 27.500000000000004 81049216.000000015 35568.500000000007 15266226.500000002 1637.5000000000002 179306639.00000003 185951558.50000003 18046.500000000004 18709.500000000004 18577.000000000004 125594605.00000001 22.500000000000004 64824156.500000007 90807467.500000015 18136.500000000004 201515359.00000003 220475403.00000003 17.500000000000004 187764218.00000003 191701973.50000003 24497.500000000004 24306.500000000004 221489358.50000003 22.500000000000004 66785100.000000007 25.500000000000004
decision_type=2 2 2 2 2 2 2 2 2 2 2 2 2 2 2 2 2 2 2 2 2 2 2 2 2 2 2 2 2
left_child=5 -2 3 -3 -5 7 -7 8 -1 -10 20 12 17 14 15 -14 -17 18 -12 -20 21 -9 -23 24 28 26 27 -26 -13
right_child=1 2 -4 4 -6 6 -8 10 9 -11 11 23 13 -15 -16 16 -18 -19 19 -21 -22 22 -24 -25 25 -27 -28 -29 -30
leaf_value=-8.2181487644792455 -7.0333968318509035 -8.2181487644792455 -7.0333968318510429 -6.3817832689056511 -8.2181487644792437 -6.3817832689053153 -8.2181487644792455 -8.2181487644792455 -6.3817832689056502 -8.2181487644792455 -8.2181487644792455 -8.2181487644792455 -8.2181487644792437 -8.2181487644792455 -8.2181487644792455 -4.5454177733320584 -6.5487255866850411 -8.2181487644792455 -6.3817832689056511 -8.2181487644792437 -8.2163809886845076 -6.6213092031108634 -8.2181487644792455 -8.216087285476581 -6.749056368020292 -6.993905100763441 -8.2181487644792455 -8.2181487644792455 -8.1831203334716367
leaf_count=650 31 434 31 20 31 20 268 846 20 235 245 9678 34 146 76 20 22 1467 20 29 41552 23 263 17816 25 30 188 53 2097
internal_value=0 19.1427 13.2351 6.57237 71.0141 -0.322137 11.7523 -0.368175 3.05799 13.4026 -0.409722 0.0344293 6.13471 35.9735 71.4878 143.976 261.338 1.08532 11.492 73.9534 -0.742138 2.24419 11.8414 -0.385836 0.21677 23.8155 12.807 46.086 -0.376454
internal_count=76370 547 516 485 51 75823 288 75535 905 255 74630 31946 2059 298 152 76 42 1761 294 49 42684 1132 286 29887 12071 296 266 78 11775
shrinkage=1



feature importances:
smart_1_raw=15
smart_9_raw=8
smart_194_raw=5
smart_197_raw=1

pandas_categorical:[]
