tree
version=v2
num_class=1
num_tree_per_iteration=1
label_index=0
max_feature_idx=16
objective=binary sigmoid:1
feature_names=smart_1_raw smart_3_raw smart_4_raw smart_5_raw smart_7_raw smart_9_raw smart_10_raw smart_11_raw smart_12_raw smart_192_raw smart_193_raw smart_194_raw smart_196_raw smart_197_raw smart_198_raw smart_199_raw smart_200_raw
feature_infos=[0:1] [3966:4358] [16:96] none none [12938:36799] none none [13:95] [6:32] [16:96] [22:45] none none none none none
tree_sizes=1156

Tree=0
num_leaves=14
num_cat=0
split_feature=5 9 9 2 5 5 11 2 5 5 5 5 5
split_gain=714.272 196.712 77.9052 66.667 32.4225 27.9275 3.55271e-15 2.77556e-17 5.55112e-17 2.77556e-17 2.77556e-17 1.38778e-17 6.93889e-18
threshold=35340.000000000007 12.500000000000002 8.5000000000000018 19.500000000000004 35588.000000000007 35239.500000000007 35.500000000000007 69.500000000000014 27222.500000000004 31632.500000000004 30313.000000000004 28133.500000000004 26766.500000000004
decision_type=2 2 2 2 2 2 2 2 2 2 2 2 2
left_child=5 2 -2 -4 -3 6 -1 8 12 10 11 -10 -8
right_child=1 4 3 -5 -6 -7 7 -9 9 -11 -12 -13 -14
leaf_value=-6.8967120824583006 -6.2200447340513376 -6.8967120824582997 -5.9622666965629589 -5.1903335516928877 -6.4180937140728709 -6.6163784666896985 -6.8967120824582997 -6.8967120824582997 -6.8967120824582997 -6.8967120824582997 -6.8967120824582997 -6.8967120824583006 -6.8967120824582997
leaf_count=9004 29 21 21 23 41 35 20 26 31 28 23 78 24
internal_value=0 71.6781 106.524 132.795 30.6495 -0.895167 -1.00102 -1.00102 -1.00102 -1.00102 -1.00102 -1.00102 -1.00102
internal_count=9404 135 73 44 62 9269 9234 230 204 160 132 109 44
shrinkage=1



feature importances:
smart_9_raw=8
smart_4_raw=2
smart_192_raw=2
smart_194_raw=1

pandas_categorical:[]
