tree
version=v2
num_class=1
num_tree_per_iteration=1
label_index=0
max_feature_idx=4
objective=binary sigmoid:1
feature_names=smart_1_raw smart_5_raw smart_9_raw smart_194_raw smart_197_raw
feature_infos=[26366:244030129] [0:3945] [17139:34046] [14:32] none
tree_sizes=1787 1179 1590

Tree=0
num_leaves=22
num_cat=0
split_feature=2 0 2 3 0 0 0 0 0 0 0 0 0 0 0 0 0 2 2 0 2
split_gain=68.7752 229.653 8.69499 31.3367 4.44089e-16 4.44089e-16 4.44089e-16 1.11022e-16 2.22045e-16 5.55112e-17 2.77556e-17 2.77556e-17 1.38778e-17 1.38778e-17 1.38778e-17 1.38778e-17 1.38778e-17 1.38778e-17 1.38778e-17 6.93889e-18 6.93889e-18
threshold=32736.000000000004 177028890.50000003 32063.500000000004 19.500000000000004 200377207.00000003 184294424.50000003 51065671.000000007 47331883.000000007 39190687.000000007 198710047.50000003 190512099.00000003 195973555.50000003 124383426.50000001 78200217.500000015 73696912.000000015 188327507.50000003 44170267.000000007 29561.000000000004 29587.000000000004 176304224.50000003 28412.500000000004
decision_type=2 2 2 2 2 2 2 2 2 2 2 2 2 2 2 2 2 2 2 2 2
left_child=2 12 4 -4 5 6 7 8 -1 10 15 18 13 -2 -5 17 -10 -7 -12 -16 -9
right_child=1 -3 3 14 -6 9 -8 20 16 -11 11 -13 -14 -15 19 -17 -18 -19 -20 -21 -22
leaf_value=-6.6993629227802858 -6.6993629227802858 -5.6921113579286793 -6.2964622968396444 -6.6993629227802858 -6.6993629227802858 -6.6993629227802858 -6.6993629227802858 -6.6993629227802858 -6.6993629227802858 -6.6993629227802858 -6.6993629227802858 -6.6993629227802858 -6.6993629227802858 -6.6993629227802858 -6.6993629227802858 -6.6993629227802858 -6.6993629227802858 -6.6993629227802858 -6.6993629227802858 -6.6993629227802858 -6.6993629227802858
leaf_count=518 32 24 20 23 539 33 1626 24 62 22 56 25 21 23 26 28 34 20 21 21 21
internal_value=0 23.1728 -0.742892 7.9521 -1.00124 -1.00124 -1.00124 -1.00124 -1.00124 -1.00124 -1.00124 -1.00124 -1.00124 -1.00124 -1.00124 -1.00124 -1.00124 -1.00124 -1.00124 -1.00124 -1.00124
internal_count=3219 100 3119 90 3029 2490 2285 659 614 205 183 102 76 55 70 81 96 53 77 47 45
shrinkage=1


Tree=1
num_leaves=14
num_cat=0
split_feature=2 3 2 3 2 2 3 2 2 2 2 2 2
split_gain=49.9757 34.6991 48.9715 10.2612 9.12196 15.2192 2.0123e-08 2.59886e-09 4.44089e-16 4.44089e-16 1.11022e-16 1.11022e-16 1.11022e-16
threshold=32063.500000000004 21.500000000000004 33125.000000000007 18.500000000000004 32304.500000000004 32736.000000000004 26.500000000000004 33219.000000000007 27940.000000000004 30075.000000000004 29855.000000000004 28273.500000000004 31825.500000000004
decision_type=2 2 2 2 2 2 2 2 2 2 2 2 2
left_child=8 2 3 -2 -5 -6 7 -3 -1 10 11 -10 -11
right_child=1 6 -4 4 5 -7 -8 -9 9 12 -12 -13 -14
leaf_value=-0.010012316451800686 -0.010018780520055759 -0.010020393376915319 0.53930997118361879 0.32942743275335656 -0.010012316451800443 0.27423654440951895 -0.010012316451800283 -0.010023852062196763 -0.010012316451800611 -0.010012316451800675 -0.010012316451800594 -0.010012316451800675 -0.010012316451800528
leaf_count=1665 22 22 21 22 33 20 20 30 81 606 85 542 50
internal_value=0 12.4887 21.1634 12.8819 18.0124 12.2039 -1.00204 -1.00225 -1.00123 -1.00123 -1.00123 -1.00123 -1.00123
internal_count=3219 190 118 97 75 53 72 52 3029 1364 708 623 656
shrinkage=0.01


Tree=2
num_leaves=19
num_cat=0
split_feature=2 0 0 0 2 2 2 0 0 0 0 0 0 0 0 0 0 0
split_gain=42.6834 56.9933 124.288 10.021 2.33484e-09 3.67003e-09 9.5447e-11 4.44089e-16 4.44089e-16 4.44089e-16 2.22045e-16 2.22045e-16 2.22045e-16 2.22045e-16 2.22045e-16 1.11022e-16 1.11022e-16 1.38778e-17
threshold=32063.500000000004 161990778.50000003 182989404.00000003 208440746.00000003 32304.500000000004 33125.000000000007 32736.000000000004 73696912.000000015 233867231.00000003 110823331.00000001 70748982.000000015 64996188.500000007 229113507.00000003 154118947.00000003 225926562.00000003 103321648.00000001 149928584.50000003 69191418.500000015
decision_type=2 2 2 2 2 2 2 2 2 2 2 2 2 2 2 2 2 2
left_child=7 4 -3 -4 -2 6 -6 10 9 15 11 -1 13 16 -15 -9 -11 -13
right_child=1 2 3 -5 5 -7 -8 8 -10 12 -12 17 -14 14 -16 -17 -18 -19
leaf_value=-0.010012194132270051 -0.010017869273178751 0.72038173073594769 -0.010036314962169305 0.17845786656817 -0.010013586251558466 -0.010017126708704565 -0.010014231088923556 -0.010012194132270018 -0.010012194132270004 -0.010012194132270049 -0.010012194132269862 -0.01001219413226994 -0.01001219413226994 -0.010012194132270056 -0.010012194132269898 -0.010012194132269989 -0.010012194132269885 -0.010012194132269749
leaf_count=818 23 20 22 21 36 36 32 320 120 454 36 66 59 931 44 109 46 26
internal_value=0 10.6637 24.913 7.82504 -1.00157 -1.00151 -1.00139 -1.00122 -1.00122 -1.00122 -1.00122 -1.00122 -1.00122 -1.00122 -1.00122 -1.00122 -1.00122 -1.00122
internal_count=3219 190 63 43 127 104 68 3029 2083 1963 946 910 1534 1475 975 429 500 92
shrinkage=0.01



feature importances:
smart_1_raw=29
smart_9_raw=19
smart_194_raw=4

pandas_categorical:[]
