tree
version=v2
num_class=1
num_tree_per_iteration=1
label_index=0
max_feature_idx=16
objective=binary sigmoid:1
feature_names=smart_1_raw smart_2_raw smart_3_raw smart_4_raw smart_5_raw smart_7_raw smart_8_raw smart_9_raw smart_10_raw smart_12_raw smart_192_raw smart_193_raw smart_194_raw smart_196_raw smart_197_raw smart_198_raw smart_199_raw
feature_infos=[0:8257631] [0:997] none [1:9] none [0:262145] [0:18] [0:29790] none [1:9] [1:28060] [1:28060] [18:44] none [0:16] [0:19] [0:1]
tree_sizes=2452 2450 2455 2454 2475 2490 2500 2510

Tree=0
num_leaves=30
num_cat=0
split_feature=16 7 7 10 10 10 7 7 12 10 10 12 10 7 7 7 10 10 7 7 7 7 7 7 7 7 7 7 7
split_gain=326.114 656.806 15.1424 683.615 6.54957 42.7106 320.216 614.306 4.69778 38.0392 109.255 355.453 1.22625 953.758 1.90384 75.0251 129.951 600.964 4.44089e-16 4.44089e-16 4.44089e-16 4.44089e-16 4.44089e-16 4.44089e-16 4.44089e-16 4.44089e-16 4.44089e-16 8.88178e-16 2.22045e-16
threshold=1.0000000180025095e-35 3341.5000000000005 1085.5000000000002 4494.5000000000009 186.50000000000003 180.50000000000003 2404.5000000000005 2476.5000000000005 37.500000000000007 591.50000000000011 437.50000000000006 38.500000000000007 9831.5000000000018 2069.5000000000005 3341.5000000000005 3317.5000000000005 10664.500000000002 10526.500000000002 19770.000000000004 18511.500000000004 17167.500000000004 14586.000000000002 13712.500000000002 12897.000000000002 11481.000000000002 11049.000000000002 10185.000000000002 2332.5000000000005 3865.5000000000005
decision_type=2 2 2 2 2 2 2 2 2 2 2 2 2 2 2 2 2 2 2 2 2 2 2 2 2 2 2 2 2
left_child=2 -2 3 -1 5 -4 -7 -8 12 10 -10 -12 18 -14 15 -15 17 -17 19 20 21 22 23 24 25 26 27 -6 -16
right_child=1 -3 4 -5 8 6 7 -9 9 -11 11 -13 13 14 28 16 -18 -19 -20 -21 -22 -23 -24 -25 -26 -27 -28 -29 -30
leaf_value=-10.368525903712019 -0.51644282914025474 -10.368525903712015 -10.368525903712019 -3.3626001617930923 -10.368525903712019 -10.368525903712019 -0.51644282914133122 -10.368525903712014 -10.368525903712019 -10.368525903712019 -5.2835798007053709 -10.368525903712017 -0.81499080109672128 -10.368525903712019 -10.368525903712019 -10.368525903712017 -10.368525903712019 -2.2847654322679816 -10.368525903712019 -10.368525903712019 -10.368525903712019 -10.368525903712019 -10.368525903712019 -10.368525903712019 -10.368525903712019 -10.368525903712019 -10.368525903712019 -10.368525903712019 -10.368525903712019
leaf_count=1812 32 64 3331 45 31900 537 32 53 514 4765 62 144 33 12535 9069 113 255 39 1369 1436 1455 2328 763 842 917 293 529 38824 37232
internal_value=0 327.403 0.0423307 15.9772 -0.155775 6.97535 49.6859 369.902 -0.349626 4.74777 42.787 152.042 -0.549432 0.0636928 -0.467873 1.43596 76.4611 206.412 -1.00003 -1.00003 -1.00003 -1.00003 -1.00003 -1.00003 -1.00003 -1.00003 -1.00003 -1.00003 -1.00003
internal_count=151323 96 151227 1857 149370 3953 622 85 145417 5485 720 206 139932 59276 59243 12942 407 152 80656 79287 77851 76396 74068 73305 72463 71546 71253 70724 46301
shrinkage=1


Tree=1
num_leaves=30
num_cat=0
split_feature=12 3 7 3 7 7 7 3 12 10 10 7 10 10 3 12 12 10 7 7 10 12 12 7 10 7 10 10 7
split_gain=2.52742 4.76917 9.01101 1.63635 1.1378 3.36137 1.48001 0.89994 2.22037 2.4927 23.6736 1.19138 0.551446 1.50544 1.56573 2.01989 0.514031 0.330863 0.216372 0.168642 0.113132 0.345108 2.72828 0.731169 0.0656528 0.0446511 0.0304822 0.0280373 0.0260759
threshold=37.500000000000007 5.5000000000000009 6728.5000000000009 4.5000000000000009 1948.5000000000002 1924.5000000000002 3293.5000000000005 1.5000000000000002 29.500000000000004 4769.5000000000009 4687.5000000000009 1157.5000000000002 10646.500000000002 10664.500000000002 1.5000000000000002 28.500000000000004 38.500000000000007 9195.5000000000018 706.00000000000011 2428.5000000000005 9831.5000000000018 25.500000000000004 27.500000000000004 2404.5000000000005 186.50000000000003 3583.5000000000005 9195.5000000000018 8175.5000000000009 2404.5000000000005
decision_type=2 2 2 2 2 2 2 2 2 2 2 2 2 2 2 2 2 2 2 2 2 2 2 2 2 2 2 2 2
left_child=4 2 -2 -4 5 7 19 8 -1 10 -10 -12 -8 14 15 25 -5 -7 -9 20 21 28 23 -23 -24 -14 -20 -25 -6
right_child=1 -3 3 16 6 17 12 18 9 -11 11 -13 13 -15 -16 -17 -18 -19 26 -21 -22 22 24 27 -26 -27 -28 -29 -30
leaf_value=-0.010244189259722775 -0.010033853912222968 -0.01003042583745933 -0.010000313942642955 0.17000955747573304 -0.010000313942643819 -0.010000313942644206 -0.010669406005255896 -0.015796838533037677 -0.010301896362755495 -0.010144935188152444 0.29305422396355024 -0.01000031394263725 0.048411046329641029 -0.010000313942644641 -0.010973166844463929 -0.010963853202496236 -0.01000031394263853 0.032472393902383781 -0.010490034145748365 -0.015511568090304819 -0.014406538748117211 -0.010000313942644525 -0.01592710631493258 0.026667070016371169 -0.010000313942644608 -0.010000313942637071 -0.014414051963900497 -0.0100003139426399 -0.015952547982991276
leaf_count=9529 897 4357 188 20 2473 639 47332 1095 613 2874 20 43 20 34176 248 151 52 20 11685 24026 979 2301 252 20 7074 42 20 67 110
internal_value=0 1.06863 5.83835 14.85 -1.23731 -0.83566 -1.32782 -0.992747 -0.282486 1.93701 4.4371 28.1127 -0.885852 -0.364712 1.20783 2.77432 16.4868 2.88199 -1.22218 -1.45893 -1.3661 -1.21153 -0.905127 1.78429 -1.49867 4.79568 -1.07719 2.63412 -1.56413
internal_count=151323 5514 1157 260 145809 26538 119271 25879 13079 3550 676 63 81969 34637 461 213 72 659 12800 37302 13276 12297 9714 2388 7326 62 11705 87 2583
shrinkage=0.01


Tree=2
num_leaves=30
num_cat=0
split_feature=1 12 1 1 10 7 7 7 1 1 12 7 7 12 12 10 7 7 7 10 12 12 7 10 10 10 7 10 7
split_gain=11.1293 2.56106 1.69353 2.92187 5.13853 4.54636 1.32256 3.28301 1.19032 6.2083 12.1173 3.7126 0.69203 0.339157 0.332833 0.31713 0.228749 0.165453 0.136445 0.113527 0.340529 2.68346 0.708049 0.0629996 0.0307151 0.0270975 0.0250147 0.0211991 0.0139535
threshold=131.50000000000003 37.500000000000007 107.50000000000001 108.50000000000001 591.50000000000011 6728.5000000000009 1948.5000000000002 1924.5000000000002 105.50000000000001 104.50000000000001 29.500000000000004 1109.5000000000002 3293.5000000000005 39.500000000000007 28.500000000000004 9195.5000000000018 706.00000000000011 2428.5000000000005 3269.5000000000005 9831.5000000000018 25.500000000000004 27.500000000000004 2404.5000000000005 186.50000000000003 9245.5000000000018 8175.5000000000009 2404.5000000000005 10930.500000000002 3341.5000000000005
decision_type=2 2 2 2 2 2 2 2 2 2 2 2 2 2 2 2 2 2 2 2 2 2 2 2 2 2 2 2 2
left_child=1 6 -3 4 5 -4 7 8 9 -1 -11 -12 17 -7 18 -9 -10 19 -2 20 26 22 -22 -23 -18 -24 -8 -19 -14
right_child=14 2 3 -5 -6 13 12 15 16 10 11 -13 28 -15 -16 -17 24 27 -20 -21 21 23 25 -25 -26 -27 -28 -29 -30
leaf_value=-0.010203031700288643 -0.010000310612063667 -0.010035288333478682 -0.010031923778702996 -0.010042383223465068 -0.010000311153538409 0.15684651398159616 -0.010000311247221779 -0.010000311247222169 -0.015776612006209195 -0.010255950247708281 0.22092875360549 -0.010000311350386605 -0.010996709768118599 -0.01000031125400052 -0.010000310989914019 0.031750218699343698 -0.01041942297030595 -0.015471655696943207 0.10278777467648792 -0.014343681285179429 -0.01000031124722249 -0.015833904645359779 0.026225273821351307 -0.010000311247222575 -0.014350974636257872 -0.010000311247217819 -0.015858502776272418 -0.010000309437502377 -0.010000311366736125
leaf_count=10689 35 2348 281 688 2104 53 2473 639 633 703 27 267 1277 40 89 20 13515 21691 21 979 2295 252 20 7070 20 67 110 2307 80610
internal_value=0 -1.22837 1.04333 2.73678 5.65794 10.7985 -1.26413 -0.830517 -0.987201 0.0308991 6.24777 18.3729 -1.36239 15.3454 9.80509 2.82326 -1.19982 -1.45162 10.141 -1.35944 -1.20431 -0.899407 1.76336 -1.49133 -1.06673 2.59086 -1.55539 -1.5432 -1.05593
internal_count=151323 151178 5514 3166 2478 374 145664 26513 25854 11686 997 294 119151 93 145 659 14168 37264 56 13266 12287 9704 2382 7322 13535 87 2583 23998 81887
shrinkage=0.01


Tree=3
num_leaves=30
num_cat=0
split_feature=12 3 7 7 7 7 3 3 12 10 10 10 10 3 12 12 12 10 7 7 10 12 12 7 10 7 10 3 7
split_gain=2.45255 4.29724 6.7061 1.12309 3.20787 1.40228 1.06179 0.876229 2.09574 2.14543 13.5154 0.549196 1.45204 1.43485 1.74978 0.481709 0.33658 0.304322 0.20835 0.162144 0.113925 0.336042 2.63693 0.688822 0.0605212 0.037318 0.0298188 0.0262315 0.0240012
threshold=37.500000000000007 5.5000000000000009 6728.5000000000009 1948.5000000000002 1924.5000000000002 3293.5000000000005 4.5000000000000009 1.5000000000000002 29.500000000000004 4769.5000000000009 4687.5000000000009 10646.500000000002 10664.500000000002 1.5000000000000002 28.500000000000004 30.500000000000004 38.500000000000007 9195.5000000000018 706.00000000000011 2428.5000000000005 9831.5000000000018 25.500000000000004 27.500000000000004 2404.5000000000005 186.50000000000003 3583.5000000000005 9195.5000000000018 2.5000000000000004 2404.5000000000005
decision_type=2 2 2 2 2 2 2 2 2 2 2 2 2 2 2 2 2 2 2 2 2 2 2 2 2 2 2 2 2
left_child=3 2 -2 4 7 19 -4 8 -1 10 -10 -7 13 14 25 -12 -8 -6 -9 20 21 28 23 -23 -24 -13 -20 -25 -5
right_child=1 -3 6 5 17 11 16 18 9 -11 15 12 -14 -15 -16 -17 -18 -19 26 -21 -22 22 24 27 -26 -27 -28 -29 -30
leaf_value=-0.010239321761187189 -0.010033182653198145 -0.010031268738925491 -0.01000030846638132 -0.010000308465898958 -0.010000308465899353 -0.010655727054481888 0.13423691591406844 -0.015619634242634023 -0.010295726515895413 -0.010142075103515636 0.17990796128418118 0.043916873725393643 -0.010000308474627793 -0.010952146723447147 -0.010943069144892086 -0.010000340590123788 -0.010000320685919772 0.031066323986728435 -0.010386132656487869 -0.015352452624996318 -0.014281985543020117 -0.010000308465899679 -0.015742691954551073 -0.010000313466259856 -0.010000308465899763 -0.010000308465892074 -0.01428908300392138 0.025802339045876716 -0.015766482934773059
leaf_count=9529 897 4357 188 2473 639 47332 20 1095 613 2874 22 20 34176 248 151 41 52 20 11685 24026 979 2301 252 66 7074 42 20 21 110
internal_value=0 1.01919 5.31736 -1.22583 -0.825489 -1.31642 12.0247 -0.981734 -0.2798 1.81815 3.97322 -0.882452 -0.360899 1.15946 2.5984 17.5076 13.087 2.76744 -1.20969 -1.44438 -1.35288 -1.19721 -0.89385 1.73988 -1.48404 4.35359 -1.06661 2.54941 -1.54683
internal_count=151323 5514 1157 145809 26538 119271 260 25879 13079 3550 676 81969 34637 461 213 63 72 659 12800 37302 13276 12297 9714 2388 7326 62 11705 87 2583
shrinkage=0.01


Tree=4
num_leaves=30
num_cat=0
split_feature=1 7 3 1 3 7 7 1 1 3 7 7 10 10 10 7 7 10 1 1 7 7 10 10 10 10 10 10 1
split_gain=9.92819 1.46425 7.94476 4.04991 8.38782 1.3432 3.13526 1.16268 5.40703 6.82371 2.90103 0.560565 0.490407 0.292774 0.263041 0.219205 0.157002 0.114243 0.312974 0.296369 0.111911 0.0418032 0.0314174 0.029874 0.0193974 0.0167567 0.0129913 0.142065 0.0273284
threshold=131.50000000000003 6728.5000000000009 5.5000000000000009 107.50000000000001 4.5000000000000009 1948.5000000000002 1924.5000000000002 105.50000000000001 104.50000000000001 1.5000000000000002 1133.5000000000002 3293.5000000000005 437.50000000000006 9195.5000000000018 10682.500000000002 706.00000000000011 2428.5000000000005 9831.5000000000018 104.50000000000001 111.50000000000001 2526.5000000000005 2404.5000000000005 186.50000000000003 9245.5000000000018 10930.500000000002 192.50000000000003 186.50000000000003 10258.500000000002 104.50000000000001
decision_type=2 2 2 2 2 2 2 2 2 2 2 2 2 2 2 2 2 2 2 2 2 2 2 2 2 2 2 2 2
left_child=1 5 3 -3 -5 6 7 8 -1 10 -10 16 -6 -8 20 -9 17 18 21 22 -2 -7 -20 -17 26 -21 -18 -28 -29
right_child=14 2 -4 4 12 11 13 15 9 -11 -12 -13 -14 -15 -16 23 24 -19 19 25 -22 -23 -24 -25 -26 -27 27 28 -30
leaf_value=-0.010199016256922292 -0.010000304478291019 -0.010064941050434052 -0.010009444097606129 -0.010000304706912702 -0.010000352272076579 -0.010000304871993101 -0.010000304999489276 -0.015599517417372921 0.15205179444310735 -0.010267106985244365 -0.010000304768061208 -0.010615282664272314 0.20810261199660468 0.030417757068959626 -0.010000313670474761 -0.010328721882663879 -0.015682793514303399 -0.014221424752384828 -0.0051822215810946749 -0.015663046237027307 0.090234898614223444 -0.015665991945163701 -0.010000305016034758 -0.014228314628774549 -0.010000301090902166 -0.010000305012779509 -0.010002591008501587 -0.015627039740860355 -0.01000029970919704
leaf_count=10691 37 57 25897 999 31 4716 640 637 26 529 442 60362 29 20 88 13516 385 979 191 73 20 194 5190 20 2307 1932 16558 1821 2936
internal_value=0 -1.21711 -0.0688072 7.87969 11.929 -1.25798 -0.820505 -0.976349 0.0284397 5.45312 12.2919 -1.3599 20.3197 2.71384 8.64394 -1.1886 -1.4368 -1.34646 -1.19029 -0.883483 8.91021 -1.51361 -0.587782 -1.05745 -1.52626 -1.50259 -1.53004 -1.49498 -1.55178
internal_count=151323 151178 27013 1116 1059 124165 26521 25861 11688 997 468 97644 60 660 145 14173 37282 13275 12296 7386 57 4910 5381 13536 24007 2005 21700 21315 4757
shrinkage=0.01


Tree=5
num_leaves=30
num_cat=0
split_feature=1 7 7 1 1 12 7 7 7 12 12 7 7 7 7 7 16 7 3 12 12 12 12 7 3 7 3 7 1
split_gain=9.42814 1.21689 3.19973 1.20461 5.02602 6.7493 1.41325 0.832011 0.302257 0.257494 0.214617 0.0982805 0.08157 0.0462978 0.02777 0.0140923 0.196228 0.0136548 0.0134503 0.00390282 0.00161873 0.00136435 0.00117652 0.00104363 0.000487288 0.000357973 0.000317352 0.000195311 0.000180504
threshold=131.50000000000003 1948.5000000000002 1924.5000000000002 105.50000000000001 104.50000000000001 29.500000000000004 1109.5000000000002 3317.5000000000005 706.00000000000011 31.500000000000004 28.500000000000004 3102.5000000000005 2404.5000000000005 2069.5000000000005 1900.5000000000002 2476.5000000000005 1.0000000180025095e-35 3341.5000000000005 2.5000000000000004 30.500000000000004 22.500000000000004 24.500000000000004 31.500000000000004 297.50000000000006 4.5000000000000009 1085.5000000000002 2.5000000000000004 1085.5000000000002 120.50000000000001
decision_type=2 2 2 2 2 2 2 2 2 2 2 2 2 2 2 2 2 2 2 2 2 2 2 2 2 2 2 2 2
left_child=1 2 3 4 27 -6 -7 12 19 -4 11 -2 13 21 25 18 -17 -9 -14 -5 -16 -3 -20 -21 28 -10 -25 -1 -23
right_child=10 7 9 8 5 6 -8 17 14 -11 -12 -13 15 -15 20 16 -18 -19 22 23 -22 24 -24 26 -26 -27 -28 -29 -30
leaf_value=-0.01031798971826877 -0.010000309014056678 -0.010000302051159511 -0.010000303431767358 -0.010000294945456211 -0.010280922964535024 0.13201469345555794 -0.010000303098230877 -0.010972780006203428 -0.010325380446941835 0.02956248388875702 -0.010000303979529985 0.083288526664849927 -0.010000298112376588 -0.010000301441207797 -0.014154713041526721 -0.010001933057746529 -0.015614945503929599 -0.010007110023598796 -0.015605125828989362 -0.010000295557135509 -0.010000301229422685 -0.014134906846094948 -0.010000297622006181 -0.010000298250000912 -0.010000300451552003 -0.010000301550033751 -0.015598065375490848 -0.010000301897583497 -0.010000302036895916
leaf_count=827 37 265 586 427 661 24 257 630 353 68 85 20 1448 9336 43 23266 21 86171 430 113 326 2902 126 34 95 12806 66 9865 35
internal_value=0 -1.28756 -0.899177 -1.03749 -0.0413219 5.00801 11.7803 -1.3821 -1.23111 2.66638 8.01144 8.22915 -1.47586 -1.39885 -1.05249 -1.52679 -1.4892 -1.04918 -1.55674 -1.5547 -1.39684 -1.41288 -1.56021 -1.55849 -1.41329 -1.02855 -1.5595 -1.0207 -1.41344
internal_count=151323 151181 26456 25802 11634 942 281 124725 14168 654 142 57 37924 12633 13528 25291 23287 86801 2004 640 369 3297 556 213 3032 13159 100 10692 2937
shrinkage=0.01


Tree=6
num_leaves=30
num_cat=0
split_feature=1 7 7 1 1 10 10 7 7 10 10 7 7 10 10 10 10 16 7 7 10 7 3 3 7 7 10 10 10
split_gain=8.85769 1.21132 3.13114 1.19046 4.75711 2.94314 4.03051 0.800172 0.295965 0.269453 0.199091 0.0792295 0.0780131 0.0567504 0.0291054 0.0185078 0.0142089 0.183599 0.013232 0.00409145 0.00316736 0.00260157 0.0014186 0.000446487 0.00025829 0.000189449 9.6424e-05 6.81937e-05 3.93182e-05
threshold=131.50000000000003 1948.5000000000002 1924.5000000000002 105.50000000000001 104.50000000000001 4769.5000000000009 4687.5000000000009 3317.5000000000005 706.00000000000011 9163.5000000000018 10682.500000000002 2285.5000000000005 2404.5000000000005 9831.5000000000018 9245.5000000000018 10969.500000000002 186.50000000000003 1.0000000180025095e-35 3341.5000000000005 2069.5000000000005 180.50000000000003 297.50000000000006 3.5000000000000004 2.5000000000000004 1085.5000000000002 1085.5000000000002 10526.500000000002 10664.500000000002 4494.5000000000009
decision_type=2 2 2 2 2 2 2 2 2 2 2 2 2 2 2 2 2 2 2 2 2 2 2 2 2 2 2 2 2
left_child=1 2 3 4 25 6 -6 12 21 -4 11 -2 13 -3 24 16 20 -18 26 -15 -14 -5 23 -23 28 -1 -9 -28 -10
right_child=10 7 9 8 5 -7 -8 18 14 -11 -12 -13 15 19 -16 -17 17 -19 -20 -21 -22 22 -24 -25 -26 -27 27 -29 -30
leaf_value=-0.010314734002705384 -0.010000298471327669 -0.010000298591590146 -0.010000299777544755 -0.010000292485768437 -0.010280983035971374 -0.010237702195787074 0.11753894328753388 -0.010000297097249406 -0.010248259397870137 0.029224817082970311 -0.010000314073572903 0.077469197631726966 -0.010000292211824857 -0.014121453455843758 -0.014108956561784401 -0.010000295704643801 -0.010001962672155499 -0.015527949828422313 -0.010007039951583601 -0.010000293653788135 -0.015527759410611828 -0.010000294882438263 -0.010000292105394153 -0.015505694448941581 -0.010000298701313795 -0.010000298357732995 -0.010968050221758204 -0.01000029792504243 -0.010328975536856695
leaf_count=827 35 11772 633 297 165 756 21 349 324 21 87 20 355 38 22 2313 22567 21 86171 823 35 50 161 132 13153 9865 36 245 29
internal_value=0 -1.28217 -0.893958 -1.03196 -0.0415224 4.74424 7.70342 -1.37686 -1.22529 2.61762 7.46394 7.66636 -1.46891 -1.39335 -1.04796 -1.51882 -1.52168 -1.48379 -1.04867 -1.41088 -1.55194 -1.54615 -1.54872 -1.55013 -1.02403 -1.02049 -1.09622 -1.09656 -1.02745
internal_count=151323 151181 26456 25802 11634 942 186 124725 14168 654 142 55 37924 12633 13528 25291 22978 22588 86801 861 390 640 343 182 13506 10692 630 281 353
shrinkage=0.01


Tree=7
num_leaves=30
num_cat=0
split_feature=1 10 10 12 12 10 1 1 10 10 16 10 12 10 10 10 12 10 12 10 10 3 10 1 10 3 12 10 10
split_gain=8.36324 0.447433 1.49858 0.778158 1.63009 1.55285 1.51875 7.08725 1.54926 0.353767 0.257568 0.227363 0.220238 0.175493 0.0735095 0.0696921 0.0581494 0.0460979 0.0217006 0.0124797 0.0148548 0.00955481 0.00481576 0.0113773 0.00392278 0.00291257 0.00283934 0.00408301 0.00691387
threshold=131.50000000000003 186.50000000000003 9875.5000000000018 29.500000000000004 32.500000000000007 9831.5000000000018 105.50000000000001 104.50000000000001 4769.5000000000009 4494.5000000000009 1.0000000180025095e-35 10458.500000000002 31.500000000000004 10682.500000000002 9831.5000000000018 9138.5000000000018 31.500000000000004 9831.5000000000018 32.500000000000007 10767.500000000002 10748.500000000002 2.5000000000000004 10231.500000000002 107.50000000000001 33.500000000000007 2.5000000000000004 25.500000000000004 10593.500000000002 10613.500000000002
decision_type=2 2 2 2 2 2 2 2 2 2 2 2 2 2 2 2 2 2 2 2 2 2 2 2 2 2 2 2 2
left_child=1 12 3 14 5 6 7 -5 9 -9 11 22 21 15 -3 -2 -7 -6 -14 20 26 -1 -4 -24 -20 -25 27 -13 -29
right_child=13 2 10 4 17 16 -8 8 -10 -11 -12 19 18 -15 -16 -17 -18 -19 24 -21 -22 -23 23 25 -26 -27 -28 28 -30
leaf_value=-0.010000295385412533 -0.010000295564553417 -0.010159748964475648 -0.013916414971136076 -0.010033547161551306 -0.010022299816340192 -0.010000291327053563 -0.010123093308094298 -0.010000304273976895 -0.010000296433024199 0.10529923797339522 -0.015440729431372093 -0.010933071814631228 -0.011907059367017856 -0.010000311151264795 -0.013997402981888696 0.072422381738624905 0.028631177760223329 -0.01404571241905443 -0.015311089685765583 -0.010000295573931133 -0.013739161107790261 -0.015374198354320131 -0.010000293632846205 -0.013666525929494138 -0.010000294835412371 -0.010000293794049988 -0.010857434298545268 -0.01317061608459903 -0.010901770634729413
leaf_count=1126 35 42734 7676 9106 19682 136 13675 91 488 27 82 496 520 87 354 20 32 64 178 35476 606 3254 3526 2277 502 762 7759 80 472
internal_value=0 -1.27686 -1.1956 -0.753563 -0.352067 0.453243 -0.0639923 1.46219 8.60998 10.173 -1.34912 -1.26851 -1.44494 6.99235 -1.09404 7.17121 2.79699 -1.12698 -1.21609 -1.09596 -1.12422 -1.53509 -1.38215 -1.3096 -1.49944 -1.35502 -1.10749 -1.14666 -1.21098
internal_count=151323 151181 145601 86389 43301 23555 23387 9712 606 118 59212 59130 5580 142 43088 55 168 19746 1200 44889 9413 4380 14241 6565 680 3039 8807 1048 552
shrinkage=0.01



feature importances:
smart_9_raw=82
smart_192_raw=70
smart_194_raw=34
smart_2_raw=23
smart_4_raw=19
smart_199_raw=4

pandas_categorical:[]
