tree
version=v2
num_class=1
num_tree_per_iteration=1
label_index=0
max_feature_idx=27
objective=binary sigmoid:1
feature_names=smart_1_raw smart_3_raw smart_4_raw smart_5_raw smart_7_raw smart_9_raw smart_10_raw smart_12_raw smart_184_raw smart_187_raw smart_188_raw smart_189_raw smart_190_raw smart_191_raw smart_192_raw smart_193_raw smart_194_raw smart_195_raw smart_197_raw smart_198_raw smart_199_raw smart_240_raw smart_241_raw smart_242_raw smart_250_raw smart_251_raw smart_252_raw smart_254_raw
feature_infos=[0:244133840] none [6:118] [0:2764] [40027:240730319913] [7:48252] none [6:118] none [0:233] [0:317832429654] none [19:42] [0:3789] [0:76] [23:587023] [19:42] [0:244133840] [0:55] [0:55] none [4294977506:281462091826693] [14791:4294908921] [31298:4294666648] [17340:200325208] [66:389517278] [0:178936696] none
tree_sizes=2320 2364

Tree=0
num_leaves=30
num_cat=0
split_feature=26 0 21 21 25 0 4 24 23 13 15 4 25 24 7 24 22 22 26 0 0 4 7 4 22 23 19 23 13
split_gain=307.316 242.39 151.543 343.557 150.663 69.423 49.8219 126.593 222.341 33.5808 35.1 167.727 219.998 395.453 99.4367 128.765 80.065 28.6049 26.5108 42.1268 98.8183 36.185 92.838 25.7519 121.929 38.2801 23.1339 80.4383 22.1013
threshold=158090331.00000003 7736852.0000000009 227976864093015.53 235907521203287.53 363137039.00000006 22264748.000000004 576496706.00000012 250043.50000000003 1341087714.5000002 3780.5000000000005 165954.50000000003 643009591.00000012 7867862.0000000009 159032570.50000003 17.500000000000004 106003476.50000001 764463147.50000012 148078276.50000003 45927824.000000007 21456208.000000004 12818380.000000002 631008121.50000012 21.500000000000004 660852208.00000012 2595216707.0000005 211792291.00000003 1.0000000180025095e-35 3294784055.0000005 12.500000000000002
decision_type=2 2 2 2 2 2 2 2 2 2 2 2 2 2 2 2 2 2 2 2 2 2 2 2 2 2 2 2 2
left_child=6 -2 5 -4 -5 -3 26 8 -8 10 -9 14 -13 -14 15 -12 -17 -7 -16 20 -20 28 -23 25 -25 -19 -1 -28 -21
right_child=1 2 3 4 -6 17 7 9 -10 -11 11 12 13 -15 18 16 -18 23 19 21 -22 22 -24 24 -26 -27 27 -29 -30
leaf_value=-6.7049814385145012 -5.5468775744034051 -6.2000689590924889 -5.230178721220879 -6.7081067027395305 -5.9691427119801963 -6.3016765078219033 -5.4888161179865991 -6.6994958935251745 -6.7081067027395305 -6.3210303266275023 -5.9460500872689819 -6.7081067027395305 -5.0823859230690074 -6.5145685146835133 -6.7081067027395314 -6.183680644781294 -6.7081067027395305 -6.3016765078219033 -6.7081067027395305 -6.7081067027395314 -5.8952463129042751 -6.7081067027395305 -6.0012715811436532 -6.7081067027395305 -5.8952463129042751 -6.7081067027395305 -6.7081067027395314 -6.183680644781294 -6.4690301174938636
leaf_count=39014 21 32 22 70 33 20 20 3776 31 21 32 68 25 42 1625 31 100 20 31 416 20 44 23 60 20 324 102 31 34
internal_value=0 19.9084 16.5814 44.5189 22.6743 9.24491 -0.26854 2.07633 46.8141 1.71347 1.59286 4.21987 35.1259 71.7922 2.44894 23.9331 11.4088 6.32183 0.852074 6.15423 30.8756 3.71556 23.2633 4.75014 19.3203 1.36173 -0.64824 11.2222 0.805123
internal_count=46108 622 601 125 103 476 45486 6339 51 6288 6267 2491 135 67 2356 163 131 444 2193 568 51 517 67 424 80 344 39147 133 450
shrinkage=1


Tree=1
num_leaves=30
num_cat=0
split_feature=26 5 5 21 5 12 12 4 24 2 15 2 15 25 24 0 0 22 22 10 21 21 15 13 21 18 4 24 4
split_gain=222.232 313.769 69.2175 111.065 70.1779 53.7417 116.991 47.0667 59.3153 109.926 39.1391 49.9344 27.4953 113.149 112.279 83.0125 39.5102 58.0685 251.078 50.2662 70.5216 277.648 36.4577 24.6806 20.813 19.9657 35.4082 72.1273 13.3073
threshold=158090331.00000003 31186.000000000004 26093.500000000004 175513838566279.53 29277.500000000004 26.500000000000004 27.500000000000004 576496706.00000012 250043.50000000003 36.500000000000007 159147.50000000003 23.500000000000004 165954.50000000003 7867862.0000000009 41204930.000000007 163421500.00000003 66056748.000000007 1031563120.5000001 644484380.50000012 39.500000000000007 122711510641107.02 87323127588100.016 194220.00000000003 3780.5000000000005 117207510043813.02 1.0000000180025095e-35 311242465.00000006 5452264.5000000009 439686122.00000006
decision_type=2 2 2 2 2 2 2 2 2 2 2 2 2 2 2 2 2 2 2 2 2 2 2 2 2 2 2 2 2
left_child=7 2 3 -2 -4 10 -7 25 9 -9 11 -6 23 -14 15 22 19 18 -18 20 21 -16 -15 -10 -8 28 -27 -28 -1
right_child=1 -3 4 -5 5 6 24 8 12 -11 -12 -13 13 14 16 -17 17 -19 -20 -21 -22 -23 -24 -25 -26 26 27 -29 -30
leaf_value=-0.0097403506085395244 -0.01001904354873572 0.75260295455879089 -0.010021172830944301 0.7551635815571105 0.52064145133966033 0.66340076391934033 0.30453751372716942 0.60694423719938462 -0.0013894589145491837 -0.010032350152459743 -0.010019535297814127 -0.010016279902586005 -0.010012209296824209 0.2430502723143261 -0.010020858202516603 -0.010026886212552757 -0.010014850785203712 -0.010018602563106186 0.81068013330800071 0.50361585008134013 -0.010020418148962819 0.99237349990856771 0.61424364813992705 0.25576653755442608 -0.010024251954404687 -0.010014861846336829 -0.01001439839877177 0.63409187436123693 0.0028451324870621447
leaf_count=30102 24 35 302 24 22 35 20 21 3776 30 98 24 1613 25 60 22 112 448 31 23 113 20 24 21 38 84 29 20 8912
internal_value=0 14.5749 9.54114 38.4947 7.02064 17.046 31.6021 -0.268579 1.95999 24.0524 7.52684 27.0965 1.6287 3.83504 10.9073 35.3256 7.48478 3.7814 18.2983 16.5389 12.1941 29.8247 49.1612 0.0679491 9.64103 -0.645988 9.64131 27.3454 -0.686544
internal_count=46108 622 587 48 539 237 93 45486 6339 51 144 46 6288 2491 878 71 807 591 143 216 193 80 49 3797 58 39147 133 49 39014
shrinkage=0.01



feature importances:
smart_7_raw=7
smart_1_raw=6
smart_240_raw=6
smart_250_raw=6
smart_241_raw=5
smart_193_raw=4
smart_9_raw=3
smart_191_raw=3
smart_242_raw=3
smart_251_raw=3
smart_252_raw=3
smart_4_raw=2
smart_12_raw=2
smart_190_raw=2
smart_188_raw=1
smart_197_raw=1
smart_198_raw=1

pandas_categorical:[]
