tree
version=v2
num_class=1
num_tree_per_iteration=1
label_index=0
max_feature_idx=16
objective=binary sigmoid:1
feature_names=smart_1_raw smart_3_raw smart_4_raw smart_5_raw smart_7_raw smart_9_raw smart_10_raw smart_11_raw smart_12_raw smart_192_raw smart_193_raw smart_194_raw smart_196_raw smart_197_raw smart_198_raw smart_199_raw smart_200_raw
feature_infos=[0:16542] [0:4766] [1:45] [0:1] none [6:21639] none none [1:45] [0:30] [0:3633] [15:47] none [0:105] none [0:4971] none
tree_sizes=2364 2369 2389 2373 2389 2405 2384 2403 2401

Tree=0
num_leaves=30
num_cat=0
split_feature=0 10 0 0 11 0 0 2 9 11 11 15 10 10 11 10 10 9 11 11 11 2 10 10 2 10 2 2 2
split_gain=224.907 1020.23 256.679 217.882 19.2355 15.8029 12.9871 73.7297 129.49 17.3427 45.9436 50.2841 4.4127 43.5387 89.1567 9.08014 34.1997 68.0689 112.704 0.91406 4.82244 20.6639 34.4025 164.487 8.88178e-16 8.88178e-16 1.11022e-16 1.11022e-16 1.11022e-16
threshold=97.000000000000014 9.5000000000000018 140.00000000000003 16401.500000000004 31.500000000000004 5.5000000000000009 22.500000000000004 3.5000000000000004 1.0000000180025095e-35 22.500000000000004 23.500000000000004 1.0000000180025095e-35 568.50000000000011 574.50000000000011 26.500000000000004 595.50000000000011 588.50000000000011 1.5000000000000002 22.500000000000004 32.500000000000007 33.500000000000007 1.5000000000000002 118.50000000000001 91.500000000000014 26.500000000000004 461.50000000000006 9.5000000000000018 5.5000000000000009 9.5000000000000018
decision_type=2 2 2 2 2 2 2 2 2 2 2 2 2 2 2 2 2 2 2 2 2 2 2 2 2 2 2 2 2
left_child=5 2 4 -4 -2 12 7 8 -7 -9 11 -11 19 14 -14 16 -15 -18 -19 24 21 22 23 -21 25 -1 27 -17 -22
right_child=1 -3 3 -5 -6 6 -8 9 -10 10 -12 -13 13 15 -16 26 17 18 -20 20 28 -23 -24 -25 -26 -27 -28 -29 -30
leaf_value=-8.4232043273595778 -7.1709357005608245 -4.4454098657631871 -8.4232043273595778 -6.1691207991218304 -6.3740374835070384 -8.4232043273595743 -8.4232043273595778 -8.4232043273595778 -6.1691207991218313 -7.2047807985822905 -8.4232043273595778 -8.423204327359576 -8.423204327359576 -8.4232043273595778 -7.057093098124458 -8.4232043273595778 -8.423204327359576 -6.1691207991218313 -8.423204327359576 -8.423204327359576 -8.4232043273595778 -8.4232043273595778 -8.4232043273595778 -6.1691207991218304 -8.4232043273595778 -8.4232043273595778 -8.4232043273595778 -8.4232043273595778 -8.4232043273595778
leaf_count=30541 36 34 579 20 22 27 440 369 20 37 113 26 62 331 33 1298 61 20 20 54 3395 600 96 20 93 3118 289 1307 202
internal_value=0 38.1445 19.585 6.52593 154.454 -0.470746 7.73654 14.2301 94.9182 7.27164 24.6144 70.558 -0.674644 1.63536 46.4542 0.35521 9.43535 43.6351 111.704 -0.881956 0.0321039 4.85454 25.5184 59.921 -1.00022 -1.00022 -1.00022 -1.00022 -1.00022
internal_count=43263 691 657 599 58 42572 1032 592 47 545 176 63 41540 3421 95 3326 432 101 40 38119 4367 770 170 74 33752 33659 2894 2605 3597
shrinkage=1


Tree=1
num_leaves=30
num_cat=0
split_feature=13 11 2 11 1 10 2 5 5 11 5 5 11 5 5 2 5 10 10 5 10 5 5 5 11 11 2 5 10
split_gain=19.5914 33.3584 43.0964 46.1166 10.2349 9.17772 16.3953 6.79153 148.551 15.8359 32.8758 114.521 12.65 17.7349 163.234 10.7595 89.3743 3.96547 20.1746 70.0893 6.26152 18.9942 133.261 2.34201 1.14488 6.08678 9.07687 62.7567 80.6176
threshold=1.0000000180025095e-35 21.500000000000004 4.5000000000000009 18.500000000000004 4362.0000000000009 9.5000000000000018 11.500000000000002 8926.5000000000018 8978.5000000000018 33.500000000000007 3749.5000000000005 4017.5000000000005 23.500000000000004 14265.000000000002 14559.500000000002 3.5000000000000004 11399.500000000002 568.50000000000011 574.50000000000011 8858.5000000000018 595.50000000000011 9550.5000000000018 9167.5000000000018 9098.5000000000018 32.500000000000007 33.500000000000007 1.5000000000000002 3150.5000000000005 189.50000000000003
decision_type=2 2 2 2 2 2 2 2 2 2 2 2 2 2 2 2 2 2 2 2 2 2 2 2 2 2 2 2 2
left_child=5 2 3 -2 -3 6 7 9 -9 -1 -11 -12 13 15 -15 16 -10 24 19 -19 21 22 -20 -8 -7 26 27 -26 -29
right_child=1 4 -4 -5 -6 17 23 8 12 10 11 -13 -14 14 -16 -17 -18 18 20 -21 -22 -23 -24 -25 25 -27 -28 28 -30
leaf_value=-0.010002949726702751 -0.010002519603158981 -0.010046209627050297 -0.010002197235696951 0.71049276542306528 0.12719083988715865 -0.010006074785525527 -0.010002197235695336 1.560759685929233 -0.010009864174523691 -0.010004752519753904 1.6315663350432572 -0.01000219723569655 -0.010002197235697235 1.9377269473830212 -0.010002197235696886 -0.010003445952273702 1.0493795873387812 0.92904091475376105 -0.010009660360488401 -0.010006949348418752 -0.010002197235697246 -0.010007567919250622 1.5882046538931973 0.22736209984821973 -0.010015977549451551 -0.010002197235697246 -0.010002197235697128 1.5882046538931971 -0.010002197235695691
leaf_count=4445 57 551 146 24 22 28469 21 24 147 153 21 64 1689 21 121 424 26 31 92 64 2891 320 20 22 75 2933 341 20 29
internal_value=0 7.33271 26.4369 47.988 2.47935 -0.181305 1.92217 1.40337 4.16062 -0.07679 15.7592 48.635 2.4784 8.80359 30.5382 4.80363 15.5636 -0.628095 1.47167 22.8149 0.303343 6.56535 25.5597 20.394 -0.86256 0.282054 6.36927 15.4468 78.2026
internal_count=43263 800 227 81 573 42463 7178 7135 2452 4683 238 85 2428 739 142 597 173 35285 3418 95 3323 432 112 43 31867 3398 465 124 49
shrinkage=0.01


Tree=2
num_leaves=30
num_cat=0
split_feature=0 11 13 0 10 5 0 10 2 5 5 2 5 5 5 10 10 5 2 11 11 11 5 5 0 5 10 10 10
split_gain=55.1215 55.2729 36.2909 24.2723 35.5968 55.6402 33.7248 9.05091 15.0779 29.3778 25.2568 44.0268 7.69488 4.80452 24.5364 3.89372 14.0238 22.7461 53.4354 34.9246 0.852716 3.40155 6.85765 50.873 7.04681e-06 9.41601e-08 3.78575e-08 3.65078e-08 2.22785e-08
threshold=519.50000000000011 21.500000000000004 2.5000000000000004 5.5000000000000009 1.5000000000000002 3749.5000000000005 92.500000000000014 11.500000000000002 8.5000000000000018 12349.500000000002 14265.000000000002 4.5000000000000009 5888.5000000000009 7156.5000000000009 8137.5000000000009 568.50000000000011 595.50000000000011 9550.5000000000018 3.5000000000000004 22.500000000000004 32.500000000000007 33.500000000000007 3196.5000000000005 2932.5000000000005 97.000000000000014 8978.5000000000018 91.500000000000014 588.50000000000011 118.50000000000001
decision_type=2 2 2 2 2 2 2 2 2 2 2 2 2 2 2 2 2 2 2 2 2 2 2 2 2 2 2 2 2
left_child=3 2 -2 15 5 -5 12 8 10 -10 -6 -12 -7 -8 -15 20 17 18 -17 -20 -1 22 23 26 -9 -3 -22 -19 -28
right_child=1 25 -4 4 7 6 13 24 9 -11 11 -13 -14 14 -16 16 -18 27 19 -21 21 -23 -24 -25 -26 -27 28 -29 -30
leaf_value=-0.010002227764339806 0.49737253362158279 -0.010002175235927686 -0.01000333836013107 -0.010013211080897836 -0.01000362274169893 -0.010002175143053333 0.7774535759742538 -0.010002821735117365 0.53949283372617807 -0.010002206272756454 -0.010011033460718502 0.72617690815741243 0.2806053950525243 -0.010002175143052437 0.77071743258148884 -0.010009669138121926 -0.010002175809339649 -0.010003472008214574 0.30265151071055785 0.97616945621952012 -0.010002175473428652 -0.010002429403931897 -0.01000329706333994 0.61109998403464905 -0.010119232255720841 -0.010025754620687855 -0.01002041891968466 -0.010015450382871301 -0.010002175453648588
leaf_count=33752 20 129 63 109 752 57 20 270 22 95 39 28 21 27 20 105 2894 309 29 22 115 3597 575 21 31 20 22 62 37
internal_value=0 19.2055 37.6359 -0.207653 4.93252 18.8239 37.3714 1.88908 6.40898 24.5664 3.33231 28.5901 20.3648 62.7373 52.5347 -0.675778 1.37403 8.38674 19.7605 46.4796 -0.881241 -0.02835 3.37383 10.2326 -1.01024 -1.00164 -1.00121 -1.00073 -1.00174
internal_count=43263 232 83 43031 1491 254 145 1237 936 117 819 67 78 67 47 41540 3421 527 156 51 38119 4367 770 195 301 149 174 371 59
shrinkage=0.01


Tree=3
num_leaves=30
num_cat=0
split_feature=0 5 11 0 2 5 0 5 11 0 0 0 5 11 5 5 9 5 5 11 5 5 1 11 11 5 5 5 2
split_gain=48.0776 27.1506 27.453 76.3218 21.0506 22.9947 25.9275 37.3765 18.3654 9.62309 9.11408 18.0339 10.0962 34.6279 7.27269 5.06606 1.03694 2.39458 53.5385 45.1891 6.4658 35.1376 13.2352 1.14538 3.74986 5.59424 24.7323 5.88029e-06 3.83674e-06
threshold=5.5000000000000009 2529.5000000000005 19.500000000000004 6082.5000000000009 3.5000000000000004 3749.5000000000005 15.500000000000002 8137.5000000000009 28.500000000000004 808.50000000000011 130.50000000000003 92.500000000000014 14265.000000000002 22.500000000000004 10151.500000000002 7319.5000000000009 1.5000000000000002 8806.5000000000018 8858.5000000000018 26.500000000000004 9550.5000000000018 9481.5000000000018 3828.5000000000005 32.500000000000007 33.500000000000007 3196.5000000000005 2838.5000000000005 15552.500000000002 2.5000000000000004
decision_type=2 2 2 2 2 2 2 2 2 2 2 2 2 2 2 2 2 2 2 2 2 2 2 2 2 2 2 2 2
left_child=16 28 3 14 5 -4 -7 8 9 -8 11 12 -6 -14 -3 -13 23 -18 19 -19 21 -20 -23 -1 25 26 -25 -12 -2
right_child=1 2 4 -5 10 6 7 -9 -10 -11 27 15 13 -15 -16 -17 17 18 20 -21 -22 22 -24 24 -26 -27 -28 -29 -30
leaf_value=-0.010002280795622306 -0.010003926231501377 0.23554862723704467 -0.010013551501515918 1.1842301761125527 -0.010003617827468536 -0.010034189906514836 -0.010037494299965633 0.55605874189708315 0.43284488932680526 0.20731428070125493 -0.010012734487328135 -0.010002153737949937 -0.010009889031329731 0.49127131056424944 -0.010002325172792276 0.35106298708871592 -0.010002365821218466 -0.01001192586195887 -0.010007016040832539 1.0091162053218656 -0.010002854196475576 0.5493587906921471 -0.010005401983922933 -0.010012998329108284 -0.010002394030283634 -0.010003622987897807 0.3437527497840685 -0.010125628468684278 -0.01010758252504862
leaf_count=28873 156 20 87 20 456 32 93 21 21 34 420 21 113 31 76 20 5472 21 392 20 3510 21 20 144 2627 418 22 20 82
internal_value=0 6.36384 9.75701 29.1949 7.85662 15.2302 20.9818 27.4663 18.0087 11.0962 3.63968 8.19594 4.39824 14.4959 16.2718 30.0377 -0.674045 -0.0632061 1.13427 55.7216 0.0873594 6.55465 41.6984 -0.858665 0.287222 4.03869 9.63519 -1.00485 -1.00953
internal_count=43263 1723 1485 116 1369 288 201 169 148 127 1081 641 600 144 96 41 41540 9456 3984 41 3943 433 41 32084 3211 584 166 440 238
shrinkage=0.01


Tree=4
num_leaves=30
num_cat=0
split_feature=0 5 11 13 1 0 5 15 5 0 0 5 5 11 5 9 1 5 5 5 5 11 11 5 5 11 1 2 0
split_gain=43.5606 22.0142 14.2694 19.6032 16.462 11.9372 18.4525 18.7131 16.7411 17.4353 7.47307 5.73702 12.0795 4.60079 1.59722 1.02478 2.31707 7.15975 25.7171 8.96072 15.0152 1.13724 3.52341 4.74913 15.7591 0.266828 4.5805e-06 3.72266e-06 1.21245e-06
threshold=5.5000000000000009 2529.5000000000005 19.500000000000004 1.0000000180025095e-35 4370.5000000000009 97.000000000000014 11399.500000000002 1.0000000180025095e-35 3749.5000000000005 142.50000000000003 808.50000000000011 12065.500000000002 13546.000000000002 18.500000000000004 12349.500000000002 1.5000000000000002 1.0000000180025095e-35 8806.5000000000018 8926.5000000000018 9550.5000000000018 9410.5000000000018 32.500000000000007 33.500000000000007 3196.5000000000005 2838.5000000000005 26.500000000000004 4404.0000000000009 2.5000000000000004 97.000000000000014
decision_type=2 2 2 2 2 2 2 2 2 2 2 2 2 2 2 2 2 2 2 2 2 2 2 2 2 2 2 2 2
left_child=15 27 3 -3 5 6 -4 11 -7 25 -11 -8 -13 -5 -15 21 17 -17 -19 20 -20 -1 23 24 -23 -10 -6 -2 -29
right_child=1 2 4 13 26 8 7 -9 9 10 -12 12 -14 14 -16 16 -18 18 19 -21 -22 22 -24 -25 -26 -27 -28 28 -30
leaf_value=-0.0100022581484531 -0.010003887191356567 0.47318040742998774 -0.0100082817888469 -0.010005664231928352 -0.010116645135377585 -0.010011982702177765 0.36021913120376164 -0.010008142941752531 0.27077763794583676 -0.010033123747868229 0.16893952407787877 -0.010006091519458018 0.30162278659005237 0.18708205053259253 -0.010002131675694923 -0.010002443208004433 -0.010002541997601968 0.32974673559978057 -0.010011023934912584 -0.010002874785046774 0.2608349110208773 -0.010012868572714056 -0.010002370880757257 -0.010003587088158549 0.24328510543528672 0.30567534034535881 -0.01001507677522534 -0.010005357272607625 -0.010110517205152419
leaf_count=28873 156 32 550 43 33 74 20 119 31 137 34 43 24 20 21 2769 5409 35 130 1075 38 144 2627 418 22 20 284 45 37
internal_value=0 5.79387 8.54593 20.1116 7.07212 9.81684 5.59399 14.8226 14.9175 19.1072 9.40633 24.1816 18.0792 12.4964 17.1074 -0.672348 -0.0671693 1.09185 4.67326 2.09444 11.0605 -0.857522 0.2806 3.8067 8.55934 28.1519 -1.00537 -1.00943 -1.01065
internal_count=43263 1723 1485 116 1369 1052 756 206 296 222 171 87 67 84 41 41540 9456 4047 1278 1243 168 32084 3211 584 166 51 317 238 82
shrinkage=0.01


Tree=5
num_leaves=30
num_cat=0
split_feature=0 5 5 5 11 0 0 11 5 5 2 10 10 5 2 11 11 5 5 5 5 10 0 0 5 11 2 0 10
split_gain=32.9802 28.3025 16.4123 12.4778 11.9311 9.32677 13.7529 23.6122 13.0879 11.1093 8.60394 3.74172 10.5585 11.8692 13.0007 0.823883 2.7438 3.93383 13.4908 0.595445 3.14241e-05 1.49531e-05 3.27057e-06 1.97664e-06 7.0602e-07 1.62897e-07 3.30919e-07 1.57229e-07 4.74061e-08
threshold=5.5000000000000009 612.50000000000011 8020.5000000000009 14559.500000000002 31.500000000000004 15.500000000000002 174.50000000000003 19.500000000000004 14009.500000000002 8858.5000000000018 4.5000000000000009 568.50000000000011 595.50000000000011 9550.5000000000018 3.5000000000000004 32.500000000000007 33.500000000000007 3196.5000000000005 2838.5000000000005 8858.5000000000018 7872.5000000000009 74.500000000000014 174.50000000000003 97.000000000000014 15552.500000000002 21.500000000000004 4.5000000000000009 16401.500000000004 91.500000000000014
decision_type=2 2 2 2 2 2 2 2 2 2 2 2 2 2 2 2 2 2 2 2 2 2 2 2 2 2 2 2 2
left_child=11 -2 4 5 20 8 9 -8 25 10 -7 15 13 14 -13 -1 17 18 28 -16 21 -3 -5 -23 -24 -4 -27 -9 -17
right_child=1 2 3 22 -6 6 7 27 -10 -11 -12 12 -14 -15 19 16 -18 -19 -20 -21 -22 23 24 -25 -26 26 -28 -29 -30
leaf_value=-0.010002169205265053 0.37698527947901922 -0.010004984656910233 -0.010002602023178224 -0.010003455396021243 0.12586219225501399 -0.010020114821149895 0.30607381567783143 -0.010002387804553677 0.18029098415578612 0.31417751524518961 0.21685505917431391 -0.01000965128633792 -0.01000212382375093 -0.010006910257106998 0.21791103361633785 -0.010002110770721754 -0.010002375532930059 -0.010003546843324881 0.20136246172469668 0.16868880781089973 -0.010324019146595356 -0.0100024590837856 -0.010002111042744503 -0.01012379495096717 -0.010122292809056325 -0.010048601724905527 -0.010006205691582313 -0.010029139601348481 -0.010018148090967073
leaf_count=33824 20 727 179 144 27 26 38 154 25 23 24 94 2851 376 20 130 3623 568 23 24 24 62 25 21 22 29 85 21 54
internal_value=0 4.96669 4.22842 8.22709 0.644998 10.7232 14.5041 6.98497 4.93454 21.5996 13.068 -0.670895 1.3054 6.58877 12.5277 -0.878923 -0.0540392 2.69303 6.63143 19.0326 -1.00905 -1.00652 -1.00721 -1.01171 -1.01135 -1.00183 -1.00272 -1.00191 -1.00129
internal_count=43263 1676 1656 795 861 604 286 213 318 73 50 41587 3365 514 138 38222 4398 775 207 44 834 810 191 83 47 293 114 175 184
shrinkage=0.01


Tree=6
num_leaves=30
num_cat=0
split_feature=0 2 0 5 5 5 5 15 11 0 0 5 5 2 5 5 11 11 5 5 11 11 11 11 5 5 5 2 2
split_gain=30.7855 17.5999 177.709 14.8452 9.53415 9.24368 10.1306 6.75036 6.44575 13.5859 7.24858 11.2484 5.4588 6.14902 0.954166 12.7911 8.37745 6.4221 1.7273 11.3993 6.56619 2.9605 1.06204 3.0444 3.00094 12.2293 3.5567e-05 8.00242e-06 3.21086e-06
threshold=5.5000000000000009 1.5000000000000002 32.500000000000007 3749.5000000000005 3929.5000000000005 8020.5000000000009 14559.500000000002 1.0000000180025095e-35 19.500000000000004 174.50000000000003 15.500000000000002 13546.000000000002 8858.5000000000018 4.5000000000000009 8806.5000000000018 8858.5000000000018 26.500000000000004 29.500000000000004 9550.5000000000018 9481.5000000000018 22.500000000000004 20.500000000000004 32.500000000000007 33.500000000000007 3150.5000000000005 3416.5000000000005 7872.5000000000009 2.5000000000000004 4.5000000000000009
decision_type=2 2 2 2 2 2 2 2 2 2 2 2 2 2 2 2 2 2 2 2 2 2 2 2 2 2 2 2 2
left_child=14 2 -2 27 -5 26 7 8 -7 10 11 -10 13 -12 22 16 -16 -18 19 -17 21 -21 -1 24 -24 -26 -6 -3 -29
right_child=1 3 -4 4 5 6 -8 -9 9 -11 12 -13 -14 -15 15 18 17 -19 -20 20 -22 -23 23 -25 25 -27 -28 28 -30
leaf_value=-0.010002241844953045 2.0391537414353742 -0.010012034982789984 -0.01003984634069858 0.20312666791670719 -0.01000383428017055 0.22518486854476966 -0.010071416088224807 -0.010007765536497806 -0.010026872983124893 -0.010018861332101127 -0.010019914359611342 0.18382235335931049 0.22952299044173713 0.17569316409429023 -0.010011145696209835 -0.010004395692926667 0.27947206555727405 -0.010004607259718013 -0.010002563282727453 -0.010002588752534602 -0.010002890039309067 0.22147069687734849 -0.010012028550057825 -0.010002407135504767 0.18513776181635869 -0.010003764858990905 -0.010320753018985421 -0.010127713484525732 -0.010032584007871508
leaf_count=28576 21 175 90 21 415 38 191 167 129 175 26 22 23 24 92 1583 22 29 7812 27 99 31 204 2744 22 346 24 31 104
internal_value=0 4.6523 26.2092 3.99167 6.4675 5.60888 7.45812 9.48554 10.8373 9.5292 12.9299 7.12602 17.2852 11.4054 -0.668878 -0.0987954 13.1375 21.5206 -0.534817 1.19479 12.6084 19.1828 -0.853978 0.209891 3.2595 6.26489 -1.01028 -1.00877 -1.01143
internal_count=43263 1676 111 1565 1255 1234 795 604 437 399 224 151 73 50 41587 9695 143 51 9552 1740 157 58 31892 3316 572 368 439 310 135
shrinkage=0.01


Tree=7
num_leaves=30
num_cat=0
split_feature=0 10 5 5 0 0 5 5 5 5 0 0 10 10 5 9 5 2 5 10 5 5 0 2 5 5 0 5 0
split_gain=28.3158 14.3429 10.3746 7.87893 7.79625 8.58196 5.11625 10.0066 5.07634 4.88708 3.93392 7.72148 3.61537 8.98928 8.37434 7.66749 2.46381 0.453692 0.732542 18.6489 0.178263 3.33578e-05 7.16496e-06 1.23271e-07 1.44668e-07 2.70596e-07 7.23075e-08 5.86704e-08 3.92331e-08
threshold=5.5000000000000009 25.500000000000004 1112.5000000000002 8020.5000000000009 15.500000000000002 174.50000000000003 9674.5000000000018 10456.500000000002 14265.000000000002 15208.500000000002 134.50000000000003 142.50000000000003 568.50000000000011 595.50000000000011 9550.5000000000018 1.5000000000000002 3796.5000000000005 1.5000000000000002 3150.5000000000005 133.50000000000003 8926.5000000000018 7659.5000000000009 97.000000000000014 4.5000000000000009 11033.500000000002 11610.500000000002 16401.500000000004 3196.5000000000005 131.50000000000003
decision_type=2 2 2 2 2 2 2 2 2 2 2 2 2 2 2 2 2 2 2 2 2 2 2 2 2 2 2 2 2
left_child=12 2 -2 10 8 -6 26 -8 23 -10 21 16 17 14 15 -14 -12 18 -1 -20 -17 28 -3 24 -5 -26 -7 -21 -4
right_child=1 22 3 4 5 6 7 -9 9 -11 11 -13 13 -15 -16 20 -18 -19 19 27 -22 -23 -24 -25 25 -27 -28 -29 -30
leaf_value=-0.010002988432747896 0.21142974321645272 -0.010008545069140586 -0.010005168111779405 -0.010003408391664987 0.15719385423213397 -0.010002247036545103 0.2066477322273384 -0.010003207156797464 0.13384256393134542 -0.010003452834306306 0.16020510751621361 -0.010004297761549661 -0.010009415825583644 -0.010002087661847474 -0.010006773497834052 0.15026216434875517 -0.010002857703958899 -0.010002179610728792 0.19002985258476757 -0.010025445406228808 0.12721519361429484 -0.010298730967951253 -0.010122420949248444 -0.010006000050310253 -0.010052602090421692 -0.010002579398571767 -0.010027556667890227 -0.010002364010563189 -0.010016206472920017
leaf_count=4442 21 168 335 80 31 66 22 147 29 121 33 261 95 2851 376 20 35 30439 23 30 23 21 26 139 20 67 20 3288 34
internal_value=0 4.29605 6.34649 5.6091 7.9342 11.019 5.52184 10.6443 3.40968 8.49134 1.8677 5.8075 -0.666925 1.24879 5.75108 9.94508 13.55 -0.876994 -0.422223 0.311958 13.785 -1.00875 -1.01014 -1.00174 -1.00263 -1.00356 -1.00222 -1.00027 -1.00088
internal_count=43263 1676 1482 1461 742 286 255 169 456 150 719 329 41587 3365 514 138 68 38222 7783 3341 43 390 194 306 167 87 86 3318 369
shrinkage=0.01


Tree=8
num_leaves=30
num_cat=0
split_feature=0 5 5 5 15 0 0 5 0 5 5 0 5 0 5 9 5 5 5 5 2 5 5 5 9 0 0 0 5
split_gain=26.7345 9.35903 10.9931 7.25145 4.75337 2.75943 8.49661 2.34617 7.43173 5.95051 6.17315 5.81257 1.86082 1.59743 1.23987 1.00389 2.20265 12.8598 4.62004 10.403 0.427024 0.706536 13.8145 2.75037e-05 5.4747e-06 4.73441e-06 3.22763e-06 3.01621e-06 1.69954e-06
threshold=5.5000000000000009 612.50000000000011 8020.5000000000009 14559.500000000002 1.0000000180025095e-35 134.50000000000003 142.50000000000003 14009.500000000002 15.500000000000002 9674.5000000000018 11496.500000000002 174.50000000000003 3796.5000000000005 92.500000000000014 10849.500000000002 1.5000000000000002 8806.5000000000018 8858.5000000000018 9550.5000000000018 9481.5000000000018 1.5000000000000002 3150.5000000000005 3196.5000000000005 7823.5000000000009 1.0000000180025095e-35 458.00000000000006 86.000000000000014 174.50000000000003 5888.5000000000009
decision_type=2 2 2 2 2 2 2 2 2 2 2 2 2 2 2 2 2 2 2 2 2 2 2 2 2 2 2 2 2
left_child=15 -2 5 4 7 23 12 8 -4 11 14 13 -7 -10 -11 20 -17 -18 19 -19 21 -1 -23 24 26 28 -3 -5 -8
right_child=1 2 3 27 -6 6 25 -9 9 10 -12 -13 -14 -15 -16 16 17 18 -20 -21 -22 22 -24 -25 -26 -27 -28 -29 -30
leaf_value=-0.010002959327769508 0.16667432056860298 -0.010010427726338872 -0.010024656251815199 -0.010003398387409062 -0.010009044705001375 0.1371028094869732 -0.010134306293697 0.14343717403688355 -0.010003312815007553 0.15709744960029967 -0.010003838751683099 -0.010021944658962846 -0.010002829033050102 0.10708329266699294 0.22803223234997269 -0.010002897781048292 0.14864896667768204 -0.010009563231853886 -0.010002674598097365 0.15147215040489151 -0.010002227510909392 0.14143608818542425 -0.010002348525543346 -0.010297182780988181 -0.010008534333662571 -0.01000481250122506 -0.010108361907661569 -0.010110095094361978 -0.010002048226628065
leaf_count=4442 20 94 141 144 167 33 30 26 38 35 61 86 35 30 20 5531 35 390 3491 39 24260 35 3364 21 387 185 22 47 54
internal_value=0 4.07045 3.53054 6.32752 7.78038 0.551894 3.31916 8.7334 7.91723 9.77988 15.5445 6.99032 11.8426 9.9067 18.6365 -0.664931 -0.0678169 1.03582 0.0871378 4.71895 -0.853314 -0.424859 0.283955 -1.00862 -1.00543 -1.00725 -1.0088 -1.00696 -1.01183
internal_count=43263 1676 1656 795 604 861 337 437 411 270 116 154 68 68 55 41587 9486 3955 3920 429 32101 7841 3399 524 503 269 116 191 84
shrinkage=0.01



feature importances:
smart_9_raw=101
smart_1_raw=47
smart_194_raw=40
smart_193_raw=28
smart_4_raw=26
smart_192_raw=7
smart_3_raw=5
smart_199_raw=4
smart_197_raw=3

pandas_categorical:[]
