tree
version=v2
num_class=1
num_tree_per_iteration=1
label_index=0
max_feature_idx=16
objective=binary sigmoid:1
feature_names=smart_1_raw smart_3_raw smart_4_raw smart_5_raw smart_7_raw smart_9_raw smart_10_raw smart_11_raw smart_12_raw smart_192_raw smart_193_raw smart_194_raw smart_196_raw smart_197_raw smart_198_raw smart_199_raw smart_200_raw
feature_infos=[0:21] [2958:4450] [11:141] [0:40] none [4898:51944] none none [10:139] [5:72] [11:141] [23:45] [0:5] [0:11] none [0:1] none
tree_sizes=2082 1804 1993 2441 2431

Tree=0
num_leaves=26
num_cat=0
split_feature=0 11 11 9 9 2 11 0 11 13 11 2 2 2 11 2 2 2 2 0 2 2 11 11 11
split_gain=109.024 39.3117 2.56622 2.68204 6.0518 7.32917 3.01933 3.09092 5.20272 1.39752 18.4267 21.9249 1.00122 4.76941 11.4755 8.88178e-16 1.11022e-16 1.11022e-16 1.11022e-16 5.55112e-17 5.55112e-17 5.55112e-17 5.55112e-17 5.55112e-17 1.38778e-17
threshold=18.500000000000004 43.500000000000007 37.500000000000007 20.500000000000004 21.500000000000004 35.500000000000007 41.500000000000007 8.0000000000000018 42.500000000000007 1.0000000180025095e-35 29.500000000000004 35.500000000000007 103.50000000000001 104.50000000000001 29.500000000000004 98.500000000000014 85.500000000000014 139.50000000000003 138.50000000000003 1.5000000000000002 35.500000000000007 52.000000000000007 32.500000000000007 35.500000000000007 28.500000000000004
decision_type=2 2 2 2 2 2 2 2 2 2 2 2 2 2 2 2 2 2 2 2 2 2 2 2 2
left_child=1 2 9 20 5 -5 16 8 -8 12 11 -11 15 14 24 -1 21 18 22 -12 -4 -6 -15 -20 -14
right_child=-2 -3 3 4 6 -7 7 -9 -10 10 19 -13 13 17 -16 -17 -18 -19 23 -21 -22 -23 -24 -25 -26
leaf_value=-7.0106853557213826 -6.4469028553911931 -6.6035091054829174 -7.0106853557213826 -7.0106853557213826 -7.0106853557213826 -6.8274560431140703 -6.8766151269843245 -7.0106853557213826 -7.0106853557213826 -7.0106853557213826 -7.0106853557213826 -6.587848480473748 -7.0106853557213826 -7.0106853557213826 -6.8361812484763229 -7.0106853557213826 -7.0106853557213826 -7.0106853557213826 -7.0106853557213826 -7.0106853557213826 -7.0106853557213826 -7.0106853557213826 -7.0106853557213826 -7.0106853557213826 -7.0106853557213826
leaf_count=4301 39 27 281 40 241 60 82 81 52 28 191 26 89 253 63 170 27 159 257 324 104 42 33 26 32
internal_value=0 -0.214407 -0.369268 1.17607 2.51709 9.99285 1.09314 4.11246 7.20339 -0.631497 0.931208 19.3579 -0.79668 0.204545 4.97396 -1.00091 -1.00091 -1.00091 -1.00091 -1.00091 -1.00091 -1.00091 -1.00091 -1.00091 -1.00091
internal_count=7028 6989 6962 1010 625 100 525 215 134 5952 569 54 5383 912 184 4471 310 728 569 515 385 283 286 283 121
shrinkage=1


Tree=1
num_leaves=22
num_cat=0
split_feature=0 1 11 1 11 11 11 11 1 8 8 11 11 11 11 1 11 9 1 1 11
split_gain=62.2272 78.2338 207.636 10.5444 20.1825 4.48638 4.17925 0.923187 11.6534 0.997529 4.47747 9.14237 5.56635e-09 2.39642e-12 6.12746e-12 7.9897e-12 5.17586e-13 3.07121e-12 1.11022e-16 1.38778e-17 1.38778e-17
threshold=12.500000000000002 3250.0000000000005 28.500000000000004 3337.0000000000005 29.500000000000004 41.500000000000007 42.500000000000007 37.500000000000007 4170.5000000000009 101.50000000000001 102.50000000000001 29.500000000000004 43.500000000000007 29.500000000000004 28.500000000000004 4154.0000000000009 41.500000000000007 23.000000000000004 4099.5000000000009 4154.0000000000009 28.500000000000004
decision_type=2 2 2 2 2 2 2 2 2 2 2 2 2 2 2 2 2 2 2 2 2
left_child=3 -2 -3 4 -1 -6 -7 9 12 -5 11 20 16 14 19 -16 18 -18 -9 -12 -11
right_child=1 2 -4 7 5 6 -8 8 -10 10 13 -13 -14 -15 15 -17 17 -19 -20 -21 -22
leaf_value=0.28127347313587375 -0.010010329603420513 -0.010015854160871689 1.1672963984586036 -0.010009021704185571 -0.01000902170418551 0.11140728071814948 -0.010009305331842806 -0.010009021704185533 0.12056615144115586 -0.010009021704185462 -0.010009021704185361 0.13807313057320891 -0.010013556321897323 -0.010009021704185552 -0.010009284760122347 -0.010009021704185108 -0.010009021704185463 -0.010009160744406959 -0.010009021704185534 -0.010009021704185354 -0.010009021704185224
leaf_count=25 73 23 21 4889 180 80 47 254 73 89 53 63 21 583 27 24 103 21 296 51 32
internal_value=0 21.4395 47.5177 -0.363836 5.20977 2.47501 6.96144 -0.66515 0.403139 -0.810227 0.187315 4.66483 -1.00092 -1.0009 -1.00091 -1.00092 -1.0009 -1.0009 -1.0009 -1.0009 -1.0009
internal_count=7028 117 44 6911 332 307 127 6579 768 5811 922 184 695 738 155 51 674 124 550 104 121
shrinkage=0.01


Tree=2
num_leaves=24
num_cat=0
split_feature=0 1 1 2 0 2 2 2 8 2 15 2 8 9 2 3 1 1 2 8 1 1 1
split_gain=42.6838 28.9213 9.85698 6.46185 1.50929 0.698954 4.21631 0.429736 12.8749 6.34448e-09 1.55072e-10 8.82437e-10 1.48845e-11 4.06122e-11 4.19931e-12 1.77647e-12 1.16914e-11 1.11466e-12 7.92255e-13 5.34073e-13 4.9491e-13 4.44089e-16 5.55112e-17
threshold=12.500000000000002 3250.0000000000005 3337.0000000000005 42.500000000000007 1.5000000000000002 103.50000000000001 104.50000000000001 36.500000000000007 33.500000000000007 35.500000000000007 1.0000000180025095e-35 26.500000000000004 34.500000000000007 24.500000000000004 35.500000000000007 1.0000000180025095e-35 3904.0000000000005 4358.0000000000009 47.500000000000007 44.500000000000007 4295.5000000000009 3762.0000000000005 4179.0000000000009
decision_type=2 2 2 2 2 2 2 2 2 2 2 2 2 2 2 2 2 2 2 2 2 2 2
left_child=2 -2 3 4 -1 7 -7 8 10 -6 14 -12 13 -9 -4 22 -17 21 19 -19 -16 -14 -8
right_child=1 -3 5 -5 9 6 15 12 -10 -11 11 -13 17 -15 20 16 -18 18 -20 -21 -22 -23 -24
leaf_value=0.04185739259532871 -0.010010226925001538 0.24550752470273313 -0.010008932109569466 0.13521062909802117 -0.010008932109569086 0.043930564034080737 -0.010008932109671057 -0.010008932109569416 0.1250130720452676 -0.010014969457367223 -0.010008932109569449 -0.010010028160612311 -0.010008932109602128 -0.010009174939440112 -0.010008963843795881 -0.010008932109569404 -0.010009152478932991 -0.01000893210956935 -0.010008932109569426 -0.010008962486328791 -0.010008995721422885 -0.010008932109569471 -0.010008932109569024
leaf_count=192 73 44 986 71 29 184 528 254 61 40 389 96 428 109 92 159 32 81 237 326 133 2459 25
internal_value=0 14.9094 -0.361877 4.86789 2.67653 -0.662989 0.176633 -0.80364 -0.373889 -1.0013 -1.0009 -1.00092 -1.00089 -1.0009 -1.00089 -1.00089 -1.0009 -1.00089 -1.00089 -1.0009 -1.0009 -1.00089 -1.00089
internal_count=7028 117 6911 332 261 6579 928 5651 1757 69 1696 485 3894 363 1211 744 191 3531 644 407 225 2887 553
shrinkage=0.01


Tree=3
num_leaves=30
num_cat=0
split_feature=5 11 1 5 11 5 9 5 11 1 5 1 5 5 9 2 11 11 1 5 5 5 9 1 5 5 5 5 5
split_gain=30.7057 23.2475 8.67469 37.2674 20.6312 28.3612 3.76599 33.4994 1.18808 9.04702 27.4875 1.55528e-07 1.38748e-08 7.38891e-09 2.80832e-09 1.32138e-09 9.51831e-10 2.00115e-09 3.07618e-10 2.32831e-10 1.1945e-10 4.67777e-11 8.6799e-11 7.69016e-11 2.93102e-11 2.23855e-11 7.97426e-12 6.80567e-13 2.53479e-12
threshold=50992.500000000007 43.500000000000007 3537.5000000000005 40328.500000000007 29.500000000000004 31697.500000000004 71.000000000000014 38951.500000000007 37.500000000000007 4170.5000000000009 38075.500000000007 3679.0000000000005 30794.500000000004 48893.500000000007 25.500000000000004 86.500000000000014 41.500000000000007 42.500000000000007 3250.0000000000005 47815.000000000007 36823.500000000007 45149.500000000007 31.500000000000004 4229.0000000000009 49891.500000000007 31478.000000000004 46987.500000000007 29146.000000000004 28616.500000000004
decision_type=2 2 2 2 2 2 2 2 2 2 2 2 2 2 2 2 2 2 2 2 2 2 2 2 2 2 2 2 2
left_child=1 2 3 4 5 12 8 -8 13 11 20 -10 -1 19 -6 16 18 -18 25 21 -11 -4 23 26 -15 -16 -23 28 -13
right_child=-2 -3 6 -5 14 -7 7 -9 9 10 -12 27 -14 24 15 -17 17 -19 -20 -21 -22 22 -24 -25 -26 -27 -28 -29 -30
leaf_value=-0.010017851333873729 0.31691076135780682 0.23934099205775522 -0.010008843618697265 0.42701353216808202 -0.010008843107172252 0.26220311759524612 -0.010008843104020537 0.36791310167169644 -0.010025479247957865 -0.010013000994948156 0.3690731368764395 -0.010008843103914427 -0.010026204595883156 -0.010012069289324863 -0.010010618564934744 -0.01000884312697594 -0.010012025673920901 -0.010009313571322641 -0.010009314195112402 -0.010009700900663433 -0.010013852695068643 -0.010009333055492984 -0.010008843103651724 -0.010008843103651521 -0.010012502976477978 -0.010010225365317305 -0.010009573584153842 -0.010008843105507771 -0.010008973215017754
leaf_count=21 26 27 4848 22 320 21 234 20 39 21 21 71 20 24 20 63 71 43 54 34 31 54 211 44 28 46 20 552 22
internal_value=0 -0.067622 -0.218295 2.95865 1.72083 12.0384 -0.645725 3.29035 -0.81565 0.372603 9.41987 -1.00105 -1.00223 -1.00089 -1.00096 -1.00102 -1.00106 -1.00112 -1.00099 -1.00089 -1.00135 -1.00089 -1.0009 -1.00092 -1.00123 -1.00103 -1.00094 -1.00088 -1.00089
internal_count=7028 7002 6975 701 679 62 6274 254 6020 757 73 684 41 5263 617 297 234 114 120 5211 52 5177 329 118 52 66 74 645 93
shrinkage=0.01


Tree=4
num_leaves=30
num_cat=0
split_feature=0 5 5 5 5 11 5 5 9 5 11 2 2 11 5 2 5 5 5 5 11 2 9 5 5 11 2 5 5
split_gain=31.895 68.8377 22.7195 14.8154 11.1712 2.97443 7.3569 32.8494 10.2945 19.2616 0.478432 2.56038 31.9373 4.67816e-07 2.58561e-08 1.24937e-08 9.30828e-09 8.64047e-09 6.11262e-09 2.26581e-09 1.66129e-09 1.44607e-09 2.7091e-10 1.90848e-09 2.66142e-10 2.77574e-10 2.48092e-10 3.73845e-10 4.1966e-10
threshold=12.500000000000002 33656.500000000007 50992.500000000007 32164.500000000004 32673.000000000004 37.500000000000007 38593.500000000007 39330.500000000007 25.500000000000004 40658.500000000007 29.500000000000004 44.000000000000007 37.500000000000007 28.500000000000004 36380.000000000007 35.500000000000007 47385.000000000007 48269.000000000007 38075.500000000007 26606.000000000004 41.500000000000007 37.500000000000007 71.000000000000014 38762.500000000007 30928.500000000004 42.500000000000007 103.50000000000001 39051.500000000007 45645.500000000007
decision_type=2 2 2 2 2 2 2 2 2 2 2 2 2 2 2 2 2 2 2 2 2 2 2 2 2 2 2 2 2
left_child=2 3 5 13 -5 10 14 -8 16 -10 11 12 15 -2 20 -1 -9 22 21 -17 -7 -16 -12 -24 -22 -26 -13 -28 -29
right_child=1 -3 -4 4 -6 6 7 8 9 -11 17 26 -14 -15 18 19 -18 -19 -20 -21 24 -23 23 -25 25 -27 27 28 -30
leaf_value=-0.010008754740846977 -0.010021335976265125 0.49421845516127511 0.22832591772909078 0.2988124295137532 -0.010008754763586538 -0.010008813930955542 0.40326057513747948 -0.010008754743220194 -0.010012272688638005 0.31672997609031578 -0.01000878197245747 -0.010008754742095559 0.3416684314780048 -0.010057157878958032 -0.010013647125004115 -0.010011169244211032 -0.010013704070043667 -0.010012758160352891 -0.010017153029957883 -0.010015280025489929 -0.010011483332647389 -0.01001141321557796 -0.010008754740936085 -0.010011862526497481 -0.010010841989919281 -0.010009221159528198 -0.010008754842647885 -0.010010799402780499 -0.010009240267877185
leaf_count=253 29 21 26 20 21 430 23 228 38 20 4035 1079 20 26 47 20 38 44 25 29 20 48 157 20 22 21 151 21 96
internal_value=0 11.2997 -0.359128 3.89394 18.7087 -0.51631 1.11802 4.79649 2.11638 12.4112 -0.810302 -0.331844 2.22868 -1.00432 -1.00103 -1.00099 -1.00097 -1.00089 -1.00138 -1.00139 -1.00091 -1.00126 -1.00088 -1.00092 -1.00106 -1.00101 -1.00088 -1.00091 -1.00095
internal_count=7028 117 6911 96 41 6885 960 347 324 58 5925 1669 322 55 613 302 266 4256 120 49 493 95 4212 177 63 43 1347 268 117
shrinkage=0.01



feature importances:
smart_9_raw=31
smart_194_raw=30
smart_4_raw=24
smart_3_raw=18
smart_192_raw=9
smart_1_raw=7
smart_12_raw=5
smart_5_raw=1
smart_197_raw=1
smart_199_raw=1

pandas_categorical:[]
