tree
version=v2
num_class=1
num_tree_per_iteration=1
label_index=0
max_feature_idx=4
objective=binary sigmoid:1
feature_names=smart_1_raw smart_5_raw smart_9_raw smart_194_raw smart_197_raw
feature_infos=[0:244140546] [0:4572] [178:71983] [14:41] [0:1738]
tree_sizes=2304 2317 2340 2358 2360 2359 2359 2324

Tree=0
num_leaves=30
num_cat=0
split_feature=4 4 0 2 4 3 4 4 4 2 0 2 2 4 3 2 0 2 0 3 0 2 2 2 0 0 2 0 0
split_gain=3591.98 2059.17 3247.09 975.095 890.558 640.743 463.781 580.104 910.993 882.213 418.707 546.43 382.08 1543.15 849.084 502.339 442.572 292.148 357.452 276.883 252.345 169.816 818.192 708.248 1108.1 209.922 429.314 151.158 162.366
threshold=3.5000000000000004 43.000000000000007 46114879.500000007 44455.500000000007 1.0000000180025095e-35 24.500000000000004 28.500000000000004 15.500000000000002 19.500000000000004 35796.500000000007 148860113.00000003 41637.500000000007 43385.500000000007 7.5000000000000009 27.500000000000004 44061.500000000007 123614271.50000001 45963.500000000007 66266270.500000007 25.500000000000004 198988114.00000003 38270.500000000007 33231.500000000007 35614.500000000007 167432384.00000003 49963237.000000007 27189.000000000004 230723460.50000003 15586296.000000002
decision_type=2 2 2 2 2 2 2 2 2 2 2 2 2 2 2 2 2 2 2 2 2 2 2 2 2 2 2 2 2
left_child=4 5 -3 10 -1 -2 7 12 9 -9 -4 20 21 14 16 -16 -14 -10 -19 -6 -12 22 25 -24 -25 26 -7 28 -8
right_child=1 2 3 -5 19 6 27 8 17 -11 11 -13 13 -15 15 -17 -18 18 -20 -21 -22 -23 23 24 -26 -27 -28 -29 -30
leaf_value=-8.2045780405576068 -7.9798997756984376 0.022082862434684714 -8.2108426005858171 -2.7418278287225499 -8.1008446242042353 -4.7384522692440303 -6.4746474349149228 -6.0011396624590851 -8.2108426005858171 -0.91882290476813022 -3.4551775815741683 -8.2108426005858153 -6.6256209275819336 -2.1341595207375583 -5.294034722258635 -8.2108426005858171 -2.7418278287225508 -8.2108426005858153 -4.9937750877248304 -7.8709873278415579 -6.3878376766313938 -7.9602577313136891 -2.7418278287225499 -8.2108426005858171 -3.9214192501045018 -8.2108426005858171 -8.2108426005858171 -6.3878376766313938 -8.2108426005858171
leaf_count=913749 1263 31 77 20 4309 21 21 33 50 20 23 29 23 24 25 155 20 20 34 3433 20 291 20 62 34 209 34 20 303
internal_value=0 67.315 254.22 150.018 -0.201033 53.3772 81.2212 100.749 208.007 411.756 96.8792 201.556 82.4052 146.611 97.0986 39.5109 338.163 104.173 201.556 20.192 338.163 58.7704 85.3526 219.018 150.917 26.621 131.582 20.1975 10.2528
internal_count=924373 2882 200 169 921491 2682 1419 1075 157 53 149 72 918 247 223 180 43 104 54 7742 43 671 380 116 96 264 55 344 324
shrinkage=1


Tree=1
num_leaves=30
num_cat=0
split_feature=1 4 3 3 1 3 3 0 0 0 0 0 0 0 3 1 0 3 0 1 0 0 4 4 4 3 4 0 3
split_gain=17284.1 15917.6 2974.88 3192.79 2177.47 1957.87 3022.98 898.536 897.188 678.641 1466.92 352.792 627.619 426.841 329.969 198.421 98.1984 67.7484 138.723 398.754 135.885 82.09 729.799 54.6789 89.1705 96.804 245.039 36.2568 36.1931
threshold=2595.0000000000005 3.5000000000000004 22.500000000000004 30.500000000000004 3060.0000000000005 24.500000000000004 26.500000000000004 47066370.000000007 150767966.00000003 180794290.50000003 80396215.500000015 174184007.50000003 75742674.500000015 106206972.50000001 28.500000000000004 355.50000000000006 185521798.50000003 18.500000000000004 226816513.50000003 1433.0000000000002 240445028.50000003 190235083.50000003 1.5000000000000002 1.0000000180025095e-35 4.5000000000000009 18.500000000000004 13.500000000000002 113909094.50000001 34.500000000000007
decision_type=2 2 2 2 2 2 2 2 2 2 2 2 2 2 2 2 2 2 2 2 2 2 2 2 2 2 2 2 2
left_child=15 2 7 4 5 -4 -7 -2 -5 10 -6 12 -9 -14 -8 23 -17 18 -18 20 -20 22 -19 -1 28 26 -26 -3 -25
right_child=1 27 3 8 9 6 14 11 -10 -11 -12 -13 13 -15 -16 16 17 21 19 -21 -22 -23 -24 24 25 -27 -28 -29 -30
leaf_value=-0.0064628605453551577 -0.010002808814878953 0.56970941515131068 1.3454258312146468 4.8393111540908071 7.676821001901585 12.065656950877937 5.9905000630410994 5.7696849649560527 -0.010003024864389625 6.6711314052378885 12.756124964466096 5.9272808869835494 -0.010002876456759039 3.521077754761905 2.8745674190389541 0.022062823906506285 0.10848756838098057 -0.010002779138403795 -0.010002822402297119 3.1129774277695703 1.7059133906972157 0.064080796967844952 1.7574311308446773 0.070657203215909611 -0.010003423133798584 0.0023717435923954313 1.724974027579705 0.23208617790557814 0.50414354566412967
leaf_count=889101 26 20 27 29 36 28 24 25 24 20 40 24 20 30 23 20587 307 485 79 23 21 5544 27 5924 81 1700 22 25 51
internal_value=0 266.481 550.956 665.366 772.382 580.029 730.239 311.757 259.634 966.934 1045.18 393.442 329.963 209.828 440.191 -0.336127 3.49258 9.41283 32.6682 86.1824 34.7059 8.1471 29.7725 -0.52636 1.23042 0.371004 49.9774 36.2171 7.48663
internal_count=924373 421 376 251 198 102 75 125 53 96 76 99 75 50 47 923952 27073 6486 430 123 100 6056 512 896879 7778 1803 103 45 5975
shrinkage=0.01


Tree=2
num_leaves=30
num_cat=0
split_feature=4 2 0 3 3 2 4 2 0 0 0 2 2 0 0 2 0 2 2 2 3 3 0 4 2 0 0 2 2
split_gain=86.1238 69.904 80.1543 110.483 61.1018 107.027 53.5341 426.781 60.691 55.6125 97.1205 79.871 271.213 67.2971 33.9151 31.5786 108.032 266.699 45.5307 95.2127 128.096 62.4363 61.3001 58.9658 213.654 292.036 88.8981 65.8864 108.436
threshold=1.0000000180025095e-35 50733.500000000007 149798011.00000003 28.500000000000004 21.500000000000004 39618.500000000007 6.5000000000000009 27846.500000000004 242229778.50000003 28982048.000000004 41414901.500000007 34555.500000000007 34942.500000000007 78537336.500000015 225864975.00000003 44455.500000000007 15586296.000000002 46302.500000000007 40309.500000000007 41284.500000000007 26.500000000000004 31.500000000000004 131601839.50000001 9.5000000000000018 40219.500000000007 122646301.00000001 241353213.50000003 17279.500000000004 16409.500000000004
decision_type=2 2 2 2 2 2 2 2 2 2 2 2 2 2 2 2 2 2 2 2 2 2 2 2 2 2 2 2 2
left_child=-1 4 -3 -4 5 6 8 -8 -2 -9 -11 -12 -13 -14 -15 18 17 -17 23 20 -20 -22 -23 24 26 -26 27 28 -6
right_child=1 2 3 -5 15 -7 7 9 -10 10 11 12 13 14 -16 16 -18 -19 19 -21 21 22 -24 -25 25 -27 -28 -29 -30
leaf_value=-0.0058323333612902671 0.025712429603662372 -0.010034273404044652 1.1212201431254696 0.24574031801021801 0.18223534542859565 1.1966712268876938 2.3984447963422109 0.017567256873780603 0.67185493595610368 1.3762859370860263 -0.010007590730584475 1.9291394053542403 0.98715932500112813 -0.010034002148428844 0.4564161470922477 1.9427590637715377 0.028475073147393538 -0.010007030741122759 -0.33768036592730949 0.0011495147935035139 -0.060287980164634755 1.1298446905816819 -0.010004610786070787 -0.00027003627533471518 2.6228560975426247 -0.010003972217003174 0.9761785429927996 0.030321910989702106 1.480670597263301
leaf_count=913749 2872 125 27 21 238 20 20 54 21 21 218 25 20 105 23 20 1059 47 198 1585 332 20 23 715 20 24 26 2725 20
internal_value=0 1.27313 20.6853 40.7415 1.14267 6.24189 5.80593 15.1084 3.13683 11.1579 23.68 19.4726 39.4415 21.5733 11.7256 0.705635 3.33127 60.9263 0.229385 -1.5867 -8.2574 -5.31205 51.6844 1.40222 4.57871 116.267 4.10409 3.86722 23.5768
internal_count=924373 10624 173 48 10451 3399 3379 486 2893 466 412 391 173 148 128 7052 1126 67 5926 2158 573 375 43 3768 3053 44 3009 2983 258
shrinkage=0.01


Tree=3
num_leaves=30
num_cat=0
split_feature=4 2 3 0 2 4 2 0 4 2 2 2 3 2 0 2 3 4 0 0 2 2 0 0 2 2 3 3 0
split_gain=82.6779 50.7367 50.457 38.8478 29.6272 65.4847 141.893 361.997 123.01 136.556 68.6851 44.3262 52.6161 86.0243 67.8709 71.7227 37.7941 28.5703 43.4116 28.7924 52.6245 76.043 235.675 269.873 28.478 59.1021 76.5134 49.907 42.2351
threshold=1.0000000180025095e-35 50733.500000000007 21.500000000000004 149798011.00000003 44455.500000000007 4.5000000000000009 46079.500000000007 220074025.50000003 1.5000000000000002 45089.500000000007 45846.500000000007 39618.500000000007 25.500000000000004 21583.500000000004 230723460.50000003 20785.500000000004 31.500000000000004 3.5000000000000004 239481806.50000003 48970260.500000007 38928.500000000007 37849.500000000007 146933724.00000003 186477975.00000003 41998.500000000007 40398.500000000007 26.500000000000004 32.500000000000007 119760339.00000001
decision_type=2 2 2 2 2 2 2 2 2 2 2 2 2 2 2 2 2 2 2 2 2 2 2 2 2 2 2 2 2
left_child=-1 2 -2 -3 11 6 7 8 10 -10 -6 12 -4 14 15 16 -14 18 19 -15 21 -21 -23 -24 25 -13 -27 28 -28
right_child=1 3 4 -5 5 -7 -8 -9 9 -11 -12 24 13 17 -16 -17 -18 -19 -20 20 -22 22 23 -25 -26 26 27 -29 -30
leaf_value=-0.005806888271416945 0.054511549019084934 -0.010033933073824823 -0.0078711463981606267 0.25466755884172221 -0.0100087356216452 0.019360301739308642 -0.010003979535964425 2.4507281797834057 -0.010009760051337468 1.2071417658271992 0.77791501887275361 0.00039090632853827168 0.064137282572890988 -0.016340638984859584 0.63524663760372668 0.58067227556791967 0.53195202109910267 0.014999520556536687 0.56675974743556434 0.10212395725557291 0.01147855046025845 0.13391494591984016 2.2055677016617308 -0.010004210914320955 0.0022672589995979516 -0.23128388951497397 -0.017113002537280653 0.40419002655175706 -0.11837220734987781
leaf_count=913749 3399 125 1362 48 189 336 508 22 28 20 23 431 421 200 32 34 33 427 21 620 125 59 28 22 1168 384 251 39 269
internal_value=0 1.21764 1.09428 15.7402 0.681883 3.17876 16.3211 39.9707 27.9183 75.1939 9.10607 0.219352 1.68485 3.69955 18.8327 14.5289 9.41081 2.72297 6.99522 6.27718 9.31105 16.7458 42.3945 130.599 -1.17808 -3.00775 -7.03883 -4.74312 -5.35271
internal_count=924373 10624 10451 173 7052 1126 790 282 260 48 212 5926 3384 2022 520 488 454 1502 1075 1054 854 729 109 50 2542 1374 943 559 520
shrinkage=0.01


Tree=4
num_leaves=30
num_cat=0
split_feature=4 3 2 4 2 2 2 0 2 2 4 0 2 0 0 4 2 4 0 2 4 0 4 2 2 0 0 2 2
split_gain=79.8402 44.1759 44.5241 27.1931 53.1506 144.13 89.7094 300.403 83.2634 122.5 77.3805 59.0159 55.3842 34.9466 221.355 117.319 51.9541 50.5022 86.8859 33.6645 30.2062 43.3438 28.0516 26.5706 56.4946 26.214 23.9057 51.3303 143.548
threshold=1.0000000180025095e-35 21.500000000000004 50733.500000000007 9.5000000000000018 42265.500000000007 40309.500000000007 42453.500000000007 170282429.00000003 40843.500000000007 40749.500000000007 1.5000000000000002 9657465.0000000019 40483.500000000007 128625624.50000001 178932468.00000003 1.5000000000000002 41108.500000000007 3.5000000000000004 82283073.000000015 17279.500000000004 7.5000000000000009 115814066.50000001 5.5000000000000009 46773.500000000007 46540.500000000007 149798011.00000003 220074025.50000003 44561.500000000007 43772.500000000007
decision_type=2 2 2 2 2 2 2 2 2 2 2 2 2 2 2 2 2 2 2 2 2 2 2 2 2 2 2 2 2
left_child=-1 -2 3 4 5 19 7 -6 9 12 -11 -10 -7 17 15 16 -15 -13 -19 -3 -21 -22 23 24 26 -4 -8 28 -28
right_child=1 2 25 -5 6 8 22 -9 11 10 -12 13 -14 14 -16 -17 -18 18 -20 20 21 -23 -24 -25 -26 -27 27 -29 -30
leaf_value=-0.005781410833526044 0.051540513117795492 0.15383651748146454 -0.010033596863586855 -0.0013076181211220952 -0.0100038753245726 -0.27349915900391447 0.080596986628551553 2.0629908871215448 0.53228923476772072 -0.95805057738083665 -0.010006014017775851 -0.0071421977672970951 -0.0088780684826107008 -0.84058448776972339 -0.022820420114503834 -0.010004114706191036 -0.32996054753593229 -0.010003535420514442 1.3779837764199931 0.029226844543828737 -0.010079964229781387 0.43271475845078572 0.019388076693451543 -0.010173223955749185 0.76481562008779547 0.1996910332453177 -0.010003781175927283 0.10067679599399387 1.2656784496463351
leaf_count=913749 3399 262 125 1089 66 88 996 21 34 20 29 298 147 26 214 107 39 35 20 2747 24 20 194 450 29 48 54 23 20
internal_value=0 1.17262 0.789115 0.655324 1.98008 0.560126 5.82925 56.0972 -5.40823 -19.4468 -69.5582 -3.10749 -12.7124 -3.58046 -7.86798 -46.7544 -66.7871 0.130427 50.9125 3.95953 3.30845 21.5949 5.14826 8.52865 10.739 13.3996 9.89861 22.775 54.7922
internal_count=924373 10624 7225 7052 5963 4110 1853 87 1057 284 49 773 235 739 386 172 65 353 55 3053 2791 44 1766 1572 1122 173 1093 97 74
shrinkage=0.01


Tree=5
num_leaves=30
num_cat=0
split_feature=4 1 2 1 4 4 1 1 1 0 0 1 1 1 2 1 2 2 2 2 0 0 2 1 2 0 2 0 1
split_gain=51.4532 172.528 38.9897 37.2975 157.514 110.123 75.3545 59.6163 158.017 150.773 425.287 59.8176 62.6328 84.9412 70.6296 378.493 230.791 27.009 108.882 40.639 64.009 312.158 529.742 24.0355 41.4715 122.33 99.479 28.4035 279.65
threshold=3.5000000000000004 2595.0000000000005 37682.500000000007 2595.0000000000005 1.0000000180025095e-35 1.5000000000000002 69.500000000000014 731.50000000000011 906.50000000000011 143174079.00000003 82283073.000000015 1618.5000000000002 2221.5000000000005 2183.5000000000005 37026.500000000007 1870.5000000000002 28123.500000000004 29887.500000000004 33635.500000000007 39361.500000000007 84184535.000000015 179849503.50000003 43007.500000000007 855.50000000000011 48401.500000000007 17548111.000000004 48667.500000000007 238408738.00000003 943.50000000000011
decision_type=2 2 2 2 2 2 2 2 2 2 2 2 2 2 2 2 2 2 2 2 2 2 2 2 2 2 2 2 2
left_child=3 -2 -3 4 6 17 -1 -6 9 10 -9 -10 13 14 15 16 -13 -5 -19 -20 -21 22 -22 -8 27 -26 -27 -25 -29
right_child=1 2 -4 5 7 -7 23 8 11 -11 -12 12 -14 -15 -16 -17 -18 18 19 20 21 -23 -24 24 25 26 -28 28 -30
leaf_value=-0.0071048698720354601 0.0077485693069299835 0.18476620577013816 0.47719882446596912 0.013589524212535498 0.041886606269942964 -0.13908084300812312 0.0097926156628415448 -0.01000397288317756 -0.010010425065513126 0.24362252851778368 2.6695621740379822 -0.010005608894343392 -0.010057701488907134 0.87666385658340917 -0.010015256055612381 2.4795877553705172 1.3675716765998962 -0.10884729543045149 0.018130097777343514 -0.0028622650971253435 -0.48381220750355142 -0.0022870091836471921 -0.023577613283712169 0.029992675157408805 1.6457776878761763 1.1486135378225815 -0.01000277578978428 1.608148215372843 -0.010017547971913496
leaf_count=853656 2848 22 21 36 6520 28 50493 32 587 49 23 148 156 32 136 20 23 55 114 56 33 38 26 8762 22 31 189 31 186
internal_value=0 1.03846 31.474 -0.569304 -0.463498 -1.88622 -0.561847 6.0005 14.8616 62.2943 125.194 9.57675 19.5472 29.9845 22.3797 40.0367 21.361 -1.42606 -1.93188 -1.18236 -2.08851 -5.17816 -20.0706 1.51537 4.26624 28.815 15.3823 3.63072 20.9906
internal_count=924373 2891 43 921482 921096 386 913370 7726 1206 104 55 1102 515 359 327 191 171 358 322 267 153 97 59 59714 9221 242 220 8979 217
shrinkage=0.01


Tree=6
num_leaves=30
num_cat=0
split_feature=4 1 3 1 0 1 4 4 1 3 3 0 0 0 1 1 0 1 3 1 0 3 3 1 4 4 0 1 3
split_gain=50.4058 120.915 56.024 53.4326 142.159 35.6503 138.02 107.805 73.3617 47.8587 43.621 167.148 38.0822 188.88 380.883 35.4095 30.0374 25.3224 63.4168 79.1044 56.4752 36.877 23.0145 36.6904 75.6513 134.649 43.7929 21.017 72.0892
threshold=3.5000000000000004 2595.0000000000005 18.500000000000004 113.50000000000001 139275818.50000003 2595.0000000000005 1.0000000180025095e-35 1.5000000000000002 69.500000000000014 23.500000000000004 30.500000000000004 179849503.50000003 84184535.000000015 180794290.50000003 3060.0000000000005 3060.0000000000005 113909094.50000001 1618.5000000000002 26.500000000000004 1966.5000000000002 138320071.00000003 30.500000000000004 22.500000000000004 529.50000000000011 8.5000000000000018 17.500000000000004 10638730.500000002 855.50000000000011 34.500000000000007
decision_type=2 2 2 2 2 2 2 2 2 2 2 2 2 2 2 2 2 2 2 2 2 2 2 2 2 2 2 2 2
left_child=5 2 3 -2 -5 6 8 9 -1 -7 12 -12 15 14 -14 -11 -3 -8 -19 20 -20 -22 23 26 -25 -26 -4 -10 -29
right_child=1 16 22 4 -6 7 17 -9 27 10 11 -13 13 -15 -16 -17 -18 18 19 -21 21 -23 -24 24 25 -27 -28 28 -30
leaf_value=-0.0070842007023175771 0.089865961895601268 0.31547266376432365 0.48917471147112984 1.2472086163420693 -0.010016398472909719 0.012460747125414203 0.043916679932981609 -0.13722179854878908 0.0095997921466713307 -0.077213105656494321 0.031726263656470993 1.7539117873008061 -0.026197995834311927 -0.0046628540693894353 -0.33621834744958651 -0.0081109064504119345 0.091503482519733018 0.02687499342746219 -0.010025442959013302 0.792002698645217 0.4960557213678955 -0.010006512635403945 0.0042272339800426681 -0.010014710917405927 0.90713786449785472 -0.010011844258144293 0.014853565543825914 0.036201152498111379 0.8038223602291702
leaf_count=853656 65 20 32 20 22 138 7211 28 50493 31 35 20 29 37 33 35 23 337 87 28 32 31 1766 134 37 59 713 9178 43
internal_value=0 1.02059 0.764281 20.9492 53.6413 -0.565917 -0.461629 -1.84614 -0.559481 -1.39482 -2.33007 4.19334 -2.79738 -4.98107 -13.3528 -1.49133 22.8111 5.25107 12.3375 26.9504 18.4861 37.3121 0.634573 5.74408 20.6092 45.8278 2.8281 1.46964 3.95392
internal_count=924373 2891 2848 107 42 921482 921096 386 913370 358 220 55 165 99 62 66 43 7726 515 178 150 63 2741 975 230 96 745 59714 9221
shrinkage=0.01


Tree=7
num_leaves=30
num_cat=0
split_feature=4 3 4 4 0 2 2 0 0 0 0 2 2 2 0 0 4 0 2 2 2 0 0 3 3 0 4 4 3
split_gain=49.187 60.8888 32.7528 93.3403 158.279 31.5096 409.986 54.5741 37.9485 44.8535 26.3587 26.0374 229.649 24.9392 25.9374 79.0662 24.5701 21.7709 56.9894 21.304 41.1406 17.7576 15.3102 14.2035 13.7618 29.4016 99.0521 12.1859 11.9487
threshold=3.5000000000000004 19.500000000000004 14.500000000000002 13.500000000000002 110985863.00000001 34686.500000000007 33857.500000000007 24189426.500000004 78537336.500000015 126595952.50000001 44250276.000000007 25480.000000000004 18980.500000000004 33329.500000000007 216284661.00000003 229768080.00000003 101.00000000000001 110004029.00000001 40219.500000000007 46655.500000000007 47511.500000000007 96575350.000000015 186477975.00000003 29.500000000000004 24.500000000000004 115814066.50000001 6.5000000000000009 41.500000000000007 32.500000000000007
decision_type=2 2 2 2 2 2 2 2 2 2 2 2 2 2 2 2 2 2 2 2 2 2 2 2 2 2 2 2 2
left_child=-1 5 3 13 -5 6 7 -2 -7 -10 -4 12 22 14 23 -16 -13 -18 -19 28 -21 -22 -12 24 -3 -26 -27 -24 -15
right_child=1 2 10 4 -6 8 -8 -9 9 -11 11 16 -14 19 15 -17 17 18 -20 20 21 -23 27 -25 25 26 -28 -29 -30
leaf_value=-0.0056205363426017375 0.60269139248870329 -0.010008078265129887 -0.013482907735512265 1.3121651459883052 -0.010005535054226361 0.013806107111356545 1.653196009877941 -0.01007011153102105 0.83182719741900513 0.15858989108316021 -0.010264325912184978 -0.00041931195451542195 1.2920103955373847 0.021827228663560613 1.1913245852125511 -0.010011436532313593 -0.010666299233929042 0.016809761425886648 0.22259697414709714 0.5587642168918654 0.17381823688074735 0.023666575431266251 0.28947150833101987 -0.01036913604357532 0.10315696399460078 -0.010003509614550838 1.4921366464095189 0.073396684139312093 -0.0068377907383945337
leaf_count=921482 21 208 199 38 56 34 21 154 20 52 123 560 31 844 20 26 25 23 27 22 20 37 31 44 96 38 21 32 68
internal_value=0 0.998206 0.733997 2.43301 52.0772 11.5385 22.9203 5.69844 6.36061 27.0965 -0.169787 1.4366 9.40108 2.17915 8.03542 40.0666 0.881752 5.71085 9.34284 1.60124 8.53412 6.44396 4.40565 6.81197 9.65054 12.4101 50.1616 12.0567 1.14307
internal_count=924373 2891 2589 1538 94 302 196 175 106 72 1051 852 217 1444 453 46 635 75 50 991 79 57 186 407 363 155 59 63 912
shrinkage=0.01



feature importances:
smart_1_raw=71
smart_9_raw=64
smart_197_raw=40
smart_194_raw=32
smart_5_raw=25

pandas_categorical:[]
