tree
version=v2
num_class=1
num_tree_per_iteration=1
label_index=0
max_feature_idx=4
objective=binary sigmoid:1
feature_names=smart_1_raw smart_5_raw smart_9_raw smart_194_raw smart_197_raw
feature_infos=[42768:244120976] [0:9040] [7:16382] [17:30] [0:38544]
tree_sizes=1243 2310 500 577

Tree=0
num_leaves=15
num_cat=0
split_feature=2 0 0 2 0 0 0 2 2 2 2 2 0 2
split_gain=13.3916 4.44089e-16 8.88178e-16 4.44089e-16 2.22045e-16 1.11022e-16 1.11022e-16 1.11022e-16 1.11022e-16 1.11022e-16 1.11022e-16 1.11022e-16 2.77556e-17 1.38778e-17
threshold=153.00000000000003 232629068.00000003 115625328.00000001 608.50000000000011 101296660.00000001 94721908.000000015 88591088.000000015 13191.000000000002 11821.500000000002 10825.000000000002 8797.5000000000018 7106.0000000000009 109247596.00000001 9529.5000000000018
decision_type=2 2 2 2 2 2 2 2 2 2 2 2 2 2
left_child=-1 2 4 -4 5 6 7 8 9 10 11 -2 -6 -12
right_child=1 -3 3 -5 12 -7 -8 -9 -10 -11 13 -13 -14 -15
leaf_value=-5.8243069851595921 -5.9624031550172063 -5.9624031550172063 -5.9624031550172063 -5.9624031550172063 -5.9624031550172054 -5.9624031550172054 -5.9624031550172054 -5.9624031550172054 -5.9624031550172054 -5.9624031550172054 -5.9624031550172054 -5.9624031550172054 -5.9624031550172054 -5.9624031550172054
leaf_count=28 173 40 39 388 37 21 21 33 20 20 20 33 26 26
internal_value=0 -1.0026 -1.0026 -1.0026 -1.0026 -1.0026 -1.0026 -1.0026 -1.0026 -1.0026 -1.0026 -1.0026 -1.0026 -1.0026
internal_count=925 897 857 427 430 367 346 325 292 272 252 206 63 46
shrinkage=1


Tree=1
num_leaves=28
num_cat=0
split_feature=4 1 0 0 0 0 3 3 0 3 0 3 3 0 0 0 0 0 0 0 0 0 0 0 0 0 0
split_gain=4.60362 12.9435 8.88921e-10 6.91927e-11 1.20764e-10 4.72181e-11 3.61913e-11 3.19237e-11 1.36997e-11 7.19469e-12 9.38893e-12 1.7903e-11 1.29406e-11 2.44209e-11 4.54287e-11 1.69021e-11 5.33462e-13 2.7825e-14 1.11022e-16 5.55112e-17 5.55112e-17 2.77556e-17 2.77556e-17 2.77556e-17 2.77556e-17 2.77556e-17 2.77556e-17
threshold=1.0000000180025095e-35 6324.0000000000009 5475364.0000000009 57952392.000000007 47095672.000000007 9637884.0000000019 22.500000000000004 24.500000000000004 149031784.00000003 23.500000000000004 212518052.00000003 24.500000000000004 24.500000000000004 140028764.00000003 113819020.00000001 71725228.000000015 231393392.00000003 31027160.000000004 177146544.00000003 176787156.00000003 145160724.00000003 127370228.00000001 40310744.000000007 132407812.00000001 90878820.000000015 191796376.00000003 221221684.00000003
decision_type=2 2 2 2 2 2 2 2 2 2 2 2 2 2 2 2 2 2 2 2 2 2 2 2 2 2 2
left_child=2 -2 -1 4 5 -4 8 22 -5 18 12 16 19 14 15 -14 -12 -9 23 20 -11 -3 -7 24 -8 -15 -20
right_child=1 21 3 6 -6 7 9 17 -10 10 11 -13 13 25 -16 -17 -18 -19 26 -21 -22 -23 -24 -25 -26 -27 -28
leaf_value=-0.010027066270827287 0.16964941271596171 -0.010025737085991417 -0.010026112550218923 -0.010026025793351474 -0.010026273847672993 -0.010025737085991485 -0.010025737085991382 -0.010025943879762213 -0.01002584879539891 -0.010025737085991519 -0.010025910986452493 -0.010025737085991424 -0.010025954143899759 -0.010025737085991485 -0.010026129391388612 -0.010025737085991462 -0.010025954143899759 -0.010025954143899759 -0.010025737085991438 -0.010025737085991445 -0.010025737085991436 -0.010025737085991398 -0.010025737085991368 -0.010025737085991445 -0.010025737085991417 -0.010025737085991368 -0.01002573708599136
leaf_count=22 21 30 23 30 32 63 21 21 39 107 25 32 20 63 22 46 20 20 36 38 35 26 22 38 30 22 21
internal_value=0 4.02139 -1.00259 -1.00258 -1.00259 -1.00259 -1.00258 -1.00258 -1.00259 -1.00258 -1.00258 -1.00259 -1.00258 -1.00258 -1.00259 -1.00258 -1.00259 -1.00259 -1.00257 -1.00257 -1.00257 -1.00257 -1.00257 -1.00257 -1.00257 -1.00257 -1.00257
internal_count=925 77 848 826 181 149 645 126 69 576 430 77 353 173 88 66 45 41 146 180 142 56 85 89 51 85 57
shrinkage=0.01


Tree=2
num_leaves=5
num_cat=0
split_feature=2 4 2 0
split_gain=11.4423 2.84665e-09 6.56585e-09 4.44089e-16
threshold=153.00000000000003 1.0000000180025095e-35 11197.500000000002 234402748.00000003
decision_type=2 2 2 2
left_child=-1 3 -3 -2
right_child=1 2 -4 -5
leaf_value=0.10862793096906531 -0.010025479978569465 -0.010029456244534911 -0.010025479849216671 -0.010025480246103358
leaf_count=28 790 21 51 35
internal_value=0 -1.00256 -1.00268 -1.00255
internal_count=925 897 72 825
shrinkage=0.01


Tree=3
num_leaves=6
num_cat=0
split_feature=2 4 2 0 3
split_gain=10.2252 2.76318e-09 6.36967e-09 4.44089e-16 4.44089e-16
threshold=153.00000000000003 1.0000000180025095e-35 11197.500000000002 8995240.0000000019 22.500000000000004
decision_type=2 2 2 2 2
left_child=-1 3 -3 -2 -5
right_child=1 2 -4 4 -6
leaf_value=0.096484381253851087 -0.010025226028441619 -0.010029163051222405 -0.01002522693574401 -0.010025226165085516 -0.01002522680597316
leaf_count=28 32 21 51 79 714
internal_value=0 -1.00253 -1.00265 -1.00252 -1.00252
internal_count=925 897 72 825 793
shrinkage=0.01



feature importances:
smart_1_raw=28
smart_9_raw=12
smart_194_raw=6
smart_197_raw=3
smart_5_raw=1

pandas_categorical:[]
