tree
version=v2
num_class=1
num_tree_per_iteration=1
label_index=0
max_feature_idx=24
objective=binary sigmoid:1
feature_names=smart_1_raw smart_3_raw smart_4_raw smart_5_raw smart_7_raw smart_9_raw smart_10_raw smart_12_raw smart_183_raw smart_184_raw smart_187_raw smart_188_raw smart_189_raw smart_190_raw smart_191_raw smart_192_raw smart_193_raw smart_194_raw smart_195_raw smart_197_raw smart_198_raw smart_199_raw smart_240_raw smart_241_raw smart_242_raw
feature_infos=[0:244099744] none [1:16] none [1354988:12958689037] [11:17317] none [1:16] none none none none [0:65535] [20:42] [46:84975] none [2:154786] [20:42] [0:244099744] none none none [141733923696:281453501876776] [1080172776:35581709048] [89497:97667803445]
tree_sizes=1093 1688 568 727 803 962 964 1361 1964

Tree=0
num_leaves=13
num_cat=0
split_feature=24 13 0 0 0 0 0 0 0 0 0 4
split_gain=44.3559 8.9957 36.5948 2.22045e-16 2.22045e-16 5.55112e-17 2.77556e-17 2.77556e-17 1.38778e-17 1.38778e-17 6.93889e-18 6.93889e-18
threshold=94477255538.500015 30.500000000000004 60433005.000000007 216584712.00000003 47950208.000000007 38633782.000000007 240121286.00000003 233349491.50000003 182306486.50000003 228396539.50000003 124464561.50000001 568232577.50000012
decision_type=2 2 2 2 2 2 2 2 2 2 2 2
left_child=1 3 -3 4 5 -1 7 9 10 -5 -4 -7
right_child=-2 2 8 6 -6 11 -8 -9 -10 -11 -12 -13
leaf_value=-6.8370982160149163 -6.3748476603683208 -6.3748476603683155 -6.8370982160149163 -6.8370982160149163 -6.8370982160149163 -6.8370982160149163 -6.8370982160149163 -6.8370982160149163 -6.8370982160149163 -6.8370982160149163 -6.8370982160149163 -6.8370982160149163
leaf_count=231 20 20 34 69 928 33 20 33 20 26 22 21
internal_value=0 -0.36656 8.62914 -1.00108 -1.00108 -1.00108 -1.00108 -1.00108 -1.00108 -1.00108 -1.00108 -1.00108
internal_count=1477 1457 96 1361 1213 285 148 128 76 95 56 54
shrinkage=1


Tree=1
num_leaves=20
num_cat=0
split_feature=24 13 14 18 14 4 4 4 4 14 4 4 4 4 4 4 18 4 18
split_gain=27.5901 8.03305 33.1247 6.12363e-09 4.44089e-16 2.22045e-16 2.22045e-16 2.22045e-16 1.11022e-16 2.22045e-16 1.11022e-16 1.11022e-16 2.77556e-17 2.77556e-17 1.38778e-17 1.38778e-17 1.38778e-17 6.93889e-18 6.93889e-18
threshold=94477255538.500015 30.500000000000004 790.00000000000011 70538944.000000015 846.00000000000011 739721764.00000012 672290210.50000012 445786039.00000006 402607500.50000006 4414.0000000000009 360111989.50000006 338248375.00000006 507400911.00000006 522494443.50000006 179398398.00000003 415592543.00000006 159190734.00000003 110996568.00000001 141227025.00000003
decision_type=2 2 2 2 2 2 2 2 2 2 2 2 2 2 2 2 2 2 2
left_child=1 4 3 -3 14 6 7 8 9 -6 11 -11 -9 -14 -1 -10 -15 -5 -16
right_child=-2 2 -4 17 5 -7 -8 12 15 10 -12 -13 13 16 18 -17 -18 -19 -20
leaf_value=-0.010010731513766085 0.28443180954833702 -0.010016179453417441 0.40792600214977009 -0.010010731513766071 -0.010010731513766287 -0.010010731513766299 -0.010010731513766094 -0.010010731513766209 -0.010010731513766181 -0.010010731513766309 -0.010010731513766148 -0.010010731513766078 -0.010010731513765863 -0.010010731513766193 -0.010010731513765971 -0.010010731513766096 -0.010010731513766039 -0.010010731513765863 -0.010010731513765863
leaf_count=34 20 20 20 36 166 251 35 77 62 441 51 37 20 69 26 40 32 20 20
internal_value=0 -0.365304 7.66792 -1.00126 -1.00107 -1.00107 -1.00107 -1.00107 -1.00107 -1.00107 -1.00107 -1.00107 -1.00107 -1.00107 -1.00107 -1.00107 -1.00107 -1.00107 -1.00107
internal_count=1477 1457 96 76 1361 1281 1030 995 797 695 529 478 198 121 80 102 101 56 46
shrinkage=0.01


Tree=2
num_leaves=6
num_cat=0
split_feature=24 13 23 18 14
split_gain=20.3379 7.27048 28.9342 5.55187e-09 1.83214e-09
threshold=94477255538.500015 30.500000000000004 9916353757.5000019 70538944.000000015 236.00000000000003
decision_type=2 2 2 2 2
left_child=1 -1 3 -3 -5
right_child=-2 2 -4 4 -6
leaf_value=-0.010010625146648869 0.21178100020109142 -0.010017385858670201 0.35841183044397346 -0.01001062514664856 -0.010013947895084986
leaf_count=1361 20 20 20 30 26
internal_value=0 -0.363936 6.90688 -1.0014 -1.00124
internal_count=1477 1457 96 76 56
shrinkage=0.01


Tree=3
num_leaves=8
num_cat=0
split_feature=23 13 23 0 16 0 0
split_gain=15.8027 6.65323 18.4845 5.38878e-09 1.89068e-09 2.22045e-16 5.55112e-17
threshold=35311073168.000008 30.500000000000004 9916353757.5000019 70538944.000000015 574.50000000000011 59819458.500000007 56895088.500000007
decision_type=2 2 2 2 2 2 2
left_child=1 5 3 -3 -5 6 -1
right_child=-2 2 -4 4 -6 -7 -8
leaf_value=-0.010010518888974626 0.16630864236858606 -0.010017212737900356 0.24776766160929331 -0.010010752036084971 -0.010014171299673521 -0.010010518888974645 -0.010010518888974177
leaf_count=331 21 20 20 35 21 1009 20
internal_value=0 -0.362019 6.29173 -1.00139 -1.00122 -1.00105 -1.00105
internal_count=1477 1456 96 76 56 1360 351
shrinkage=0.01


Tree=4
num_leaves=9
num_cat=0
split_feature=24 13 14 4 0 5 0 0
split_gain=13.4072 6.16182 16.8566 2.12999e-08 2.5831e-09 2.64389e-12 2.22045e-16 5.55112e-17
threshold=94477255538.500015 30.500000000000004 790.00000000000011 145034950.00000003 84228235.000000015 15812.000000000002 63025643.500000007 60433005.000000007
decision_type=2 2 2 2 2 2 2 2
left_child=1 5 3 4 -3 6 7 -1
right_child=-2 2 -4 -5 -6 -7 -8 -9
leaf_value=-0.010010413909497201 0.14225565234737478 -0.010014451798331528 0.22659135965399585 -0.010021414191623055 -0.010010414049898955 -0.010010521863980822 -0.010010413909497216 -0.010010413909496743
leaf_count=355 20 20 20 20 36 22 964 20
internal_value=0 -0.360775 5.80178 -1.00157 -1.00121 -1.00104 -1.00104 -1.00104
internal_count=1477 1457 96 76 56 1361 1339 375
shrinkage=0.01


Tree=5
num_leaves=11
num_cat=0
split_feature=24 13 0 14 0 0 4 4 4 4
split_gain=14.2758 6.17039 14.7304 3.16553e-08 2.22045e-16 2.22045e-16 3.46945e-17 1.38778e-17 1.38778e-17 6.93889e-18
threshold=93343037485.500015 30.500000000000004 70538944.000000015 398.50000000000006 197065196.00000003 16215108.000000002 89892614.500000015 690627481.50000012 433537344.00000006 229235544.00000003
decision_type=2 2 2 2 2 2 2 2 2 2
left_child=1 4 -3 6 5 7 -4 8 9 -1
right_child=-2 2 3 -5 -6 -7 -8 -9 -10 -11
leaf_value=-0.010010310288429842 0.15109121087143118 0.20545458032156633 -0.010010310397433268 -0.010021655220603134 -0.010010310306265504 -0.010010310304113283 -0.010010310910173995 -0.010010310339909177 -0.010010310288429677 -0.010010310288429761
leaf_count=31 20 20 22 28 254 1011 20 22 22 27
internal_value=0 -0.357346 5.81404 -1.00168 -1.00103 -1.00103 -1.00103 -1.00103 -1.00103 -1.00103
internal_count=1477 1457 90 70 1367 1113 42 102 80 58
shrinkage=0.01


Tree=6
num_leaves=11
num_cat=0
split_feature=24 13 23 0 16 14 0 0 0 0
split_gain=12.0418 5.75311 12.4498 3.23243e-08 5.80371e-09 4.44089e-16 2.22045e-16 1.11022e-16 1.11022e-16 1.11022e-16
threshold=93343037485.500015 30.500000000000004 9819132149.0000019 77734952.000000015 574.50000000000011 55744.000000000007 180106013.00000003 174259082.50000003 169293203.00000003 164375830.00000003
decision_type=2 2 2 2 2 2 2 2 2 2
left_child=1 5 3 -3 -5 6 7 8 9 -1
right_child=-2 2 -4 4 -6 -7 -8 -9 -10 -11
leaf_value=-0.010010208109213159 0.12865142093391196 -0.010024626851505602 0.17849975869303059 -0.010010208116523058 -0.010016412642095183 -0.01001020810930626 -0.010010208109213136 -0.010010208109212793 -0.010010208109212701 -0.010010208109212701
leaf_count=768 20 20 20 30 20 238 293 26 21 21
internal_value=0 -0.355516 5.39887 -1.0018 -1.00133 -1.00102 -1.00102 -1.00102 -1.00102 -1.00102
internal_count=1477 1457 90 70 50 1367 1129 836 810 789
shrinkage=0.01


Tree=7
num_leaves=16
num_cat=0
split_feature=24 17 16 17 0 0 0 0 0 0 4 5 5 5 5
split_gain=10.3903 5.39275 10.6536 4.58112e-08 4.50146e-09 2.22045e-16 1.11022e-16 1.11022e-16 1.11022e-16 1.11022e-16 1.11022e-16 1.11022e-16 1.11022e-16 5.55112e-17 5.55112e-17
threshold=93343037485.500015 30.500000000000004 679.50000000000011 32.500000000000007 99171017.500000015 141227025.00000003 133463111.00000001 130637459.50000001 125351566.00000001 120720448.00000001 48358365.000000007 1097.0000000000002 14590.000000000002 9429.0000000000018 8796.5000000000018
decision_type=2 2 2 2 2 2 2 2 2 2 2 2 2 2 2
left_child=1 5 3 -3 -5 6 7 8 9 -1 -7 -12 13 14 -13
right_child=-2 2 -4 4 -6 10 -8 -9 -10 -11 11 12 -14 -15 -16
leaf_value=-0.010010106302011332 0.1120414118034453 -0.010026153133230091 0.15695915387270026 -0.010015634894856146 -0.01001010633369547 -0.010010106301999076 -0.010010106301999291 -0.010010106302049813 -0.01001010630203257 -0.010010106301999031 -0.010010106301999076 -0.010010106301999498 -0.010010106302506263 -0.010010106301999451 -0.010010106301999054
leaf_count=691 20 20 20 21 29 22 42 23 35 20 22 337 23 131 21
internal_value=0 -0.353633 5.04071 -1.00188 -1.00129 -1.00101 -1.00101 -1.00101 -1.00101 -1.00101 -1.00101 -1.00101 -1.00101 -1.00101 -1.00101
internal_count=1477 1457 90 70 50 1367 811 769 746 711 556 534 512 489 358
shrinkage=0.01


Tree=8
num_leaves=24
num_cat=0
split_feature=24 13 0 14 0 0 4 0 14 0 0 0 0 0 0 0 4 0 0 4 4 0 0
split_gain=9.11699 5.07757 9.48785 6.48783e-08 1.62477e-12 2.22045e-16 2.22045e-16 1.11022e-16 2.22045e-16 1.11022e-16 1.11022e-16 1.11022e-16 5.55112e-17 5.55112e-17 5.55112e-17 5.55112e-17 5.55112e-17 2.77556e-17 2.77556e-17 2.77556e-17 2.77556e-17 1.38778e-17 1.38778e-17
threshold=93343037485.500015 30.500000000000004 70538944.000000015 398.50000000000006 159190734.00000003 162405720.50000003 225190794.00000003 151956148.00000003 82894.000000000015 142049329.50000003 132655271.00000001 112950066.00000001 150580016.50000003 136730846.50000003 239403786.00000003 191908064.00000003 926635700.00000012 188199467.50000003 184601074.50000003 558401657.50000012 420829107.00000006 181333794.00000003 177379873.00000003
decision_type=2 2 2 2 2 2 2 2 2 2 2 2 2 2 2 2 2 2 2 2 2 2 2
left_child=1 5 -3 4 -4 6 12 8 9 10 11 -8 13 -1 15 17 19 18 21 20 -17 22 -7
right_child=-2 2 3 -5 -6 14 7 -9 -10 -11 -12 -13 -14 -15 -16 16 -18 -19 -20 -21 -22 -23 -24
leaf_value=-0.010010004919687817 0.099217085801826171 0.14217624448985502 -0.010010129410528817 -0.010025916173021778 -0.010010005120809946 -0.010010004934843157 -0.01001000491968782 -0.010010004956155319 -0.010010005481561557 -0.01001000491968755 -0.010010004919687487 -0.010010004919687714 -0.010010004919687367 -0.01001000491968739 -0.010010004919687459 -0.010010004919687778 -0.010010005039376737 -0.010010004919687411 -0.010010004919687343 -0.010010004919687558 -0.010010004919687558 -0.01001000491968739 -0.010010004919687411
leaf_count=270 20 20 20 28 22 77 407 32 27 34 28 77 21 22 26 149 39 23 20 35 35 22 23
internal_value=0 -0.35171 4.72779 -1.00198 -1.00101 -1.001 -1.001 -1.001 -1.001 -1.001 -1.001 -1.001 -1.001 -1.001 -1.001 -1.001 -1.001 -1.001 -1.001 -1.001 -1.001 -1.001 -1.001
internal_count=1477 1457 90 70 42 1367 918 605 573 546 512 484 313 292 449 423 258 165 142 219 184 122 100
shrinkage=0.01



feature importances:
smart_1_raw=44
smart_7_raw=22
smart_191_raw=9
smart_190_raw=8
smart_242_raw=8
smart_9_raw=5
smart_195_raw=4
smart_241_raw=4
smart_193_raw=3
smart_194_raw=2

pandas_categorical:[]
