tree
version=v2
num_class=1
num_tree_per_iteration=1
label_index=0
max_feature_idx=3
objective=binary sigmoid:1
feature_names=smart_5_raw smart_9_raw smart_194_raw smart_197_raw
feature_infos=[0:51712] [6:42992] [12:141] [0:2304]
tree_sizes=2336 2358

Tree=0
num_leaves=30
num_cat=0
split_feature=3 3 3 3 2 2 0 0 0 3 0 2 2 2 2 2 3 3 0 2 0 3 0 0 0 0 2 2 0
split_gain=255964 101175 12097.9 9288.42 13361.6 7167.37 9953.4 11800.3 13685.8 9395.31 8380.88 20384.3 4776.32 4659.4 4473.67 4485.13 4477.87 4159.3 7686.06 3897.36 3528.6 3079.72 3042.02 2833.42 11513.5 2441.62 2595.01 2356.56 2889.68
threshold=100.00000000000001 20.000000000000004 1.0000000180025095e-35 26.000000000000004 32.500000000000007 22.500000000000004 1404.0000000000002 1228.0000000000002 676.00000000000011 156.00000000000003 3024.0000000000005 31.500000000000004 31.500000000000004 36.500000000000007 28.500000000000004 30.500000000000004 304.00000000000006 304.00000000000006 5292.0000000000009 25.500000000000004 1.0000000180025095e-35 148.00000000000003 16296.000000000002 292.00000000000006 13.000000000000002 3.0000000000000004 23.500000000000004 21.500000000000004 8660.0000000000018
decision_type=2 2 2 2 2 2 2 2 2 2 2 2 2 2 2 2 2 2 2 2 2 2 2 2 2 2 2 2 2
left_child=1 2 -1 13 -5 27 7 8 9 12 11 -8 21 25 23 16 -16 22 -19 -10 -4 -7 -12 24 -11 26 -3 28 -2
right_child=5 3 20 4 -6 6 10 -9 19 14 17 -13 -14 -15 15 -17 -18 18 -20 -21 -22 -23 -24 -25 -26 -27 -28 -29 -30
leaf_value=-9.4603779563003112 0.090604829667366715 -8.8367641330304636 -9.1640812604391506 -6.7873714592731549 0.42135044406107092 1.1283518798164618 41.640680637393949 -8.5393735110157074 8.7868971622587555 2.6014626191093786 5.7448801738257878 -3.6577177904402944 -9.4652047683667533 8.7868971622587555 31.187204077118452 3.8436195560522251 9.4629009374696569 -0.0011519154485473138 27.79950333999647 28.864209285953784 -8.5380154631587803 -5.7796841862194306 -9.4652047683667497 -6.1029754653558754 22.475973610237105 -6.389624904428028 -7.6195821593508501 -3.6245321505632555 -9.4652047683667515
leaf_count=25887457 1083 4676 102679 14743 336 398 30 138 21 540 42 22 85 21 22 48 27 27 24 30 12953 104 28 38 40 997 4292 350 42
internal_value=0 -0.135654 -0.354452 226.851 282.846 1020.63 1181.44 1087.27 1188.83 1117.68 1993.02 3193.12 782.565 142.297 1392.8 2106.46 2867.19 1477.27 2253.67 3005.23 36.1254 915.241 911.605 1280.78 1342.73 138.753 120.097 839.215 918.906
internal_count=26031293 26028154 26003089 25065 15079 3139 1664 1491 1353 1302 173 52 587 9986 715 97 49 121 51 51 115632 502 70 618 580 9965 8968 1475 1125
shrinkage=1


Tree=1
num_leaves=30
num_cat=0
split_feature=3 2 3 3 2 1 2 2 3 1 1 3 1 1 3 1 2 3 1 2 2 3 2 2 1 3 2 3 1
split_gain=3762.32 3350.19 3516.52 2811.42 11690 4819.5 2394.09 87031.1 14960.8 169200 34428.1 1637.36 1152.15 1026.73 1702.69 1281.84 1688.29 1226.3 712.349 644.283 446.353 425.008 914.191 532.649 476.742 406.541 100727 385.89 384.541
threshold=100.00000000000001 22.500000000000004 156.00000000000003 1.0000000180025095e-35 32.500000000000007 25538.500000000004 28.500000000000004 30.500000000000004 304.00000000000006 7420.5000000000009 7187.5000000000009 20.000000000000004 8277.5000000000018 17765.500000000004 52.000000000000007 12411.500000000002 22.500000000000004 68.000000000000014 16178.500000000002 26.500000000000004 25.500000000000004 11.000000000000002 16.500000000000004 25.500000000000004 21770.500000000004 26.000000000000004 36.500000000000007 6.5000000000000009 1587.5000000000002
decision_type=2 2 2 2 2 2 2 2 2 2 2 2 2 2 2 2 2 2 2 2 2 2 2 2 2 2 2 2 2
left_child=3 -2 -3 -1 5 12 -4 8 10 -10 -8 27 28 14 20 17 -17 -16 19 -18 -14 -15 24 -24 -23 26 -13 -6 -5
right_child=1 2 6 4 11 -7 7 -9 9 -11 -12 25 13 21 15 16 18 -19 -20 -21 -22 22 23 -25 -26 -27 -28 -29 -30
leaf_value=-0.0051489326086268661 -0.017133284998026979 -0.039066419998398827 -0.13783075750337845 0.57745299467789357 2.677999649266309 0.070120889594687985 -51.151409713427995 -0.29293917295123584 -2.1586368139374317 -113.29154115088514 -6.1539796519411869 0.2442471994971912 0.46694220275177273 0.1552931657470038 2.4780160224299914 3.1370470634633616 1.1007151951019216 0.24532814068051095 0.46389868354162533 3.0807058655244455 0.29629669277575627 1.889944601562892 0.26080381766733968 0.540570672101918 6.95572702887136 -0.022005521738332281 -56.131860662802758 0.39095389765909838 0.16607416903952046
leaf_count=25887457 1475 638 852 816 38 46197 23 77 25 27 22 494 24743 19075 25 48 40 174 75 23 12024 32 6263 2121 22 336 21 7897 20233
internal_value=0 -3.59701 -8.08683 -0.24085 4.57459 20.4005 -15.2723 -52.6071 -2312.81 -3488.18 -1557.97 -1.86455 31.2511 36.1903 44.4377 105.167 161.428 52.5817 108.462 182.357 40.4565 26.7607 32.9041 32.2185 367.799 -2.33271 -40.472 41.0283 18.5213
internal_count=26031293 3139 1664 26028154 140697 131911 1026 174 97 52 45 8786 85714 64665 37152 385 186 199 138 63 36767 27513 8438 8384 54 851 515 7935 21049
shrinkage=0.01



feature importances:
smart_194_raw=20
smart_197_raw=18
smart_5_raw=11
smart_9_raw=9

pandas_categorical:[]
