tree
version=v2
num_class=1
num_tree_per_iteration=1
label_index=0
max_feature_idx=4
objective=binary sigmoid:1
feature_names=smart_1_raw smart_5_raw smart_9_raw smart_194_raw smart_197_raw
feature_infos=[0:408160879] [0:1943] [5:45307] [15:48] [0:2216]
tree_sizes=2366 2370 2380 2467

Tree=0
num_leaves=30
num_cat=0
split_feature=4 2 4 0 4 2 2 3 2 0 0 2 2 2 2 2 0 0 2 2 3 3 2 3 3 2 3 3 2
split_gain=42576.7 30283.2 1157.39 7904.79 445.077 1411.06 3740.07 343.835 724.509 251.907 1572.19 2399.92 502.904 229.2 940.191 93.7088 80.24 483.09 12.87 11.7084 11.7557 30.5207 19.9399 60.6953 111.182 11.8888 33.31 11.0493 16.5095
threshold=20.000000000000004 2959.5000000000005 1.0000000180025095e-35 262144.50000000006 12.000000000000002 6368.5000000000009 3870.5000000000005 25.500000000000004 10186.500000000002 8749171.0000000019 10616980.000000002 7135.5000000000009 20262.500000000004 21729.500000000004 24645.500000000004 23735.500000000004 91751629.500000015 105678510.50000001 6252.5000000000009 5817.5000000000009 31.500000000000004 27.500000000000004 5935.5000000000009 29.500000000000004 28.500000000000004 6151.5000000000009 29.500000000000004 28.500000000000004 6033.5000000000009
decision_type=2 2 2 2 2 2 2 2 2 2 2 2 2 2 2 2 2 2 2 2 2 2 2 2 2 2 2 2 2
left_child=2 -2 9 4 7 6 -6 8 -4 18 11 -11 -13 -10 15 -15 -12 -18 19 -1 21 -21 23 24 -23 27 -27 28 -24
right_child=1 -3 3 -5 5 -7 -8 -9 13 10 16 12 -14 14 -16 -17 17 -19 -20 20 -22 22 25 -25 -26 26 -28 -29 -30
leaf_value=-11.158028992616778 -2.9979603986934809 68.897381393911559 -1.2714231603852149 17.322294088900378 -11.170236660019269 -11.170236660019272 8.7207753722510741 -11.170236660019272 -11.170236660019272 8.6273903392488389 -11.170236660019272 -11.170236660019269 -3.6130779667559656 -5.5477105922302847 -11.170236660019272 -1.799359880374471 -5.3618419618902635 -11.170236660019272 -11.165096323764965 -11.170236660019274 -11.170236660019272 -11.170236660019272 -10.856899273272061 -11.170236660019272 -10.38203207107647 -11.170236660019272 -10.848949456145441 -11.170236660019272 -11.170236660019272
leaf_count=1209005 86 79 71 74 178 491 106 2748 586 71 3295 185 93 125 404 75 121 598 4922123 30966 31936 2374 2243 4745 2675 4709 4375 13877 2498
internal_value=0 4258.49 -0.144123 129.205 87.1458 271.058 741.411 51.5928 166.204 -0.244891 63.4342 603.14 251.811 117.12 231.72 701.816 16.5091 96.749 -0.289476 0.449198 3.20016 5.15945 10.2462 20.5279 40.7597 6.61116 14.4737 2.77491 13.8242
internal_count=6240912 165 6240747 4858 4784 775 284 4009 1261 6235889 4363 349 278 1190 604 200 4014 719 6231526 1309403 100398 68462 37496 9794 5049 27702 9084 18618 4741
shrinkage=1


Tree=1
num_leaves=30
num_cat=0
split_feature=4 4 0 3 1 3 1 0 3 0 3 0 0 3 0 3 3 0 0 1 3 3 0 0 0 3 0 3 0
split_gain=11184 776169 945729 43905.3 24514.4 17669.2 3575.58 2999.43 4905.87 3439.43 3941.14 4263.28 3367.28 1989.67 1918.22 1853.26 4126.11 6475.87 26343.1 1612.64 5341.79 1003.69 1576.72 879.668 761.435 1718.07 961.288 708.997 650.629
threshold=12.000000000000002 20.000000000000004 98313.500000000015 29.500000000000004 7.5000000000000009 31.500000000000004 6.5000000000000009 262161.00000000006 27.500000000000004 20512951.500000004 35.500000000000007 17793300.000000004 983050.00000000012 26.500000000000004 1114122.5000000002 30.500000000000004 31.500000000000004 9699499.5000000019 8061047.5000000009 1388.5000000000002 24.500000000000004 37.500000000000007 3276854.5000000005 156600182.50000003 1376285.0000000002 34.500000000000007 9240737.5000000019 26.500000000000004 491545.50000000006
decision_type=2 2 2 2 2 2 2 2 2 2 2 2 2 2 2 2 2 2 2 2 2 2 2 2 2 2 2 2 2
left_child=7 2 3 4 13 -5 -7 19 14 10 11 15 -12 -2 27 -10 17 18 -17 -1 -21 22 -14 -11 25 -18 -26 28 -9
right_child=1 -3 -4 5 -6 6 -8 8 9 23 12 -13 21 -15 -16 16 24 -19 -20 20 -22 -23 -24 -25 26 -27 -28 -29 -30
leaf_value=-0.0047271433714825648 -56.929599451130251 -0.18776871744778206 -282.62798640868311 -0.010000140747613455 -6.9129804552202021 -25.632566108615812 -48.687164549248301 -0.010000141464431065 -0.8719291447399522 -0.086140081348722294 -24.07878824597914 -16.911024858413963 -0.0099996430149055602 -48.152970245873341 -0.074029000561912264 -2.2095489894175699 -2.0919805998781276 -3.25409903598909 -49.063401953764014 -0.010000141310644669 23.182245464503996 -0.01000014117209075 -14.380700404573869 -8.995568386181473 -0.61003717292782678 -14.87852613797585 -2.2966894359766932 -8.4556093406890387 -4.2086358247525295
leaf_count=6228916 34 165 99 235 71 75 20 425 1369 1223 91 129 86 283 4578 321 340 62 22 302 91 135 138 80 426 97 254 169 676
internal_value=0 -55.6453 -5427.41 -3877.14 -4644.77 -1590.78 -3358.34 -1.30869 -31.9904 -103.612 -155.191 -144.32 -931.662 -4975.85 -9.88798 -138.334 -217.34 -531.627 -1457.63 -0.445507 537.628 -577.831 -912.435 -12.3707 -144.5 -488.944 -129.392 -335.825 -258.206
internal_count=6240912 982 817 718 388 330 95 6239930 10621 4773 3470 3020 450 317 5848 2891 1522 405 343 6229309 393 359 224 1303 1117 437 680 1270 1101
shrinkage=0.01


Tree=2
num_leaves=30
num_cat=0
split_feature=0 2 2 2 0 3 3 0 0 0 3 2 2 3 2 2 4 3 0 2 3 0 0 2 0 0 0 3 0
split_gain=2424.47 2455.18 25324.6 35441.3 51973.2 74173.8 140068 12697.6 13020.6 7448.04 27331.5 8905.94 5776.98 3911.95 2553.36 2021.74 1978.17 4592.92 17301 4086.17 1977.24 1894.31 1361.94 1007.84 580.441 569.289 1463.25 1368.56 4492.73
threshold=1.0000000180025095e-35 10973.500000000002 2959.5000000000005 4199.5000000000009 131074.50000000003 27.500000000000004 25.500000000000004 110232953.50000001 22675631.500000004 8749171.0000000019 30.500000000000004 7353.5000000000009 3870.5000000000005 26.500000000000004 6916.5000000000009 10741.500000000002 1.0000000180025095e-35 29.500000000000004 8749171.0000000019 1567.5000000000002 31.500000000000004 11272531.000000002 6225987.0000000009 6252.5000000000009 9.5000000000000018 196609.50000000003 1605678.0000000002 28.500000000000004 327705.00000000006
decision_type=2 2 2 2 2 2 2 2 2 2 2 2 2 2 2 2 2 2 2 2 2 2 2 2 2 2 2 2 2
left_child=-1 2 16 4 5 6 -4 8 9 15 11 13 21 -11 20 25 17 18 -2 -20 -12 22 -6 -15 -7 -5 27 -27 -29
right_child=1 -3 3 7 12 24 -8 -9 -10 10 14 -13 -14 23 -16 -17 -18 -19 19 -21 -22 -23 -24 -25 -26 26 -28 28 -30
leaf_value=-0.015388024441920695 -0.010000134345455958 -0.042132453546779518 -7.1270584677129625 -0.37863284126450003 -0.010000126512243237 -9.6651106472474755 -147.97364274106118 -36.039174566081627 0.072622121630378816 -42.290023872252469 -2.1607013785053266 -0.010000114974219525 -25.073341952553321 -21.527138986580329 -11.448341598392911 -12.816231240982836 -0.064230173746946465 -0.49278479524699925 -32.089824109821599 -11.908299650472786 -7.0052403299533106 -0.010036875972902419 -9.1800487816071268 -30.666926710347322 -0.010000141619888688 -2.701089434451128 -0.010000114709949593 -0.01000013353779673 -27.327203651773626
leaf_count=6220824 923 12809 100 1937 202 74 121 129 441 26 39 151 121 55 170 142 92 462 32 54 64 71 22 23 111 467 802 136 312
internal_value=0 -23.3129 -47.2988 -352.03 -1542.24 -4243.55 -7790.42 -230.307 -213.349 -480.621 -716.822 -2304.93 -694.562 -2729.3 -415.551 -164.829 -12.3182 -169.777 -665.386 -2396.62 -342.634 -510.097 -747.396 -2390.18 -386.07 -122.46 -285.932 -651.745 -1235.14
internal_count=6240912 20088 7279 5716 822 406 221 4894 4765 4324 528 255 416 104 273 3796 1563 1471 1009 86 103 295 224 78 185 3654 1717 915 448
shrinkage=0.01


Tree=3
num_leaves=30
num_cat=0
split_feature=4 2 3 0 0 0 0 4 2 2 3 0 2 3 2 2 3 2 2 2 2 3 3 2 2 3 3 2 2
split_gain=663.598 8515.17 1194.59 1444.63 105.854 828.422 11589.7 15499.3 940.59 338.349 584.52 241.492 12668.9 87.5943 97.2093 725.778 1167.71 83.7156 841.104 74.6651 108.406 163.752 426.652 283.207 329.71 154.743 376.573 267.644 187.404
threshold=20.000000000000004 2840.5000000000005 27.500000000000004 1.0000000180025095e-35 262161.00000000006 1114122.5000000002 491545.50000000006 1.0000000180025095e-35 11306.500000000002 22663.500000000004 24.500000000000004 7635035.0000000009 1327.5000000000002 37.500000000000007 14536.000000000002 15321.500000000002 38.500000000000007 22135.500000000004 23204.500000000004 5072.5000000000009 2264.5000000000005 26.500000000000004 29.500000000000004 3181.5000000000005 4199.5000000000009 28.500000000000004 27.500000000000004 4521.5000000000009 4416.5000000000009
decision_type=2 2 2 2 2 2 2 2 2 2 2 2 2 2 2 2 2 2 2 2 2 2 2 2 2 2 2 2 2
left_child=4 -2 3 -3 13 6 8 -8 -6 -10 -11 12 -7 19 -15 16 -16 -14 -19 20 -1 -22 23 -23 -25 26 28 -28 -26
right_child=1 2 -4 -5 5 11 7 -9 9 10 -12 -13 17 14 15 -17 -18 18 -20 -21 21 22 -24 24 25 -27 27 -29 -30
leaf_value=-0.0013000451398228188 -0.0069688961871315781 -2.2714639632832165 -2.6704739862677416 -0.2886684225197973 -9.9647145810589599 -32.220472179865943 -0.01000005195070959 -46.491007567730357 -0.11399795596716934 -0.010000134662147253 -9.5595079979842179 -0.029811048092598231 -0.14258085164180151 0.0028103355526890774 -1.4974150689002641 -0.010000138281404962 -0.01000013828257881 -9.5451598977063217 -0.010000121055126727 -0.0080554460548974503 0.0026069250090136422 -0.35345185094624348 -0.0067036256083688071 -0.0051571800415955342 -0.54348818150052391 -0.053392820596387995 -0.21101128740885908 -0.85953635120852712 0.035513714653064951
leaf_count=413965 79 21 40 25 363 128 1423 20 367 123 184 4613 2625 56183 6791 59339 8659 105 705 5072316 227221 50048 217189 60968 5374 16527 7126 12653 15732
internal_value=0 -16.1582 -189.621 -130.242 -1.50288 -5.40506 -102.079 -2065.75 -34.5946 -23.0293 -371.259 -4.09787 -37.5301 -1.26704 -8.14925 -14.4907 -66.3327 -18.5022 -113.412 -1.14969 -3.18404 -5.48436 -8.72279 -18.136 -11.7945 -27.2103 -36.0411 -62.58 -11.18
internal_count=6240912 165 86 46 6240747 10656 2480 1443 1037 674 307 8176 3563 6230091 130972 74789 15450 3435 810 6099119 1026803 612838 385617 168428 118380 57412 40885 19779 21106
shrinkage=0.01



feature importances:
smart_9_raw=37
smart_1_raw=35
smart_194_raw=33
smart_197_raw=8
smart_5_raw=3

pandas_categorical:[]
