tree
version=v2
num_class=1
num_tree_per_iteration=1
label_index=0
max_feature_idx=4
objective=binary sigmoid:1
feature_names=smart_1_raw smart_5_raw smart_9_raw smart_194_raw smart_197_raw
feature_infos=[0:3933470719] [0:1869] [10:51150] [15:43] [0:6296]
tree_sizes=2315 2378 2372 2379 2403 2383 2394 2405 2401

Tree=0
num_leaves=30
num_cat=0
split_feature=0 4 2 4 2 4 2 2 3 4 2 4 2 4 2 2 3 3 4 0 3 4 0 2 0 2 2 4 3
split_gain=7577.86 3856.6 3693.81 3366.4 3330.39 4650.92 5987.93 3759.13 2531.86 1720.78 1447.75 1252.57 2156.78 1072.88 1072.36 1573.22 1880.74 1107.07 2594.81 1051.18 2702.35 845.69 3114.28 6333.22 772.154 739.207 705.074 670.126 689.539
threshold=278529098.00000006 8.5000000000000018 28884.500000000004 13.500000000000002 30695.500000000004 1.5000000000000002 33051.500000000007 31819.500000000004 22.500000000000004 22.500000000000004 19908.500000000004 9.5000000000000018 24611.500000000004 1.0000000180025095e-35 32378.500000000004 33888.500000000007 29.500000000000004 23.500000000000004 1.5000000000000002 724416798.00000012 26.500000000000004 184.50000000000003 2293761.0000000005 11528.500000000002 28443009.000000004 4351.5000000000009 36000.500000000007 21.500000000000004 30.500000000000004
decision_type=2 2 2 2 2 2 2 2 2 2 2 2 2 2 2 2 2 2 2 2 2 2 2 2 2 2 2 2 2
left_child=1 13 8 -4 27 6 -6 -7 9 -3 -11 12 -10 -1 -15 16 17 18 -16 -8 26 25 23 -23 -17 -13 -21 28 -2
right_child=4 2 3 -5 5 7 19 -9 11 10 -12 21 -14 14 15 24 -18 -19 -20 20 -22 22 -24 -25 -26 -27 -28 -29 -30
leaf_value=-10.703714152167667 -10.051225156224204 -10.708112256811006 -5.4993839533371842 16.398535036766845 18.166359860259327 -2.3544913927518412 -9.3202065960102409 22.706371199425597 -8.0248279792632076 -3.9999015629442152 10.045414577338933 -3.0746311224115654 8.131968840852311 -10.455333549534098 -10.708112256811001 -9.8790075643100721 5.99912947130729 -9.3864946275708654 5.8947092105112393 -1.0832882177875476 7.0015639749987368 -10.708112256811001 -10.708112256811004 16.124730518656136 -1.2880717079793342 -10.708112256811006 -10.708112256811003 -1.2880717079793342 -2.0268984176909832
leaf_count=4227994 674 60 85 49 46 53 319 53 165 66 64 58 47 14012 87 3204 53 335 80 46 75 95 390 66 47 1776 126 47 51
internal_value=0 -0.176798 241.515 1320.62 474.428 800.622 577.748 2087.41 189.632 931.088 1361.28 135.386 625.522 -0.343075 51.1808 150.226 477.64 351.782 794.345 390.115 715.991 91.818 320.41 1098.98 94.3304 23.1408 256.408 171.05 121.136
internal_count=4250223 4248733 2921 134 1490 718 612 106 2787 190 130 2597 212 4245812 17818 3806 555 502 167 566 247 2385 551 161 3251 1834 172 772 725
shrinkage=1


Tree=1
num_leaves=30
num_cat=0
split_feature=4 0 4 0 1 1 1 3 4 4 1 4 3 3 3 3 0 4 1 4 4 3 4 3 3 1 1 4 0
split_gain=4198.96 17516 455748 1.3203e+06 21899.8 86610.1 230223 63506 780520 17607.5 147798 122202 214521 7653.74 5114.06 6865.54 4151.6 5674.39 6425.43 2149.28 2099.43 2084.89 1782.49 1539.39 3315.12 4296.64 2026.61 1259 1096.85
threshold=1.5000000000000002 28443009.000000004 1090.5000000000002 2293761.0000000005 175.50000000000003 100.00000000000001 146.00000000000003 20.500000000000004 22.500000000000004 54.000000000000007 67.500000000000014 24.500000000000004 26.500000000000004 34.500000000000007 29.500000000000004 23.500000000000004 196611.50000000003 8.5000000000000018 5.5000000000000009 8.5000000000000018 11.000000000000002 25.500000000000004 8.5000000000000018 25.500000000000004 24.500000000000004 9.5000000000000018 13.500000000000002 2.5000000000000004 278529098.00000006
decision_type=2 2 2 2 2 2 2 2 2 2 2 2 2 2 2 2 2 2 2 2 2 2 2 2 2 2 2 2 2
left_child=28 2 4 -4 5 7 -7 8 -2 11 -11 14 -13 -3 15 19 17 -16 -19 27 -21 -8 -17 24 -24 -26 -27 -9 -1
right_child=1 13 3 -5 -6 6 21 9 -10 10 -12 12 -14 -15 16 22 -18 18 -20 20 -22 -23 23 -25 25 26 -28 -29 -30
leaf_value=-0.0050945168945923372 -3.1383303502486415 -0.037799001607446939 -363.81558897261397 -0.010000222881591228 -0.087449479455852852 -169.44354213141236 -15.943145390266466 -2.9803133899288179 -230.50851187528161 -0.010412201107905968 -113.8611085239279 -181.55036961675935 -0.009999345425903524 -12.824578003348247 -3.0161912579517742 0.096019825017021221 -0.27548129623798384 -9.4893205503577036 -0.010035677290000657 -19.152664249825488 -4.2308128674565921 -0.010000452781475346 -0.010012355119242677 -0.58022968223170179 -15.718249256754298 -0.010003041145197037 -7.7603932656997694 -0.45661851307707607 -0.10682985099881327
leaf_count=4235867 133 1160 112 172 1531 54 31 948 37 605 65 28 78 35 1142 5400 364 73 43 20 105 56 169 232 58 44 20 485 1156
internal_value=0 -15.9122 -74.2299 -9436.59 -62.8581 -157.515 -4420.18 -144.45 -1663.61 -117.487 -17.0264 -232.541 -6863.45 -4.06405 -206.589 -148.926 -331.975 -393.18 -727.24 -284.904 -1016.98 -551.868 -44.7182 -164.348 -333.373 -634.925 -370.48 -270.938 -1.62171
internal_count=4250223 13200 12005 284 11721 10190 141 10049 170 9879 670 9209 106 1195 9103 7481 1622 1258 116 1558 125 87 5923 523 291 122 64 1433 4237023
shrinkage=0.01


Tree=2
num_leaves=30
num_cat=0
split_feature=0 2 0 4 4 0 4 2 3 2 2 2 2 3 2 2 0 3 4 2 2 4 3 3 2 3 4 2 4
split_gain=687.796 39003.7 11636.7 1916.47 1320.46 7153.16 813.898 625.608 23339 156922 840621 19211.8 803.593 589.367 586.406 1298.09 1331.54 3092.48 983.465 651.227 42688.2 142446 1472.33 1482.39 550.396 248.286 237.729 180.409 132.209
threshold=278529098.00000006 36289.500000000007 724416798.00000012 1.0000000180025095e-35 1378.0000000000002 8650769.0000000019 1.5000000000000002 31530.500000000004 26.500000000000004 32378.500000000004 33332.500000000007 33888.500000000007 33051.500000000007 26.500000000000004 28884.500000000004 33888.500000000007 28443009.000000004 24.500000000000004 2.5000000000000004 29992.500000000004 29441.500000000004 3.5000000000000004 27.500000000000004 29.500000000000004 39468.500000000007 25.500000000000004 7.5000000000000009 29717.500000000004 4.5000000000000009
decision_type=2 2 2 2 2 2 2 2 2 2 2 2 2 2 2 2 2 2 2 2 2 2 2 2 2 2 2 2 2
left_child=4 7 3 -3 6 -6 -1 -2 12 -10 -11 -12 -9 24 28 16 19 -18 -19 20 22 -22 25 -24 -4 -16 -21 -20 -8
right_child=1 2 13 -5 5 -7 14 8 9 10 11 -13 -14 -15 15 -17 17 18 27 26 21 -23 23 -25 -26 -27 -28 -29 -30
leaf_value=-0.0050692589855129812 -0.015544259198969075 0.52773365110708947 -0.010000200941794017 -9.5651259814679879 28.220354960803792 -0.010000217904869487 0.31180899647043769 -0.47999164723912724 -0.83614345905247478 -290.0390544032295 -36.997750976468062 -9.2010753733651764 -0.011825539636923448 -9.3690480073859383 0.013369749851193007 -0.012615003368981104 -4.0949008453077322 9.3443623783498566 -2.2797191558564118 -0.20064966426130706 -0.010000298605053607 -133.06534961488259 -15.032078528131349 0.005440652208497777 -9.7670138233810277 -0.90601859982478583 -0.022827548658993498 -0.18098126126930777 -0.016507169443879744
leaf_count=4235867 828 231 66 30 133 265 5534 26 22 36 20 27 94 58 60 1788 37 29 20 1081 147 71 44 69 52 60 140 48 3340
internal_value=0 -7.49532 -697.39 -49.3334 -1.73884 437.65 -1.76416 -5.24788 -12.0032 -313.462 -3048.87 -1374.77 -3.26821 -917.221 -7.21934 -11.6142 -21.3853 -140.254 -16.6282 -19.6885 -66.8745 -3131.81 -17.1155 -762.775 -426.306 -9.94679 -17.5681 -32.8684 -1.21634
internal_count=4250223 1490 437 261 4248733 398 4248335 1053 225 105 83 47 120 176 12468 3594 1806 134 97 1672 451 218 233 113 118 120 1221 68 8874
shrinkage=0.01


Tree=3
num_leaves=30
num_cat=0
split_feature=4 0 4 4 2 4 3 2 2 0 2 3 2 3 2 2 0 2 4 4 4 3 2 4 2 0 3 0 0
split_gain=588.262 612.6 1.15505e+06 29247.4 739.189 127.671 193.894 108.715 552.997 72.9287 295.414 50562.8 656277 1412.53 7001.45 394.807 459.425 66.5262 9766.42 6053.84 54.0431 288.953 630.294 276.91 544.904 42.1111 99.7419 363.401 39.7385
threshold=1.5000000000000002 28443009.000000004 4133.5000000000009 1378.0000000000002 32378.500000000004 7.5000000000000009 27.500000000000004 44153.500000000007 44643.500000000007 278529098.00000006 33051.500000000007 27.500000000000004 29164.500000000004 30.500000000000004 28608.500000000004 19055.500000000004 581122418.50000012 31819.500000000004 4.5000000000000009 8.5000000000000018 4.5000000000000009 29.500000000000004 6578.5000000000009 3.5000000000000004 26120.500000000004 581122418.50000012 24.500000000000004 465210461.50000006 6684717.0000000009
decision_type=2 2 2 2 2 2 2 2 2 2 2 2 2 2 2 2 2 2 2 2 2 2 2 2 2 2 2 2 2
left_child=9 2 3 4 20 7 -7 -6 -9 -1 11 12 15 14 -13 16 -11 -3 -19 -20 21 28 -23 -24 -25 26 27 -12 -2
right_child=1 17 -4 -5 5 6 -8 8 -10 10 25 13 -14 -15 -16 -17 -18 18 19 -21 -22 22 23 24 -26 -27 -28 -29 -30
leaf_value=-0.0050440005012579153 -0.010000399743859601 -0.010437869975318851 -296.33051177595593 -48.883279435202724 -0.16529001986537931 -0.011406035386862213 -1.9691404577302771 6.2665112989489069 -0.010000458925847491 -0.010000382274827406 -0.010001302421133935 -0.010000382274837826 -261.89723032563847 -0.018295810804979291 -28.083821897729596 -0.010000382274839372 9.3486485049486685 -0.026378936278400648 -19.239745437584372 -4.3837679170075319 -0.018826570544246964 8.7001803902072172 -0.010000269369564212 9.1276153757284888 -0.010000224743736378 -0.009201426735416865 -0.010001315903734589 5.0448771439574349 0.4464385492467185
leaf_count=4235867 4502 1064 109 140 1677 54 22 41 272 27 45 138 62 34 35 266 28 72 25 34 3264 45 1021 51 169 340 160 21 638
internal_value=0 -5.15244 -9.85483 -7.56019 -7.20752 -14.9118 -2.48552 -16.3416 73.6537 -0.836973 -2.78958 -12.0907 -1958.7 -2.89482 -474.564 80.633 475.44 -2.18821 -4.34468 -616.608 -1.56032 15.5415 165.336 90.9475 367.857 -0.846316 41.3445 141.086 4.90533
internal_count=4250223 13200 12005 11896 11756 2066 76 1990 313 4237023 1156 590 383 207 173 321 55 1195 131 59 9690 6426 1286 1241 220 566 226 66 5140
shrinkage=0.01


Tree=4
num_leaves=30
num_cat=0
split_feature=4 2 0 0 2 2 4 2 2 3 2 2 4 3 4 0 2 2 4 4 0 4 2 0 3 3 4 0 0
split_gain=287.218 559.558 725.469 410.364 322.8 140.891 93.4693 18.3909 13.3204 10.4734 235.727 8.05172 7.85286 318.651 2471.82 882.689 49.1847 1860.25 12.8653 63.0077 10.5795 95.7447 413.764 16.1213 7.74849 7.91678 890.923 37.9621 600.948
threshold=1.5000000000000002 31819.500000000004 278529098.00000006 28443009.000000004 33051.500000000007 33888.500000000007 7.5000000000000009 33608.500000000007 43908.500000000007 20.500000000000004 19775.500000000004 32785.500000000007 23.500000000000004 22.500000000000004 8.5000000000000018 31359461.000000004 23087.500000000004 26120.500000000004 13.500000000000002 14.500000000000002 2293761.0000000005 184.50000000000003 4989.5000000000009 262144.50000000006 26.500000000000004 25.500000000000004 1.0000000180025095e-35 131081.50000000003 196608.50000000003
decision_type=2 2 2 2 2 2 2 2 2 2 2 2 2 2 2 2 2 2 2 2 2 2 2 2 2 2 2 2 2
left_child=8 9 3 5 -4 6 11 -5 -1 10 -2 -3 13 14 15 -11 20 -18 -15 -20 21 23 -23 -14 25 -10 27 -27 -29
right_child=1 2 4 7 -6 -7 -8 -9 24 12 -12 -13 16 18 -16 -17 17 -19 19 -21 -22 22 -24 -25 -26 26 -28 28 -30
leaf_value=-0.0067923874093098555 -0.010164608360010166 -0.15843908670738135 -0.56826660195581835 -0.044559370503347059 -4.3121315416252903 0.0011401697634827702 -0.024683029988613367 -0.014412213961525262 0.0097228952546801715 -0.01000024842336397 -1.2434521055126959 -0.13588442499301331 -0.0052319278481841799 -0.01076906828304698 -8.9678657408007165 9.9178451411588409 9.5263076172254202 0.04831693864778866 -0.21908811800854952 -0.020610859077294593 -0.012491725413396973 -0.010174234627483663 1.7210384677494699 0.1656589049569514 -0.0033083802947997099 0.019164388612946479 8.9977329858186099 6.4478776642857145 -0.010000368295184086
leaf_count=3990960 76 253 33 37 20 1750 31 41 119990 580 121 198 652 7711 28 27 122 45 50 619 607 29 136 34 94138 31000 26 70 839
internal_value=0 -3.32239 -7.84615 -7.09511 -60.1549 -11.9146 -13.221 -2.41799 -0.586521 -1.14783 -6.46346 -14.2958 -1.09654 -1.33813 -161.449 109.096 -0.242234 16.7826 -1.27103 -3.50639 -0.586662 1.35567 34.1828 -0.0391609 0.631759 1.59693 4.64034 3.23688 43.8399
internal_count=4250223 13200 2363 2310 53 2232 482 78 4237023 10837 197 451 10640 9015 635 607 1625 167 8380 669 1458 851 165 686 246063 151925 31935 31909 909
shrinkage=0.01


Tree=5
num_leaves=30
num_cat=0
split_feature=4 2 0 4 0 1 1 0 1 2 2 0 1 2 2 2 2 1 0 0 2 1 2 4 2 1 0 1 2
split_gain=237.054 597.963 463.24 9574.65 404.854 199.561 182.525 399.74 7976.44 1369.12 2782.4 845.903 396.137 137.78 93.9054 57.5628 830.464 44.5869 33.1079 807.349 18.4203 13.5655 301.961 480.159 170.179 585.885 72.3975 210.388 472.625
threshold=1.5000000000000002 31819.500000000004 278529098.00000006 8.5000000000000018 28443009.000000004 351.00000000000006 551.50000000000011 56825453.500000007 1829.0000000000002 45218.500000000007 45941.500000000007 23724325.500000004 717.50000000000011 35288.500000000007 33888.500000000007 42364.500000000007 42624.500000000007 85.500000000000014 917519.50000000012 1310720.5000000002 33608.500000000007 15.500000000000002 3022.5000000000005 1.0000000180025095e-35 48973.500000000007 189.50000000000003 1.0000000180025095e-35 16.500000000000004 30832.500000000004
decision_type=2 2 2 2 2 2 2 2 2 2 2 2 2 2 2 2 2 2 2 2 2 2 2 2 2 2 2 2 2
left_child=6 -2 4 -4 5 14 21 8 9 11 12 15 -11 -7 17 18 -17 -3 -8 -20 -6 -1 23 -23 26 -26 27 28 -24
right_child=1 2 3 -5 20 13 7 -9 -10 10 -12 -13 -14 -15 -16 16 -18 -19 19 -21 -22 22 24 -25 25 -27 -28 -29 -30
leaf_value=-0.0083355427312837398 -0.012712661406191142 -0.12274629243645739 -0.16322175956631299 -9.2383188043020805 -0.042892380627923637 -1.0532975656288204 0.063070739377564577 0.039739981077543479 27.538230869791313 9.9388887055953816 -0.010000230717566134 8.8593395388572684 18.681499550520044 -0.010034974669775962 0.0045285535297965229 9.1500790264568916 -0.010000314317432701 -0.024615600985353831 8.5774008734930796 -0.010000226721879359 -0.012748772331843239 7.8371076757720486 -0.010000219388414914 -0.010000283320209021 -0.010000222525320481 7.5746587819511415 -0.01124873144840299 0.049580705450486366 6.9422094142810504
leaf_count=4181205 10741 433 31 26 37 28 5980 114 49 44 164 51 43 26 1681 42 390 37 53 819 44 58 139 71 201 59 9057 38535 65
internal_value=0 -2.80717 -7.54039 -36.7831 -6.75429 -11.2533 -0.61029 12.0064 55.8157 39.0186 517.217 22.6505 1444.68 -70.3552 -10.9124 16.8569 84.5438 -11.7513 11.7949 50.3907 -2.1687 -0.728945 0.344651 303.552 0.251789 171.581 0.159141 5.42111 221.596
internal_count=4250223 13084 2343 57 2286 2205 4237139 7749 7635 7586 251 7335 87 54 2151 7284 432 470 6852 872 81 4229390 48185 129 48056 260 47796 38739 204
shrinkage=0.01


Tree=6
num_leaves=30
num_cat=0
split_feature=1 1 1 0 1 4 1 1 4 0 4 0 1 1 0 3 1 1 3 1 3 1 4 1 3 0 3 1 3
split_gain=1050.09 3230.89 1.20769e+06 1656.72 32961.9 167.121 148.992 29276.1 124.92 226.619 161.19 112.346 1868.08 2310.9 660.283 493.475 1092.12 91.057 17047 6378.71 446.461 446.096 86.0402 10780.2 683.796 105.604 40.478 34.9842 25.904
threshold=1583.5000000000002 1859.0000000000002 1829.0000000000002 131072.50000000003 1642.5000000000002 1.5000000000000002 717.50000000000011 720.00000000000011 23.500000000000004 589838.50000000012 7.5000000000000009 1.5000000000000002 1314.0000000000002 1393.0000000000002 1.0000000180025095e-35 29.500000000000004 808.50000000000011 766.50000000000011 28.500000000000004 1060.5000000000002 27.500000000000004 868.50000000000011 13.500000000000002 629.00000000000011 30.500000000000004 65536.500000000015 25.500000000000004 634.00000000000011 23.500000000000004
decision_type=2 2 2 2 2 2 2 2 2 2 2 2 2 2 2 2 2 2 2 2 2 2 2 2 2 2 2 2 2
left_child=5 2 3 4 -2 6 -1 -8 9 10 28 12 14 -14 15 17 -17 -9 20 -20 -19 -22 27 24 25 -24 -3 -12 -7
right_child=1 26 -4 -5 -6 8 7 11 -10 -11 22 -13 13 -15 -16 16 -18 18 19 -21 21 -23 23 -25 -26 -27 -28 -29 -30
leaf_value=-0.0079860060561099781 -26.883943547321632 -0.060706448414439916 -302.95123289303996 -0.028574376317667582 -0.010150126669780653 -0.11358227345917557 -24.509390977861326 -0.014592383010579611 -0.010228823857893293 -0.022704563573242371 -0.020959568345987497 -0.0089324614104419869 -14.139225328526408 -0.010000236299535179 -6.7759837452274772 -8.0805224824948692 -0.010000240463590066 0.0104262829664528 -29.49025830518168 -0.010000233961410056 -8.9295710101931416 -0.010000233961411092 -0.053596626085878354 -27.146026266542666 -6.9851264094816203 -1.1810508579043508 0.025558286736476921 0.14606216575961228 -0.080133198263030628
leaf_count=4233863 29 40 85 69 204 1169 26 980 1668 3398 686 470 50 108 53 48 217 871 21 43 20 48 185 95 22 24 20 47 5664
internal_value=0 -20.0561 -81.4783 -21.9913 -151.105 -1.58786 -0.974999 -6.47733 -2.75142 -3.64526 -6.73823 -3.96564 -11.6421 -643.094 -9.46928 -8.74095 -261.717 -7.30177 -18.8657 -2151.21 -1.19336 -446.237 -3.03164 -12.7838 -7.79009 -6.54878 -3.19534 -1.74168 -9.38999
internal_count=4250223 447 387 302 233 4249776 4236818 2955 12958 11290 7892 2929 2459 158 2301 2248 265 1983 1003 64 939 68 1059 326 231 209 60 733 6833
shrinkage=0.01


Tree=7
num_leaves=30
num_cat=0
split_feature=4 2 2 0 4 0 2 4 0 3 0 4 2 2 3 0 2 2 0 2 4 2 2 4 3 3 2 2 0
split_gain=179.185 513.263 347.553 276.2 23954.6 89.9077 109.201 33.3514 28.8246 19.5397 75.5428 18.9959 11.6749 6.3961 694.253 6.06013 43.5032 4.92659 4.76883 4.23624 22.3092 964.116 4.03435 48.45 125.363 311.571 1152.54 2149.4 6.41238
threshold=1.5000000000000002 31819.500000000004 33888.500000000007 278529098.00000006 8.5000000000000018 28443009.000000004 31967.500000000004 7.5000000000000009 131072.50000000003 34.500000000000007 1.0000000180025095e-35 9.5000000000000018 32516.500000000004 48395.500000000007 24.500000000000004 1.0000000180025095e-35 32516.500000000004 32785.500000000007 3277039.5000000005 17096.500000000004 1378.0000000000002 15602.500000000002 18904.500000000004 1.0000000180025095e-35 24.500000000000004 23.500000000000004 15739.500000000002 16933.500000000004 31359461.000000004
decision_type=2 2 2 2 2 2 2 2 2 2 2 2 2 2 2 2 2 2 2 2 2 2 2 2 2 2 2 2 2
left_child=22 9 3 5 -5 6 -3 13 -9 19 -11 15 -7 -4 -15 17 -17 -8 -18 20 -2 -22 23 28 25 -25 -27 -28 -1
right_child=1 2 7 4 -6 12 11 8 -10 10 -12 -13 -14 14 -16 16 18 -19 -20 -21 21 -23 -24 24 -26 26 27 -29 -30
leaf_value=-0.0087778153017375859 -0.0073150156546029034 0.89038660102880474 -0.010784136112475621 -0.12354698543911133 -22.215303228503213 -0.021897526711665193 -0.11228541974773276 -0.010037222001445571 0.6087627153369225 0.93743704989188825 -0.010102688851256227 -0.042159076989950091 -0.060446348072348749 -0.012401115387065835 -7.0227218514030749 -0.65507691506868182 -0.1378551494157868 -0.095449440624599036 -0.10591670209713808 -0.012793553221282861 9.8120517151858753 0.049970954146569081 -0.0073617614575212029 -0.010000279628888529 -0.010000282057530922 -0.010000278572674985 -18.948467699712872 -0.010000277014976468 -0.020373105739425527
leaf_count=1165698 3308 51 1612 28 25 20 167 43 22 30 74 25 20 46 29 30 20 149 56 7093 192 44 3068010 527 2092 208 40 50 514
internal_value=0 -2.64509 -6.81899 -9.60399 -30.6713 -8.70867 -10.0698 -1.08164 32.0507 -1.16553 18.201 -10.171 -4.00618 -1.22326 -7.46235 -10.4641 -11.9264 -10.0645 -11.5617 -1.18197 -0.472453 11.1663 -0.824278 -1.12058 -25.4095 -88.0912 -243.877 -820.148 -1.06426
internal_count=4250223 13084 2343 591 53 538 498 1752 65 10741 104 447 40 1687 75 422 106 316 76 10637 3544 236 4237139 1169129 2917 825 298 90 1166212
shrinkage=0.01


Tree=8
num_leaves=30
num_cat=0
split_feature=4 2 2 4 1 3 2 3 3 3 4 1 2 3 1 2 4 1 2 1 4 2 3 2 2 2 2 2 3
split_gain=137.806 396.546 264.145 23.2265 18.8765 15.2417 949.917 10.7223 40.6577 908.017 18.5458 4.8649 83.8038 24.337 9.80884 4.84091 4.57689 4.02341 3.10425 6.85578 71.9817 888.489 129.392 235.751 70.5305 690.316 53.849 726.823 35.1323
threshold=1.5000000000000002 31967.500000000004 33888.500000000007 7.5000000000000009 351.00000000000006 34.500000000000007 11307.500000000002 29.500000000000004 24.500000000000004 23.500000000000004 8.5000000000000018 1583.5000000000002 15602.500000000002 25.500000000000004 1642.5000000000002 32378.500000000004 5.5000000000000009 3.5000000000000004 41198.500000000007 1.0000000180025095e-35 1.0000000180025095e-35 40524.500000000007 30.500000000000004 22531.500000000004 32378.500000000004 32658.500000000004 35570.500000000007 35857.500000000007 27.500000000000004
decision_type=2 2 2 2 2 2 2 2 2 2 2 2 2 2 2 2 2 2 2 2 2 2 2 2 2 2 2 2 2
left_child=11 5 4 -4 7 -2 -7 8 9 -3 15 18 -13 14 -14 -9 -10 -17 19 20 -1 22 24 -24 28 -26 -27 -28 -22
right_child=1 2 3 -5 -6 6 -8 10 16 -11 -12 12 13 -15 -16 17 -18 -19 -20 -21 21 -23 23 -25 25 26 27 -29 -30
leaf_value=-0.0085836000529209092 -0.012049811609687829 -0.082523813923717035 -0.011648040870988434 0.22044185150323706 -0.1422448103223363 -0.010164775296173798 9.6376108667779938 -0.065557290272509158 -0.01711963575731135 -9.2439262131811137 -0.35041383881953325 -0.22136320936624607 -0.10039747604884854 0.12567041740918541 -0.0011597081955234951 -0.092429381308009623 -0.064779671238881883 -0.1314484789643143 -0.010334031489301955 -0.0019213549152536896 -0.010000274856399417 9.2766352123099658 -0.010000274536201781 -3.1908872393565031 7.9253362440986415 -0.01000057107120746 8.1622389280566008 -0.010000489808889528 0.46345999913913233
leaf_count=3714754 10699 98 1687 65 28 22 82 43 210 29 28 20 29 46 226 49 20 24 430890 87230 2218 22 333 20 26 323 25 201 776
internal_value=0 -2.3475 -6.00447 -1.02563 -8.35964 -1.19076 13.8599 -8.14917 -7.49321 -8.37841 -9.2564 -0.809159 -2.71638 0.538295 -1.24339 -9.12545 -2.53877 -9.47019 -0.792566 -0.707989 -0.825821 23.2674 15.3342 -82.112 26.1508 68.8846 35.5518 89.4008 11.2137
internal_count=4250223 13084 2281 1752 529 10803 104 501 357 127 144 4237139 321 301 255 116 230 73 4236818 3805928 3718698 3944 3922 353 3569 575 549 226 2994
shrinkage=0.01



feature importances:
smart_9_raw=78
smart_197_raw=60
smart_194_raw=45
smart_1_raw=44
smart_5_raw=34

pandas_categorical:[]
