tree
version=v2
num_class=1
num_tree_per_iteration=1
label_index=0
max_feature_idx=4
objective=binary sigmoid:1
feature_names=smart_1_raw smart_5_raw smart_9_raw smart_194_raw smart_197_raw
feature_infos=[0:536811539] [0:1098] [10:48303] [14:42] [0:704]
tree_sizes=2338

Tree=0
num_leaves=30
num_cat=0
split_feature=4 0 2 2 2 0 2 2 4 0 0 2 2 0 0 2 3 2 0 3 0 0 0 0 2 2 2 3 2
split_gain=14599 8849.69 7089.92 13052 2803.32 1646.27 2182.44 5035.86 473.38 190.826 3640.13 2193.82 3157.22 182.141 232.447 704.685 193.174 965.647 1159.92 44.0927 116.971 703.875 50.914 745.266 253.384 633.016 42.0806 522.455 512.812
threshold=28.000000000000004 32914.500000000007 22154.500000000004 9038.5000000000018 14276.500000000002 50758294.500000007 21223.500000000004 23734.000000000004 1.0000000180025095e-35 174.00000000000003 131079.50000000003 25946.500000000004 18362.500000000004 65538.500000000015 65539.500000000015 19796.500000000004 21.500000000000004 37622.500000000007 458754.50000000006 26.500000000000004 14221457.500000002 16121944.000000002 196617.00000000003 196613.50000000003 40255.500000000007 41179.500000000007 13484.000000000002 25.500000000000004 8566.5000000000018
decision_type=2 2 2 2 2 2 2 2 2 2 2 2 2 2 2 2 2 2 2 2 2 2 2 2 2 2 2 2 2
left_child=5 4 3 -3 -2 8 -7 -8 13 26 11 12 -11 -1 15 -15 17 -16 -19 20 22 -22 23 24 -18 -26 27 -10 -29
right_child=1 2 -4 -5 -6 6 7 -9 9 10 -12 -13 -14 14 16 -17 19 18 -20 -21 21 -23 -24 -25 25 -27 -28 28 -30
leaf_value=-10.830216350505449 -10.834893095118991 -0.98030796479108595 -3.5510693031356224 47.799888430340658 7.4408829647631514 -10.834893095118991 18.728862295864701 -10.834893095118982 -10.834893095118991 -4.1337752064938984 -10.583601174295387 -10.834893095118982 18.728862295864701 -0.98030796478138349 -10.834893095118989 -10.834893095118986 -10.834893095118989 -10.834893095118984 1.1313888488552344 -10.834893095118991 -2.1696544460365192 -10.834893095118987 -10.735509302030753 -2.5958137238598962 -1.6970050651779065 -10.834893095118986 -10.659164479158427 -1.1698192172971993 -8.8868937088898416
leaf_count=2794076 181 51 69 60 55 156 51 67 1285 75 2000 66 51 51 588 128 1656 79 84 4805 58 251 5057 61 55 124 2860 52 258
internal_value=0 1327.95 2511.92 3621.23 424.918 -0.214173 549.274 1276.76 -0.267682 59.4885 113.64 1046.05 1594.5 -0.409181 26.0684 279.773 22.5255 132.844 615.667 15.6598 26.6829 161.648 20.6849 52.0152 26.3887 279.773 32.844 62.0199 323.248
internal_count=2814410 416 180 111 236 2813994 274 118 2813720 6647 2192 192 126 2807073 12997 179 12818 751 163 12067 7262 309 6953 1896 1835 179 4455 1595 310
shrinkage=1



feature importances:
smart_9_raw=13
smart_1_raw=11
smart_194_raw=3
smart_197_raw=2

pandas_categorical:[]
