tree
version=v2
num_class=1
num_tree_per_iteration=1
label_index=0
max_feature_idx=21
objective=binary sigmoid:1
feature_names=smart_1_raw smart_3_raw smart_4_raw smart_5_raw smart_7_raw smart_9_raw smart_10_raw smart_12_raw smart_187_raw smart_188_raw smart_190_raw smart_192_raw smart_193_raw smart_194_raw smart_195_raw smart_197_raw smart_198_raw smart_199_raw smart_200_raw smart_240_raw smart_241_raw smart_242_raw
feature_infos=[696:244138568] none [1:428] [0:11776] [86168:743810199598] [3:9493] none [1:517] [0:118] [0:227637067834] [15:48] [0:109] [3:4302] [15:48] [696:244138568] [0:832] [0:832] [0:170] none [0:7079] [185523760:99210035608] [130770:94041422178]
tree_sizes=2370 2387 2442 2474 2432 2436

Tree=0
num_leaves=30
num_cat=0
split_feature=15 4 3 15 10 12 5 3 4 11 0 0 0 0 3 3 8 4 15 11 0 0 9 0 19 4 0 10 0
split_gain=16432.7 53107.7 7904.3 3207.3 5934.35 3736.51 4262.59 1886.89 6949.04 1611.52 2020.38 941.458 778.518 518.347 142.081 2376.1 146.143 835.028 45.7865 281.388 1405.68 2081.61 14.3263 863.563 6.01784 420.345 559.442 31.155 252.179
threshold=104.00000000000001 276886435.50000006 2224.0000000000005 20.000000000000004 24.500000000000004 1250.5000000000002 3317.5000000000005 99.000000000000014 336950513.00000006 1.5000000000000002 131351876.00000001 232260848.00000003 49983632.000000007 119740848.00000001 1.0000000180025095e-35 5.0000000000000009 5.5000000000000009 308513888.00000006 1.0000000180025095e-35 3.5000000000000004 45915556.000000007 25820932.000000004 19327680528.000004 238039380.00000003 484.50000000000006 4700953779.500001 127344408.00000001 42.500000000000007 30729392.000000004
decision_type=2 2 2 2 2 2 2 2 2 2 2 2 2 2 2 2 2 2 2 2 2 2 2 2 2 2 2 2 2
left_child=2 -2 3 7 -5 9 -7 14 -9 10 -6 -11 -3 -8 16 -16 18 -18 22 20 21 -20 24 -24 25 27 -27 -1 -29
right_child=1 12 -4 4 5 6 13 8 -10 11 -12 -13 -14 -15 15 -17 17 -19 19 -21 -22 -23 23 -25 -26 26 -28 28 -30
leaf_value=-10.416102378166496 66.633478542132849 -0.60471620136459059 15.936436378947189 14.618313282704364 -10.426025545909344 19.037902487724939 -10.426025545909344 19.03790248775384 -10.426025545909349 -10.426025545909352 9.2165931431801589 -0.60471620136458171 -10.426025545909349 -0.60471620136459059 2.174899650877423 -10.426025545909352 -0.60471620135495385 -10.426025545909351 -10.426025545909352 -10.426025545909352 -10.426025545909351 8.6553754663495681 -10.426025545909352 -1.6385382376315452 -10.422882871523198 -0.60471620137207083 -10.426025545909345 -7.5719698389462682 -10.426025545909352
leaf_count=269208 39 34 38 40 36 34 38 34 125 787 34 34 130 34 53 874 34 193 42 2400 329 35 2161 38 1912588 34 45 117 888
internal_value=0 1643.95 -0.23774 -0.283465 321.01 233.45 1259.09 -0.435659 629.046 111.432 953.07 39.6729 202.612 462.784 -0.481381 71.0441 -0.511683 146.103 -0.526894 22.8007 163.495 866.336 -0.556851 14.1853 -0.571702 0.235391 421.689 0.112174 32.2263
internal_count=2190476 203 2190273 2190235 1037 997 106 2189198 159 891 70 821 164 72 2189039 927 2188112 227 2187885 2806 406 77 2185079 2199 2182880 270292 79 270213 1005
shrinkage=1


Tree=1
num_leaves=30
num_cat=0
split_feature=15 4 15 12 8 15 12 21 0 0 15 5 0 19 5 19 0 0 12 5 8 4 0 10 12 12 8 19 19
split_gain=544.939 455970 614455 83689.1 58061.3 26938.4 17244.4 46651.8 16884.7 10572.9 7794.9 15781.2 21353.2 5694.73 17454.4 3380.75 9720.01 10145.4 989.737 819.064 632.921 369.186 42070.1 12641.7 3710.48 319.532 77041.3 186.627 186.542
threshold=1.0000000180025095e-35 52389029.500000007 20.000000000000004 92.500000000000014 8.0000000000000018 28.000000000000004 3185.5000000000005 12321285423.000002 66074230.500000007 86553440.000000015 12.000000000000002 1158.5000000000002 45915556.000000007 5214.5000000000009 5535.5000000000009 2259.5000000000005 45915556.000000007 27831752.000000004 104.50000000000001 2333.5000000000005 1.5000000000000002 194252703.00000003 42893456.000000007 27.500000000000004 1109.5000000000002 283.50000000000006 3.5000000000000004 1329.5000000000002 4662.5000000000009
decision_type=2 2 2 2 2 2 2 2 2 2 2 2 2 2 2 2 2 2 2 2 2 2 2 2 2 2 2 2 2
left_child=4 2 8 5 20 9 10 -8 -2 -3 11 12 -5 15 -15 16 17 -13 -12 -18 28 22 -20 -24 25 26 -25 -27 -1
right_child=1 3 -4 6 -6 -7 7 -9 -10 -11 18 13 -14 14 -16 -17 19 -19 21 -21 -22 -23 23 24 -26 27 -28 -29 -30
leaf_value=-0.013402924048402825 -43.626801623698633 -41.095832918223039 -251.7547134647146 -42.36423786505209 -64.54006210810158 -74.416554531447204 -79.957573662372923 -0.010000296938596141 -0.010000296938594814 -0.01000029693859073 -9.9637454048070122 -0.010000296938592957 -0.010000296938595681 -49.580564803412052 -0.010000296938595681 -0.0099214503212615799 -0.010000296938598819 -34.661481907546026 -52.869723046868614 -9.1246886726847709 -6.3554760695837968 -0.027154992331279163 -31.829967363929033 -0.015436193023396024 -18.74742212231423 -0.015456225242322296 -77.510463125802943 -0.32031934482825863 -0.06619274074718963
leaf_count=2045052 20 20 72 26 57 26 32 91 67 37 29 49 81 39 81 1485 328 34 60 38 55 1600 47 39 40 68 20 47 140836
internal_value=0 -6.83103 -9317.4 -5.26159 -1.92844 -4414.73 -4.65325 -2163.78 -1949.74 -2346.81 -4.39723 -346.043 -2100.29 -211.047 -1467.18 -137.781 -560.498 -2016.31 -3.66574 -93.4046 -1.81992 -3.63371 -16.5523 -12.6874 -10.7553 -9.79023 -44.849 -5.36913 -1.80787
internal_count=2190476 4476 159 4317 2186000 83 4234 123 87 57 4111 2161 107 2054 120 1934 449 83 1950 366 2185943 1921 321 261 214 174 59 115 2185888
shrinkage=0.01


Tree=2
num_leaves=30
num_cat=0
split_feature=3 2 11 3 3 8 12 12 15 10 12 11 20 12 4 10 20 4 5 12 19 8 15 20 5 5 4 4 19
split_gain=597161 559663 22834.1 3177.35 141.397 303.759 85307.2 1000.98 105.443 1005.08 2380.97 62.3011 57.9136 379.563 6.09073 5.09921 25.18 294.746 5.05735 959.006 4.29132 3.95678 3.79092 970.844 3.24393 6.21657 2.93435 2.83873 170.606
threshold=115.50000000000001 2.5000000000000004 29.500000000000004 95.500000000000014 1.0000000180025095e-35 1.0000000180025095e-35 2666.5000000000005 211.50000000000003 20.000000000000004 26.500000000000004 303.50000000000006 2.5000000000000004 8110404960.000001 719.50000000000011 95981092.000000015 42.500000000000007 2408642576.0000005 22918084.000000004 2270.5000000000005 303.50000000000006 4662.5000000000009 1.0000000180025095e-35 1.0000000180025095e-35 10553120156.000002 559.50000000000011 631.50000000000011 245432868.50000003 93991184.000000015 604.50000000000011
decision_type=2 2 2 2 2 2 2 2 2 2 2 2 2 2 2 2 2 2 2 2 2 2 2 2 2 2 2 2 2
left_child=3 -2 -3 4 8 6 7 -6 14 10 -10 -11 13 -13 15 27 17 -17 19 26 -20 22 24 -24 -16 -26 -7 -1 -29
right_child=1 2 -4 -5 5 18 -8 -9 9 11 -12 12 -14 -15 21 16 -18 -19 20 -21 -22 -23 23 -25 25 -27 -28 28 -30
leaf_value=-0.0031193662119096384 -258.75165478552253 -59.005979619890041 -0.009059821849514994 -15.908913765181635 9.8411702981683966 -0.015310194448365944 -85.492917119139818 -0.090004319207819719 -1.2470289605832761 0.14002725418851072 0.0067210399942308451 -0.45484934569723101 -0.014473404710166178 -0.00068931356938584229 -0.015379780742058733 -0.010003789595588404 -0.01000171265446438 3.2546341802926602 -0.015311352337954904 9.6134423703600778 0.028693030454784153 -0.015300663589418201 9.7400525002996385 -0.012063107955504861 0.058947325608952508 -0.0074723743373970829 0.028717604667599254 1.7374797896896683 -0.010000293789755374
leaf_count=506111 110 20 50 46 40 22 50 690 68 74 29 36 693 38 361 303 2984 23 304 49 25 1415 45 1878 216 1666547 20 196 8033
internal_value=0 -11712.3 -2637.62 -1.61604 -1.5985 -4.48167 -10.7806 -8.80059 -1.1682 -3.67514 -41.1618 -1.80672 -2.09502 -8.75604 -0.744087 -0.210865 5.53677 30.7169 -1.22349 1.40287 -1.42089 -0.878752 -0.789042 3.36634 -0.80437 -0.729805 -0.0621237 -0.26274 3.14159
internal_count=2190476 180 70 2190296 2190250 1200 780 730 2189050 938 97 841 767 74 2188112 517650 3310 326 420 91 329 1670462 1669047 1923 1667124 1666763 42 514340 8229
shrinkage=0.01


Tree=3
num_leaves=30
num_cat=0
split_feature=3 20 10 15 5 19 9 3 15 0 21 19 3 4 2 4 3 8 4 19 20 19 0 0 5 0 15 21 19
split_gain=17177.5 105.582 127.876 379399 108.667 847.833 90.7215 43.4526 30.7396 12483.1 104.261 26.0766 25.0524 18.0031 18.5267 14.7838 9.76708 925.956 42.9536 8.57914 6.56498 63.3488 119.133 672.411 252.984 655.382 5.60573 5.80098 67.6837
threshold=115.50000000000001 31734477276.000004 24.500000000000004 12.000000000000002 2571.5000000000005 2450.5000000000005 2147876870.0000005 1.0000000180025095e-35 104.00000000000001 103896176.00000001 9202145596.0000019 3015.5000000000005 95.500000000000014 4700953779.500001 4.5000000000000009 95981092.000000015 1.0000000180025095e-35 8.0000000000000018 194252703.00000003 4611.5000000000009 8831204768.0000019 623.50000000000011 151689856.00000003 157798652.00000003 681.50000000000011 184191969.00000003 60.000000000000007 9946560055.0000019 725.50000000000011
decision_type=2 2 2 2 2 2 2 2 2 2 2 2 2 2 2 2 2 2 2 2 2 2 2 2 2 2 2 2 2
left_child=1 8 3 11 5 -4 13 -8 12 10 -10 -3 15 -6 19 20 17 26 -18 -15 -1 22 -22 -24 -25 -26 27 -17 -29
right_child=-2 2 4 -5 6 -7 7 -9 9 -11 -12 -13 -14 14 -16 16 18 -19 -20 -21 21 -23 23 24 25 -27 -28 28 -30
leaf_value=-0.002604979871945507 34.334119708571954 -0.085119138871326591 -0.010000291535586197 -146.01879651877158 -0.010854846870729693 9.5265066680682153 -0.01181983461302703 -0.085275609131047661 -0.23679570614370535 -31.264786601701847 -0.015238708464528792 -0.0093765850127403693 -0.15280563558370824 -0.08589700282728599 -0.015187730859669457 -0.013050065186745509 -0.089346903549768431 9.2503820693011569 -0.014500871586181905 0.010201007467870241 -0.010000503639320564 -0.010000292112336542 8.1234492594727303 -0.010000419483009433 9.5835503364724843 -0.010000291998389074 -0.059290919016259734 0.67253302072901788 -0.0072743373057810737
leaf_count=502895 180 969 288 89 259497 36 963 46 21 62 38 114960 26 1256 570 226520 22 63 592 189 1051 12631 43 516 31 77 47 504 1066294
internal_value=0 -1.51136 -3.32976 -8.5959 -2.39223 104.817 -2.43833 -6.62276 -1.08801 -3.86912 -2.82731 -1.95398 -0.988664 -1.45182 -4.21517 -0.972345 -1.14443 -0.951563 -1.71787 -7.51586 -0.171629 3.72062 35.395 94.9614 49.9886 302.973 -0.966694 -0.949601 -0.701764
internal_count=2190476 2190296 378863 116018 262845 324 262521 1009 1811433 121 59 115929 1811312 261512 2015 1811286 1294042 1293428 614 1445 517244 14349 1718 667 624 108 1293365 1293318 1066798
shrinkage=0.01


Tree=4
num_leaves=30
num_cat=0
split_feature=3 12 3 3 20 15 4 12 11 4 0 9 11 20 0 19 11 20 10 12 12 10 0 11 0 0 20 19 4
split_gain=78934.7 525428 61.4987 188.053 26.5414 22.5598 71.8895 1164.76 14.6126 6.77412 5.78586 51.0767 824.399 31.4626 807.921 45.8997 251.913 669.288 6.09619 52.3938 582.333 5.9784 15.4767 28.8375 14.8781 6.17399 82.0559 624.919 4.63139
threshold=115.50000000000001 344.50000000000006 1.0000000180025095e-35 5.0000000000000009 16648212556.000002 60.000000000000007 133039186.50000001 719.50000000000011 35.500000000000007 60886262.000000007 99826236.000000015 2.5000000000000004 26.500000000000004 5833345508.000001 98821172.000000015 408.50000000000006 3.5000000000000004 11437933736.000002 20.500000000000004 110.50000000000001 104.50000000000001 42.500000000000007 29796832.000000004 1.5000000000000002 40903700.000000007 94730828.000000015 1242972156.0000002 698.50000000000011 54585550.500000007
decision_type=2 2 2 2 2 2 2 2 2 2 2 2 2 2 2 2 2 2 2 2 2 2 2 2 2 2 2 2 2
left_child=2 -2 5 -4 -5 9 7 -7 -6 10 11 13 -13 18 15 16 -15 -18 19 20 -1 25 -23 24 -24 28 27 -27 -20
right_child=1 -3 3 4 8 6 -8 -9 -10 -11 -12 12 -14 14 -16 -17 17 -19 21 -21 -22 22 23 -25 -26 26 -28 -29 -30
leaf_value=-0.010000293461843937 0.94178326543532009 -131.3602561340436 -0.077410209143728481 0.22362712932300963 -0.014118238709239521 -1.0736305895131872 -0.01509384361208102 0.0097415590740499731 -0.18009584327732711 -0.0097851075652268145 -0.0063319417135135172 -0.010000292372331758 8.7775558985181394 -0.0100007675610665 8.3418051369047923 -0.010000291551046925 9.7532152425823835 -0.010000289827719975 -0.010000292992125076 -0.010000292684323887 6.4158976735515481 -0.010057067164389883 0.65505482468717036 -0.01006948146611935 -0.010000289040602867 -0.010000293103944378 -0.010000292903443156 7.1298891128442961 0.039274698869687256
leaf_count=513 21 159 53 20 901 22 260 25 272 1809491 249830 590 39 459 41 3097 35 77 108298 3776 53 173 21 298 150 335 4482 48 6937
internal_value=0 -1795.86 -1.31023 -2.57386 -1.40263 -1.0076 -2.49227 -10.2024 -1.44672 -0.890486 -0.250553 0.789283 53.3561 0.540882 17.2399 8.22061 54.1204 306.033 0.0569397 6.86311 59.2569 -0.179789 6.30824 21.7864 50.6248 -0.431799 6.01431 88.0703 -0.70392
internal_count=2190476 180 2190296 1246 1193 2189050 307 47 1173 2188743 379252 129422 629 128793 3709 3668 571 112 125084 4342 566 120742 642 469 171 120100 4865 383 115235
shrinkage=0.01


Tree=5
num_leaves=30
num_cat=0
split_feature=3 0 0 17 4 3 3 21 15 4 19 3 12 21 15 20 5 19 7 12 10 5 19 5 21 0 19 4 0
split_gain=813.284 455.913 234.523 229.144 770.445 52.0398 147.289 3960.15 22.0362 48.5031 443.64 19.146 17.7987 4.74483 4.2804 959.241 4.90829 7.03217 26.5288 6.99731 8.27036 105.29 699.698 27.5664 761.664 31.792 408.681 555.722 7.5157
threshold=115.50000000000001 144677196.00000003 194232388.00000003 54.500000000000007 182736444.50000003 1.0000000180025095e-35 5.0000000000000009 14265371322.000002 60.000000000000007 253940225.50000003 1054.5000000000002 99.000000000000014 1109.5000000000002 17118922636.000002 1.0000000180025095e-35 3569221344.0000005 822.50000000000011 286.50000000000006 1.5000000000000002 185.50000000000003 36.500000000000007 2840.5000000000005 2827.5000000000005 941.50000000000011 11303297783.000002 231322552.00000003 2514.5000000000005 210365364.00000003 241050560.00000003
decision_type=2 2 2 2 2 2 2 2 2 2 2 2 2 2 2 2 2 2 2 2 2 2 2 2 2 2 2 2 2
left_child=3 -2 -3 5 -5 8 -7 -8 14 10 -10 13 -11 -9 16 -16 -1 18 -18 20 28 23 -23 24 -22 -25 -27 -28 -19
right_child=1 2 -4 4 -6 6 7 11 9 12 -12 -13 -14 -15 15 -17 17 19 -20 -21 21 22 -24 25 -26 26 27 -29 -30
leaf_value=-0.011075204024970633 3.3670430961691244 0.36514661283199984 2.2413319149174558 9.9806909185748811 -0.010000285921654762 -0.071908932798897929 19.781187240254152 -0.061943867932483417 0.030447148570991418 -0.013967079966673639 -0.38431197886856749 -0.13142445002102529 -0.10384848809990933 -0.014131634770882329 9.5766043673714609 -0.013091617860333674 0.31603307862439639 -0.0026051243233772459 0.012061835220708566 -0.008197578225983335 -0.010000286263141138 8.1135923186929357 -0.010000286468843114 -0.010041436966221088 7.9268387774418851 -0.010000287130227143 9.9677402510219082 -0.010000286488331702 0.08023268456771955
leaf_count=355088 118 33 32 30 118 47 52 21 34 244 20 20 25 1098 76 3535 31 307043 15214 1482729 1047 43 267 18555 44 965 35 44 3868
internal_value=0 134.076 83.4193 -1.25658 227.625 -1.26216 -2.44327 -1.43877 -1.01668 -2.37698 -8.07907 -1.51725 -1.60547 -1.45264 -0.907673 -1.27104 -0.82205 -0.667629 3.13164 -0.693245 0.0773675 3.47149 111.662 2.01974 31.0196 0.582715 32.3708 441.052 -0.163376
internal_count=2190476 183 65 2190293 148 2190145 1238 1191 2188907 323 54 1139 269 1119 2188584 3611 2184973 1829885 15245 1814640 331911 21000 310 20690 1091 19599 1044 79 310911
shrinkage=0.01



feature importances:
smart_1_raw=28
smart_7_raw=19
smart_5_raw=18
smart_240_raw=18
smart_193_raw=17
smart_197_raw=15
smart_9_raw=12
smart_241_raw=10
smart_190_raw=9
smart_192_raw=8
smart_187_raw=7
smart_242_raw=6
smart_188_raw=3
smart_4_raw=2
smart_12_raw=1
smart_199_raw=1

pandas_categorical:[]
