tree
version=v2
num_class=1
num_tree_per_iteration=1
label_index=0
max_feature_idx=14
objective=binary sigmoid:1
feature_names=smart_1_raw smart_3_raw smart_4_raw smart_5_raw smart_7_raw smart_9_raw smart_10_raw smart_11_raw smart_12_raw smart_194_raw smart_196_raw smart_197_raw smart_198_raw smart_199_raw smart_200_raw
feature_infos=none [2475:2908] [36:454] [0:93] none [12189:163706] none none [36:454] [15:49] [0:13] none none [0:80] none
tree_sizes=2402

Tree=0
num_leaves=30
num_cat=0
split_feature=9 5 8 5 9 1 5 9 1 8 8 5 1 5 5 1 1 1 5 5 5 5 5 1 1 1 5 5 5
split_gain=9.8551 89.1497 6.89145 87.8181 4.26383 23.7184 38.0799 5.81556 65.3456 0.396738 42.3975 44.7444 8.88178e-16 2.22045e-16 2.22045e-16 1.11022e-16 5.55112e-17 5.55112e-17 5.55112e-17 5.55112e-17 5.55112e-17 2.77556e-17 2.77556e-17 1.38778e-17 1.38778e-17 1.38778e-17 1.38778e-17 1.38778e-17 1.38778e-17
threshold=43.500000000000007 84990.500000000015 280.00000000000006 48186.000000000007 25.500000000000004 2604.0000000000005 44911.000000000007 24.500000000000004 2645.5000000000005 149.50000000000003 150.50000000000003 67519.500000000015 2870.5000000000005 50004.000000000007 71943.000000000015 2762.0000000000005 2737.0000000000005 2712.0000000000005 132045.00000000003 79115.500000000015 78507.500000000015 42182.000000000007 68197.000000000015 2837.0000000000005 2879.0000000000005 2770.5000000000005 66227.500000000015 66914.500000000015 68909.500000000015
decision_type=2 2 2 2 2 2 2 2 2 2 2 2 2 2 2 2 2 2 2 2 2 2 2 2 2 2 2 2 2
left_child=2 -2 4 21 5 6 -1 13 -9 12 11 -11 -6 -7 -12 16 17 18 19 20 -15 -4 27 26 -14 -23 -10 -17 -28
right_child=1 -3 3 -5 9 7 -8 8 23 10 14 -13 24 15 -16 22 -18 -19 -20 -21 -22 25 -24 -25 -26 -27 28 -29 -30
leaf_value=-7.6610192563587693 -7.6610192563587693 -6.6587439232803423 -7.6610192563587693 -6.7043018929657201 -7.6610192563587693 -7.6610192563587693 -7.0032760690260289 -6.9352336703364399 -7.6610192563587693 -6.7840283399151255 -7.6610192563587693 -7.6610192563587685 -7.6610192563587693 -7.6610192563587693 -7.6610192563587693 -7.6610192563587693 -7.6610192563587693 -7.6610192563587693 -7.6610192563587693 -7.6610192563587693 -7.6610192563587685 -7.6610192563587693 -7.6610192563587693 -7.6610192563587685 -7.6610192563587693 -7.6610192563587693 -7.6610192563587693 -7.6610192563587685 -7.6610192563587693
leaf_count=44 169 21 79 22 9186 127 32 29 76 24 1556 25 63 579 2173 98 59 62 40 42 30 79 123 22 97 88 119 34 45
internal_value=0 10.0773 -0.437437 6.85317 -0.57049 1.69623 26.694 0.416884 6.23244 -0.840099 -0.443361 41.9542 -1.00048 -1.00048 -1.00048 -1.00048 -1.00048 -1.00048 -1.00048 -1.00048 -1.00048 -1.00048 -1.00048 -1.00048 -1.00048 -1.00048 -1.00048 -1.00048 -1.00048
internal_count=15143 190 14953 268 14685 1561 76 1485 291 13124 3778 49 9346 1194 3729 1067 812 753 691 651 609 246 255 262 160 167 240 132 164
shrinkage=1



feature importances:
smart_9_raw=14
smart_3_raw=9
smart_12_raw=3
smart_194_raw=3

pandas_categorical:[]
