tree
version=v2
num_class=1
num_tree_per_iteration=1
label_index=0
max_feature_idx=4
objective=binary sigmoid:1
feature_names=smart_1_raw smart_5_raw smart_9_raw smart_194_raw smart_197_raw
feature_infos=[0:80067] [0:6] [20312:65261] [15:46] [0:80]
tree_sizes=2442 2500 2472

Tree=0
num_leaves=30
num_cat=0
split_feature=0 2 3 2 2 3 0 3 2 2 0 3 0 0 2 2 2 0 2 2 2 2 2 2 2 2 2 2 2
split_gain=35.4188 111.356 190.924 1.70537 50.89 123.942 210.395 1.37913 6.393 281.929 8.88178e-16 4.44089e-16 2.22045e-16 2.22045e-16 2.22045e-16 2.22045e-16 2.22045e-16 1.11022e-16 1.11022e-16 1.11022e-16 1.11022e-16 1.11022e-16 1.11022e-16 2.22045e-16 1.11022e-16 5.55112e-17 5.55112e-17 5.55112e-17 5.55112e-17
threshold=120.50000000000001 29617.000000000004 25.500000000000004 47965.500000000007 48048.500000000007 27.500000000000004 3.5000000000000004 29.500000000000004 52388.500000000007 52489.500000000007 1.5000000000000002 42.500000000000007 9.5000000000000018 5.5000000000000009 47880.500000000007 43835.500000000007 51905.500000000007 43.000000000000007 51620.500000000007 47880.500000000007 47008.500000000007 45172.500000000007 44647.500000000007 38433.500000000007 62945.500000000007 51534.500000000007 51180.500000000007 50599.500000000007 50508.500000000007
decision_type=2 2 2 2 2 2 2 2 2 2 2 2 2 2 2 2 2 2 2 2 2 2 2 2 2 2 2 2 2
left_child=3 -2 -3 10 5 6 -5 8 -6 -10 11 14 13 19 15 -1 18 -14 25 20 21 22 23 -12 -18 26 27 28 -9
right_child=1 2 -4 4 7 -7 -8 16 9 -11 12 -13 17 -15 -16 -17 24 -19 -20 -21 -22 -23 -24 -25 -26 -27 -28 -29 -30
leaf_value=-9.0130303888216741 -9.0130303888216723 -9.0130303888216705 -5.6256693915118667 -5.1417606776104847 -9.0130303888216741 -9.0130303888216723 -9.0130303888216705 -9.0130303888216741 -6.1095781054131262 -9.0130303888216741 -9.0130303888216741 -9.0130303888216687 -9.0130303888216741 -9.0130303888216741 -9.0130303888216723 -9.0130303888216741 -9.0130303888216741 -9.0130303888216741 -9.0130303888216741 -9.0130303888216705 -9.0130303888216741 -9.0130303888216741 -9.0130303888216741 -9.0130303888216741 -9.0130303888216723 -9.0130303888216723 -9.0130303888216741 -9.0130303888216741 -9.0130303888216723
leaf_count=9519 168 31 24 21 3053 108 25 2864 28 938 2401 20 3673 2254 77 4140 4154 534 304 37 297 616 240 2198 112 113 366 611 87
internal_value=0 35.4558 146.812 -0.58096 0.271727 51.7899 175.732 -0.356444 1.02269 7.41568 -1.00012 -1.00012 -1.00012 -1.00012 -1.00012 -1.00012 -1.00012 -1.00012 -1.00012 -1.00012 -1.00012 -1.00012 -1.00012 -1.00012 -1.00012 -1.00012 -1.00012 -1.00012 -1.00012
internal_count=39013 223 55 38790 12784 154 46 12630 4019 966 26006 13756 12250 8043 13736 13659 8611 4207 4345 5789 5752 5455 4839 4599 4266 4041 3928 3562 2951
shrinkage=1


Tree=1
num_leaves=30
num_cat=0
split_feature=0 3 3 0 0 3 3 3 3 3 0 3 3 3 3 3 3 3 3 3 0 0 3 3 3 3 3 3 3
split_gain=8.09693 88.2324 62.4952 0.784416 1.41467 2.57826 49.1452 0.988621 12.4426 1.53876e-07 1.28997e-07 1.24881e-07 2.81687e-07 6.73136e-08 2.21517e-08 6.91921e-08 3.2551e-08 2.37312e-08 2.09015e-08 2.02177e-08 1.97004e-08 1.44015e-08 1.4474e-08 4.98268e-08 1.47682e-08 8.79647e-09 8.21983e-09 8.04775e-09 3.72964e-09
threshold=120.50000000000001 30.500000000000004 33.500000000000007 1.5000000000000002 1.0000000180025095e-35 28.500000000000004 29.500000000000004 22.500000000000004 21.500000000000004 27.500000000000004 2.5000000000000004 25.500000000000004 27.500000000000004 25.500000000000004 21.500000000000004 23.500000000000004 22.500000000000004 25.500000000000004 26.500000000000004 26.500000000000004 435.00000000000006 3.5000000000000004 28.500000000000004 25.500000000000004 27.500000000000004 24.500000000000004 18.500000000000004 24.500000000000004 23.500000000000004
decision_type=2 2 2 2 2 2 2 2 2 2 2 2 2 2 2 2 2 2 2 2 2 2 2 2 2 2 2 2 2
left_child=3 13 -3 4 7 14 -7 8 -1 19 11 -5 18 -2 -6 16 -16 25 -13 27 -15 22 23 -12 -25 -17 -23 28 -9
right_child=1 2 -4 10 5 6 -8 9 -10 -11 21 12 -14 20 15 17 -18 -19 -20 -21 -22 26 -24 24 -26 -27 -28 -29 -30
leaf_value=-0.010001217613599199 -0.010001217613598051 1.5880549677046667 -0.010001217613596737 -0.010001217613599131 -0.01000121761359913 0.53263775230067278 -0.010001217613599169 -0.010005835292948982 0.12906175049713189 -0.010001541984796428 -0.01000121761359909 -0.010020225330991055 -0.010002513936787985 -0.010017110362177197 -0.010009852612997009 -0.010001217613597586 -0.010041498940279135 -0.010001217613599064 -0.010030045954831682 -0.010011547306418503 -0.010033681031261557 -0.010010481976014786 -0.010001217613599143 -0.010015029686362269 -0.010004081276802116 -0.010014639198518164 -0.010001401460151715 -0.010008364673091583 -0.010001217613598795
leaf_count=5021 62 23 33 1156 760 117 1453 542 544 8109 799 193 831 36 27 50 21 504 239 1083 69 48 975 311 116 156 14399 1146 190
internal_value=0 8.07865 96.3095 -0.592233 -0.200008 1.54001 4.11811 -0.525338 0.46315 -1.00037 -1.00027 -1.00084 -1.00135 -1.00299 -1.00048 -1.00079 -1.0029 -1.00048 -1.00263 -1.00088 -1.00323 -1.00018 -1.00039 -1.00058 -1.00124 -1.0012 -1.00015 -1.0007 -1.00047
internal_count=39013 223 56 38790 19723 3088 1570 16635 5565 11070 19067 2419 1263 167 1518 758 48 710 432 2961 105 16648 2201 1226 427 206 14447 1878 732
shrinkage=0.01


Tree=2
num_leaves=30
num_cat=0
split_feature=2 0 2 3 2 2 2 0 3 2 0 3 4 0 2 3 3 3 2 0 2 2 3 3 2 0 0 3 3
split_gain=16.7357 26.2116 1.53024 10.6924 91.1284 1.10189 12.0818 11.4036 5.27944 2.82085e-06 5.28016e-07 3.59538e-07 2.22303e-07 9.43672e-08 9.12038e-08 2.90206e-08 1.25675e-08 5.38037e-09 4.29621e-09 1.57532e-09 7.62438e-10 2.45952e-09 4.23816e-10 6.74484e-10 4.18684e-11 2.03348e-12 5.14278e-12 1.34849e-11 1.11146e-10
threshold=57794.000000000007 43.000000000000007 47965.500000000007 22.500000000000004 48597.500000000007 52388.500000000007 52489.500000000007 1.5000000000000002 31.500000000000004 48048.500000000007 435.00000000000006 27.500000000000004 15.500000000000002 3.5000000000000004 29617.000000000004 23.500000000000004 30.500000000000004 18.500000000000004 52704.500000000007 120.50000000000001 52388.500000000007 53636.000000000007 30.500000000000004 33.500000000000007 27569.000000000004 1.5000000000000002 1.0000000180025095e-35 28.500000000000004 29.500000000000004
decision_type=2 2 2 2 2 2 2 2 2 2 2 2 2 2 2 2 2 2 2 2 2 2 2 2 2 2 2 2 2
left_child=2 -2 10 4 -4 9 7 8 -7 11 19 13 -8 -5 24 -16 -9 18 -6 25 -19 -22 -21 -24 -12 26 -1 -28 -29
right_child=1 -3 3 5 17 6 12 16 -10 -11 14 -13 -14 -15 15 -17 -18 20 -20 22 21 -23 23 -25 -26 -27 27 28 -30
leaf_value=-0.010001214611851586 -0.010001205826977813 0.42949112415780299 1.0254943717706382 -0.010057890806334123 -0.010014378407708283 0.29481546894844712 -0.01000120722365589 -0.010020166327203581 -0.01000120579602227 -0.010001211147438453 -0.01000248012402302 -0.010001219720698744 -0.010032978072872376 -0.010001206314689006 -0.010001206314470166 -0.010035033720076261 -0.010001206314656721 -0.010001219632138778 -0.010001205999799182 -0.01000120573014897 -0.010009048158822033 -0.010001242432804112 -0.01000596186750748 -0.010001206314471423 -0.010001206329831059 -0.010001206292381231 -0.010001206250137401 -0.01000207532576524 -0.010001206314473821
leaf_count=11532 279 20 25 20 23 23 4041 33 57 7578 29 108 21 25 22 25 33 338 32 35 30 106 20 33 51 12250 1400 85 739
internal_value=0 16.7294 -0.596535 0.168894 11.4173 -0.386973 0.714743 12.798 24.2017 -1.00074 -1.00018 -1.00509 -1.00026 -1.00564 -1.00288 -1.00335 -1.00179 -1.00032 -1.00097 -1.00012 -1.0002 -1.00036 -1.0004 -1.00048 -1.00017 -1.00012 -1.00012 -1.00013 -1.00013
internal_count=39013 299 38714 12493 554 11939 4208 146 80 7731 26221 153 4062 45 127 47 66 529 55 26094 474 136 88 53 80 26006 13756 2224 824
shrinkage=0.01



feature importances:
smart_194_raw=37
smart_9_raw=30
smart_1_raw=19
smart_197_raw=1

pandas_categorical:[]
