tree
version=v2
num_class=1
num_tree_per_iteration=1
label_index=0
max_feature_idx=21
objective=binary sigmoid:1
feature_names=smart_1_raw smart_3_raw smart_4_raw smart_5_raw smart_7_raw smart_9_raw smart_10_raw smart_12_raw smart_183_raw smart_184_raw smart_187_raw smart_188_raw smart_189_raw smart_190_raw smart_194_raw smart_195_raw smart_197_raw smart_198_raw smart_199_raw smart_240_raw smart_241_raw smart_242_raw
feature_infos=[27198:244137072] none [20:121] [0:2954] [161165020:766757299] [14514:66020] none [10:61] [0:49] none none [30:450978447514] [0:5] [20:46] [20:46] [27198:244137072] none none [0:36] [50610:281470681774035] [30125:4294884261] [294249:4294908492]
tree_sizes=2416

Tree=0
num_leaves=30
num_cat=0
split_feature=3 3 20 8 5 3 3 7 4 19 0 11 20 20 13 0 0 0 0 0 0 0 4 4 0 0 0 0 0
split_gain=1269.34 12.9061 148.758 8.93865 152.926 3.87333 131.84 13.3765 140.374 2.40284 29.8131 130.233 1.83688 27.1121 66.6899 8.88178e-16 8.88178e-16 1.11022e-16 1.11022e-16 1.11022e-16 1.11022e-16 1.11022e-16 1.11022e-16 1.11022e-16 5.55112e-17 5.55112e-17 5.55112e-17 5.55112e-17 1.11022e-16
threshold=636.50000000000011 501.50000000000006 1083378838.5000002 33.000000000000007 38229.500000000007 30.500000000000004 33.000000000000007 16.500000000000004 476182235.00000006 268965884504426.03 21771602.000000004 76.500000000000014 3996605330.0000005 4019724951.5000005 32.500000000000007 225963151.00000003 202990713.50000003 242324059.50000003 240466042.00000003 220961109.50000003 215179381.00000003 212564488.50000003 424351915.00000006 617198009.50000012 234854462.50000003 223977862.00000003 217051776.00000003 211575381.00000003 202990713.50000003
decision_type=2 2 2 2 2 2 2 2 2 2 2 2 2 2 2 2 2 2 2 2 2 2 2 2 2 2 2 2 2
left_child=1 3 -3 5 -5 9 -7 8 -8 12 11 -11 15 14 -14 16 -1 18 -17 20 21 -18 -9 -24 25 26 27 28 -12
right_child=-2 2 -4 4 -6 6 7 22 -10 10 24 -13 13 -15 -16 17 19 -19 -20 -21 -22 -23 23 -25 -26 -27 -28 -29 -30
leaf_value=-8.0975921413794136 -3.8508525619612026 -6.469675302602492 -8.0975921413794136 -8.0975921413794136 -6.4696753026022877 -6.740994775731914 -8.0975921413794136 -8.0975921413794136 -6.5471951520678529 -8.0975921413794136 -8.0975921413794136 -6.4696753026022877 -8.0975921413794136 -8.0975921413794136 -7.1399940009222167 -8.0975921413794136 -8.0975921413794136 -8.0975921413794136 -8.0975921413794136 -8.0975921413794136 -8.0975921413794136 -8.0975921413794136 -8.0975921413794136 -8.0975921413794136 -8.0975921413794136 -8.0975921413794119 -8.0975921413794119 -8.0975921413794119 -8.0975921413794119
leaf_count=20976 23 20 212 310 20 24 201 301 21 80 899 20 78 1551 34 1460 993 204 207 507 601 312 1855 147 48 39 30 31 39
internal_value=0 -0.374587 13.0335 -0.47497 8.86586 -0.575513 1.55429 0.289132 13.6656 -0.76865 1.74491 31.558 -0.879376 0.9575 28.0696 -1.00031 -1.00031 -1.00031 -1.00031 -1.00031 -1.00031 -1.00031 -1.00031 -1.00031 -1.00031 -1.00031 -1.00031 -1.00031 -1.00031
internal_count=31243 31220 232 30988 330 30658 2549 2525 222 28109 1186 100 26923 1663 112 25260 23389 1871 1667 2413 1906 1305 2303 2002 1086 1038 999 969 938
shrinkage=1



feature importances:
smart_1_raw=13
smart_5_raw=4
smart_7_raw=3
smart_241_raw=3
smart_9_raw=1
smart_12_raw=1
smart_183_raw=1
smart_188_raw=1
smart_190_raw=1
smart_240_raw=1

pandas_categorical:[]
