tree
version=v2
num_class=1
num_tree_per_iteration=1
label_index=0
max_feature_idx=21
objective=binary sigmoid:1
feature_names=smart_1_raw smart_3_raw smart_4_raw smart_5_raw smart_7_raw smart_9_raw smart_10_raw smart_12_raw smart_184_raw smart_187_raw smart_188_raw smart_189_raw smart_190_raw smart_191_raw smart_192_raw smart_193_raw smart_194_raw smart_195_raw smart_197_raw smart_198_raw smart_199_raw smart_254_raw
feature_infos=[2754:244135760] none [5:68] [0:67] [184279:8968666084] [132:41855] none [5:68] none [0:18] [0:4295032843] none [18:46] [0:345] [0:5] [10942:547474] [18:46] [2754:244135760] none none none none
tree_sizes=2364 2390 2409 2409 2414 2427 2413

Tree=0
num_leaves=30
num_cat=0
split_feature=9 5 12 0 0 7 7 10 10 5 0 0 12 13 13 12 0 7 4 0 5 4 12 4 5 7 5 4 0
split_gain=136.716 2079.74 11.3659 86.7619 159.562 11.3895 42.2207 175.121 36.7095 217.468 18.5332 164.87 1.88628 4.40711 31.6714 85.6184 135.818 2.4146 75.1587 168.369 16.9717 241.156 1.4261 19.367 225.775 0.790642 7.57032 190.923 8.88178e-16
threshold=1.0000000180025095e-35 14867.500000000002 39.500000000000007 26962953.500000004 16231004.500000002 40.500000000000007 41.500000000000007 29.500000000000004 37.500000000000007 20336.000000000004 222624871.50000003 224721965.00000003 25.500000000000004 7.0000000000000009 10.000000000000002 24.500000000000004 139005403.50000003 11.500000000000002 324799802.50000006 86044303.500000015 19735.500000000004 245262536.50000003 22.500000000000004 217021160.50000003 16122.500000000002 9.5000000000000018 17849.500000000004 236038552.00000003 177840633.50000003
decision_type=2 2 2 2 2 2 2 2 2 2 2 2 2 2 2 2 2 2 2 2 2 2 2 2 2 2 2 2 2
left_child=2 -2 5 4 -4 12 7 -7 10 -10 -8 -12 13 17 15 -15 -17 18 20 -20 -1 -22 23 24 -19 26 -14 -28 -27
right_child=1 -3 3 -5 -6 6 8 -9 9 -11 11 -13 25 14 -16 16 -18 22 19 -21 21 -23 -24 -25 -26 28 27 -29 -30
leaf_value=-8.5632896502028562 -8.5632896502028562 -1.1550477711393956 -8.5632896502028526 -8.5632896502028562 -5.9704049925306757 -8.5632896502028544 -8.5632896502028562 -6.3086073391834923 -8.5632896502028562 -5.9704049925306748 -6.7112291804368756 -8.5632896502028562 -8.5632896502028562 -8.5632896502028562 -8.5632896502028562 -5.9704049925306757 -8.5632896502028544 -8.5632896502028562 -6.093875690515036 -8.5632896502028544 -5.9704049925306748 -8.5632896502028562 -8.5632896502028562 -8.5632896502028562 -6.0938756905150342 -8.5632896502028562 -6.5687629904549052 -8.5632896502028562 -8.5632896502028562
leaf_count=4183 306 21 32 348 20 80 2621 23 104 20 28 227 4800 95 702 20 22 224 21 45 20 266 11011 2637 21 18589 26 582 6822
internal_value=0 46.5757 -0.129269 11.9642 98.7261 -0.220217 4.01344 49.3471 2.45699 40.8205 0.802926 19.3362 -0.482506 0.0764188 5.1807 36.8521 122.471 -0.155972 1.28681 77.5721 0.160194 17.1319 -0.626928 0.799172 20.1662 -0.831928 -0.0412858 7.52903 -1.00019
internal_count=53916 327 53589 400 52 53189 3103 103 3000 124 2876 255 50086 19267 839 137 42 18428 4535 66 4469 286 13893 2882 245 30819 5408 608 25411
shrinkage=1


Tree=1
num_leaves=30
num_cat=0
split_feature=2 2 5 15 15 15 10 17 17 12 2 5 12 12 17 17 2 15 5 10 10 2 15 15 17 17 2 15 15
split_gain=9.12247 10.9543 35.3626 88.6469 11.1907 190.893 12.4385 32.8134 70.4478 7.0766 26.5306 86.3152 3.02097 4.91711 8.73995 95.067 13.1561 55.3746 311.162 3.22551 1.77532 16.803 49.4704 57.6715 1.54598 3.25443 2.1319 44.272 151.874
threshold=40.500000000000007 41.500000000000007 17423.500000000004 143163.50000000003 17124.000000000004 16496.000000000004 37.500000000000007 100369260.50000001 59112049.000000007 39.500000000000007 13.500000000000002 16122.500000000002 25.500000000000004 24.500000000000004 110885530.50000001 109893715.50000001 11.500000000000002 88972.000000000015 25831.500000000004 40.500000000000007 14.500000000000002 17.500000000000004 49244.000000000007 53476.500000000007 84112714.000000015 83122967.000000015 9.5000000000000018 63531.500000000007 67470.500000000015
decision_type=2 2 2 2 2 2 2 2 2 2 2 2 2 2 2 2 2 2 2 2 2 2 2 2 2 2 2 2 2
left_child=9 2 -2 -4 5 -3 -6 8 -8 12 11 -11 13 20 15 16 17 -15 -19 -18 -1 22 -22 -24 25 26 27 -14 -29
right_child=1 4 3 -5 6 -7 7 -9 -10 10 -12 -13 24 14 -16 -17 19 18 -20 -21 21 -23 23 -25 -26 -27 -28 28 -30
leaf_value=-0.010002758827340332 -0.01001820525583578 -0.010002121060641607 1.4055342912255129 -0.010001910101884722 -0.010002540570692744 2.0554142437268128 -0.010016000888517536 -0.010020142347233139 1.1641139096298316 -0.010010647447946074 -0.010012071640633708 1.1995126046594451 -0.010002060423140866 -0.010001910101885505 -0.010002361095704708 1.0249201555198075 -0.010003734189167562 1.9357357285604766 -0.010022278449797898 0.039460952205192225 -0.010009216661923549 -0.010001910101885543 1.2511003664432303 -0.010001910101884068 -0.011134226524447906 0.035748528730462435 -0.0079883346069659963 1.979242978038142 -0.010005047647439282
leaf_count=10661 21 304 20 62 2552 20 30 74 20 71 298 31 1755 658 3423 26 2080 20 21 45 135 2144 20 35 20282 126 8896 20 66
internal_value=0 3.2525 16.5442 51.906 2.08414 14.6483 0.710454 13.1504 45.9636 -0.434585 7.10566 33.6361 -0.502684 0.222861 1.68163 3.89849 2.70039 10.3043 37.993 0.52444 -0.611295 1.16402 17.9676 67.438 -0.807537 -0.282008 -0.520488 1.77802 46.0503
internal_count=53916 3103 103 82 3000 324 2676 124 50 50813 400 102 50413 19268 6273 2850 2824 699 41 2125 12995 2334 190 55 31145 10863 10737 1841 86
shrinkage=0.01


Tree=2
num_leaves=30
num_cat=0
split_feature=2 5 5 4 17 16 17 16 15 4 16 16 17 17 2 15 5 10 10 10 15 17 17 2 15 4 17 17 15
split_gain=8.06991 7.54672 28.9738 24.5369 20.0236 17.3277 49.0678 6.05412 20.1523 50.08 2.92127 4.52913 7.54878 29.81 8.32437 19.1671 21.0432 3.10424 1.70565 12.6893 34.5865 1.5329 3.14574 1.93369 16.5685 19.8279 0.906294 3.44613 0.426306
threshold=40.500000000000007 21237.500000000004 20931.500000000004 263106562.50000003 89046944.500000015 24.500000000000004 210215841.50000003 39.500000000000007 44389.500000000007 203357350.50000003 25.500000000000004 24.500000000000004 110885530.50000001 109893715.50000001 11.500000000000002 88972.000000000015 25831.500000000004 40.500000000000007 14.500000000000002 15.500000000000002 49244.000000000007 84112714.000000015 83122967.000000015 9.5000000000000018 63531.500000000007 290834903.50000006 61915856.000000007 62840347.500000007 40190.500000000007
decision_type=2 2 2 2 2 2 2 2 2 2 2 2 2 2 2 2 2 2 2 2 2 2 2 2 2 2 2 2 2
left_child=7 2 3 5 -5 6 -2 10 9 -9 11 18 13 14 15 -13 -17 -16 -1 20 -20 22 23 24 -12 -26 -25 -28 -24
right_child=1 -3 -4 4 -6 -7 -8 8 -10 -11 21 12 -14 -15 17 16 -18 -19 19 -21 -22 -23 28 26 25 -27 27 -29 -30
leaf_value=-0.010002731140833152 -0.010008331452447488 -0.010002767589331911 0.38157207890534517 0.50161227237537975 -0.010004195878907982 -0.010008240686047852 0.67834611972661618 -0.01001672847506167 -0.010009985739445129 0.76313802802914565 -0.010002039631482874 -0.010001890801588951 -0.010002337321996589 0.36321546812865457 -0.010003696793264962 0.27626256545638489 -0.010022055422068559 0.038245737671511217 -0.010007652551584305 -0.010002030937061923 0.48376791118949442 -0.011125476814570203 0.039210213695684074 -0.011312803919672265 0.37980460477834416 -0.010009321568640596 0.036992054043991758 -0.010959937866665872 -0.010001979845000862
leaf_count=10661 112 1467 32 28 58 1386 20 52 325 23 1755 658 3423 26 2080 20 21 45 186 2121 27 20282 28 6627 21 65 103 2166 98
internal_value=0 2.88785 5.40385 3.51516 30.1356 1.43373 18.7629 -0.4355 6.0775 26.2313 -0.502766 0.203187 1.55983 3.47669 2.44491 7.51347 17.1012 0.519188 -0.610442 1.0954 13.7865 -0.805307 -0.28421 -0.520333 1.57992 18.1507 -0.795907 0.119061 3.46724
internal_count=53916 3103 1636 1604 86 1518 132 50813 400 75 50413 19268 6273 2850 2824 699 41 2125 12995 2334 213 31145 10863 10737 1841 86 8896 2269 126
shrinkage=0.01


Tree=3
num_leaves=30
num_cat=0
split_feature=2 5 4 0 0 12 0 12 15 4 12 12 0 0 13 5 2 2 0 0 2 15 12 15 15 5 0 0 15
split_gain=7.62354 6.69634 20.5887 25.4949 62.6355 14.9212 22.5941 5.44666 13.1458 16.8618 2.88137 4.37786 7.08801 18.914 7.97314 25.4506 34.2771 2.26043 1.52736 3.04352 1.87695 13.1796 15.8483 0.967525 28.3342 27.0075 0.899832 3.32804 0.403318
threshold=40.500000000000007 21237.500000000004 250114853.50000003 101328558.00000001 76436337.000000015 24.500000000000004 208314656.00000003 39.500000000000007 44389.500000000007 203357350.50000003 25.500000000000004 24.500000000000004 110885530.50000001 109893715.50000001 1.0000000180025095e-35 19735.500000000004 12.500000000000002 34.500000000000007 84112714.000000015 83122967.000000015 9.5000000000000018 63531.500000000007 31.500000000000004 49849.500000000007 49244.000000000007 16402.500000000004 61915856.000000007 62840347.500000007 40190.500000000007
decision_type=2 2 2 2 2 2 2 2 2 2 2 2 2 2 2 2 2 2 2 2 2 2 2 2 2 2 2 2 2
left_child=7 2 5 4 -4 6 -2 10 9 -9 11 23 13 14 15 17 -17 -13 19 20 21 -12 -23 24 -1 -26 -22 -28 -21
right_child=1 -3 3 -5 -6 -7 -8 8 -10 -11 18 12 -14 -15 -16 16 -18 -19 -20 28 26 22 -24 -25 25 -27 27 -29 -30
leaf_value=-0.010002253007625358 -0.010007180096477402 -0.01000273981829114 -0.010054403540401376 -0.010020253923443297 0.61043697637877026 -0.010007537116524665 0.39083018658174973 -0.010016562194689731 -0.010009886409758311 0.35487892010935379 -0.010002019823614022 -0.010001872071995807 -0.01000231382696256 0.25041630066186293 -0.010017200570184095 0.36665209943015714 -0.010001871704930118 0.038439996138679135 -0.011116761750162952 0.038038938469158803 -0.011302069927177019 -0.010014039981314735 0.30561307256488573 -0.010002849244304349 -0.010099946341915663 0.55709515704496615 0.035862383879754225 -0.010952890076439029 -0.010001959625183649
leaf_count=3685 110 1467 34 68 20 1384 20 52 325 23 1755 1027 3423 26 1504 36 237 20 20282 28 6627 62 24 9269 20 21 103 2166 98
internal_value=0 2.73742 4.97032 16.9744 29.724 1.55565 16.4816 -0.433494 5.47154 18.6214 -0.500432 0.198675 1.51667 3.31848 2.36261 5.07888 19.5187 1.42776 -0.802925 -0.282758 -0.517788 1.52682 14.71 -0.608536 0.359251 28.7024 -0.7936 0.117924 3.3729
internal_count=53916 3103 1636 122 54 1514 130 50813 400 75 50413 19268 6273 2850 2824 1320 273 1047 31145 10863 10737 1841 86 12995 3726 41 8896 2269 126
shrinkage=0.01


Tree=4
num_leaves=30
num_cat=0
split_feature=2 5 4 0 0 12 0 12 2 10 12 12 0 0 13 5 2 2 10 10 12 0 0 2 5 5 0 0 4
split_gain=7.21544 5.98777 14.9524 14.6878 24.4512 12.1126 12.8181 5.04765 9.12519 13.327 2.84091 4.23401 6.66968 13.5484 7.33354 18.7485 19.4767 2.16796 1.64126 9.3493 8.83805 1.52191 2.94705 1.8258 7.81903 27.6261 0.893379 3.21717 0.369296
threshold=40.500000000000007 21237.500000000004 250114853.50000003 101328558.00000001 76436337.000000015 24.500000000000004 208314656.00000003 39.500000000000007 13.500000000000002 12.500000000000002 25.500000000000004 24.500000000000004 110885530.50000001 109893715.50000001 1.0000000180025095e-35 19735.500000000004 12.500000000000002 34.500000000000007 14.500000000000002 15.500000000000002 22.500000000000004 84112714.000000015 83122967.000000015 9.5000000000000018 17849.500000000004 18133.500000000004 61915856.000000007 62840347.500000007 329414935.00000006
decision_type=2 2 2 2 2 2 2 2 2 2 2 2 2 2 2 2 2 2 2 2 2 2 2 2 2 2 2 2 2
left_child=7 2 5 4 -4 6 -2 10 9 -9 11 18 13 14 15 17 -17 -13 -1 20 -20 22 23 24 -12 -26 -25 28 -28
right_child=1 -3 3 -5 -6 -7 -8 8 -10 -11 21 12 -14 -15 -16 16 -18 -19 19 -21 -22 -23 -24 26 25 -27 27 -29 -30
leaf_value=-0.010002679624906814 -0.010007108760150365 -0.010002713012382149 -0.010053864668112578 -0.010020052386910979 0.33201668926098643 -0.01000746276335218 0.26452909979768574 -0.010008088566409563 -0.010011423243947848 0.27541020076729222 -0.010001853591703072 -0.010001853594337737 -0.010002291309038687 0.19335132052157761 -0.010017032665266721 0.25491004647819326 -0.010001853597526256 0.037335518988499426 0.19234766912166568 -0.010002052712543187 -0.010002087776788942 -0.011108082699548967 0.032842896309375008 -0.011291389519638356 0.36938236938104768 -0.010012320180679872 -0.010002038061967559 -0.010945864878832801 0.038746094733392127
leaf_count=10661 110 1467 34 68 20 1384 20 73 298 29 1652 1027 3423 26 1504 36 237 20 22 2121 191 20282 126 6627 26 163 83 2166 20
internal_value=0 2.60027 4.5976 13.6244 20.9719 1.50458 13.6257 -0.431425 5.07508 14.2057 -0.498156 0.194035 1.47535 3.17293 2.28255 4.78496 15.7434 1.40673 -0.606733 1.03555 10.391 -0.800552 -0.281236 -0.515206 1.47946 9.30212 -0.791315 0.116814 3.48038
internal_count=53916 3103 1636 122 54 1514 130 50813 400 102 50413 19268 6273 2850 2824 1320 273 1047 12995 2334 213 31145 10863 10737 1841 189 8896 2269 103
shrinkage=0.01


Tree=5
num_leaves=30
num_cat=0
split_feature=2 5 5 12 2 5 12 2 0 0 0 12 2 5 5 0 0 13 10 13 13 0 9 0 9 5 12 10 5
split_gain=7.16565 5.79827 9.92444 14.9309 7.56642 11.585 4.42363 7.86069 8.61594 2.48855 14.8044 14.6253 2.51587 16.1046 15.5015 7.50209 19.6591 6.92006 3.83352 1.48533 6.8547 11.5919 0.747091 1.39402 0.0739301 0.00184317 3.87792e-07 1.52879e-06 8.05842e-07
threshold=40.500000000000007 21237.500000000004 20931.500000000004 25.500000000000004 59.500000000000007 11648.500000000002 39.500000000000007 13.500000000000002 59112049.000000007 142016157.00000003 140944771.00000003 23.500000000000004 11.500000000000002 17849.500000000004 17990.500000000004 60120672.500000007 76436337.000000015 1.0000000180025095e-35 9.5000000000000018 7.0000000000000009 10.000000000000002 109893715.50000001 1.0000000180025095e-35 61915856.000000007 1.0000000180025095e-35 13666.500000000002 21.500000000000004 14.500000000000002 28714.000000000004
decision_type=2 2 2 2 2 2 2 2 2 2 2 2 2 2 2 2 2 2 2 2 2 2 2 2 2 2 2 2 2
left_child=6 2 3 4 5 -2 9 8 -8 10 12 -12 13 -1 -15 -16 17 18 -17 22 21 -21 -14 -24 26 -26 27 -11 -29
right_child=1 -3 -4 -5 -6 -7 7 -9 -10 24 11 -13 19 14 15 16 -18 -19 -20 20 -22 -23 23 -25 25 -27 -28 28 -30
leaf_value=-0.010001903474229535 -0.010006557970351125 -0.010002738758918193 0.1729642266367426 -0.01000863290458439 -0.01000405672515905 0.20141850430736966 0.20915003370470825 -0.010011973767631946 -0.01000645232262334 -0.010001834935682819 0.29976878801765583 -0.010001829524650519 -0.010002058163157726 0.25535138680689484 -0.010012599276739696 -0.010001874574740131 -0.010008246703980333 -0.010012428532740489 0.2324849678525216 -0.01001771035190459 -0.010001833831697378 0.19567672132739969 -0.013006501091913878 0.0049044027677014141 -0.010001827223688168 -0.013006157237265311 -0.010002094294178332 -0.010123500528440035 -0.010001834932981605
leaf_count=6723 129 1460 31 1270 171 37 20 310 80 531 37 158 19318 39 399 38 443 35 26 121 1974 37 23 34 114 20 20275 21 42
internal_value=0 2.57446 4.50937 3.08238 10.5557 14.3431 -0.443707 4.4208 12.2897 -0.514949 -0.155244 15.3415 -0.280852 0.807565 6.18321 4.26251 8.01908 17.8636 21.3288 -0.587236 1.11174 7.97066 -0.735735 -0.213968 -1.06488 -1.29488 -1.00027 -1.00201 -1.00878
internal_count=53916 3098 1638 1607 337 166 50818 410 100 50408 29405 195 29210 7703 980 941 542 99 64 21507 2132 158 19375 57 21003 134 20869 594 63
shrinkage=0.01


Tree=6
num_leaves=30
num_cat=0
split_feature=2 5 4 5 0 12 0 12 2 10 0 0 0 13 5 2 5 4 0 0 12 13 13 0 9 0 9 4 4
split_gain=6.87248 5.32851 10.5755 11.0667 9.51705 9.37525 6.73942 4.17475 6.57817 6.85935 3.4098 2.47304 12.4287 9.69021 2.91311 2.45914 14.8199 12.2333 6.58594 15.2855 4.98228 1.45476 6.16628 8.72362 0.747493 1.37396 0.0714873 0.00177812 3.86742e-07
threshold=40.500000000000007 21237.500000000004 250114853.50000003 17423.500000000004 106103830.00000001 24.500000000000004 208314656.00000003 39.500000000000007 13.500000000000002 12.500000000000002 51547673.500000007 142016157.00000003 140944771.00000003 2.5000000000000004 27270.500000000004 11.500000000000002 17849.500000000004 231839869.50000003 60120672.500000007 76436337.000000015 25.500000000000004 7.0000000000000009 10.000000000000002 109893715.50000001 1.0000000180025095e-35 61915856.000000007 1.0000000180025095e-35 197645295.50000003 243496335.50000003
decision_type=2 2 2 2 2 2 2 2 2 2 2 2 2 2 2 2 2 2 2 2 2 2 2 2 2 2 2 2 2
left_child=7 2 5 -4 10 6 -2 11 9 -9 -5 12 15 -14 -15 16 -1 -18 -19 20 -20 24 23 -23 -17 -26 -13 -28 -7
right_child=1 -3 3 4 -6 28 -8 8 -10 -11 -12 26 13 14 -16 21 17 18 19 -21 -22 22 -24 -25 25 -27 27 -29 -30
leaf_value=-0.010001884415942092 -0.010005938628681247 -0.010002711496480021 -0.010033314609420011 -0.010003226723346689 -0.010023622450489541 -0.010002923896925043 0.17622307871804604 -0.010009764559950176 -0.010011854756272236 0.17634836204125967 0.22950796107072888 -0.010002640592337932 -0.010001962673927991 0.25585563180806292 -0.010002060089817228 -0.010002037471587519 0.21485229649256352 -0.01001232500255033 0.17449975584603483 -0.010008119941348891 -0.010005453709897553 -0.010017533904564569 -0.010001815650062638 0.1598575780015036 -0.012967737025724527 0.0048430295589145054 -0.010001808559872398 -0.012967353814027882 -0.010035326863454309
leaf_count=6723 119 1460 20 20 60 1359 20 73 310 27 20 20869 152 20 23 19318 31 406 25 445 73 121 1974 37 23 34 114 20 20
internal_value=0 2.47748 4.25648 10.9396 16.4794 1.47927 10.871 -0.441405 4.17584 10.7645 21.2437 -0.512487 -0.154659 12.9667 22.6688 -0.279314 0.790335 5.74085 3.99121 7.29187 14.9529 -0.584742 1.08476 7.25632 -0.733561 -0.212108 -1.06419 -1.29109 -1.00072
internal_count=53916 3098 1638 120 100 1518 139 50818 410 100 40 50408 29405 195 43 29210 7703 980 949 543 98 21507 2132 158 19375 57 21003 134 1379
shrinkage=0.01



feature importances:
smart_1_raw=41
smart_9_raw=29
smart_4_raw=25
smart_190_raw=24
smart_193_raw=18
smart_7_raw=15
smart_188_raw=14
smart_195_raw=14
smart_191_raw=10
smart_187_raw=5
smart_12_raw=4
smart_194_raw=4

pandas_categorical:[]
