tree
version=v2
num_class=1
num_tree_per_iteration=1
label_index=0
max_feature_idx=19
objective=binary sigmoid:1
feature_names=smart_1_raw smart_2_raw smart_3_raw smart_4_raw smart_5_raw smart_7_raw smart_8_raw smart_9_raw smart_10_raw smart_12_raw smart_191_raw smart_192_raw smart_193_raw smart_194_raw smart_196_raw smart_197_raw smart_198_raw smart_199_raw smart_223_raw smart_240_raw
feature_infos=none none [5106:5581] [1:12] [0:65248] none none [6:29259] none [1:12] [0:4603920] [0:2] [1:128270] [12:41] [0:9111] [0:8] none [0:12] none none
tree_sizes=2503 2532 2523 2561 2540 2534

Tree=0
num_leaves=30
num_cat=0
split_feature=7 12 7 2 2 2 7 7 7 7 7 7 7 7 7 7 7 7 7 7 7 7 7 7 7 7 7 12 12
split_gain=25.5442 246.906 673.073 2.22045e-16 2.22045e-16 2.22045e-16 2.22045e-16 5.55112e-17 5.55112e-17 5.55112e-17 5.55112e-17 1.11022e-16 5.55112e-17 2.77556e-17 2.77556e-17 2.77556e-17 2.77556e-17 1.38778e-17 1.38778e-17 1.38778e-17 1.38778e-17 6.93889e-18 6.93889e-18 6.93889e-18 6.93889e-18 6.93889e-18 6.93889e-18 6.93889e-18 6.93889e-18
threshold=729.50000000000011 105.50000000000001 516.00000000000011 5313.5000000000009 5555.0000000000009 5515.5000000000009 28944.500000000004 26448.500000000004 25446.500000000004 22722.500000000004 21310.500000000004 6439.5000000000009 19440.500000000004 18235.500000000004 10373.500000000002 16251.500000000002 11509.000000000002 6321.5000000000009 6222.5000000000009 10158.500000000002 14764.500000000002 26881.500000000004 24693.500000000004 21192.500000000004 19988.500000000004 17583.500000000004 13784.500000000002 460.50000000000006 348.50000000000006
decision_type=2 2 2 2 2 2 2 2 2 2 2 2 2 2 2 2 2 2 2 2 2 2 2 2 2 2 2 2 2
left_child=1 2 -1 7 5 6 -5 8 9 10 11 17 13 14 19 16 -16 18 -2 -13 26 -9 27 24 -14 -17 -18 28 -11
right_child=3 -3 -4 4 -6 -7 -8 21 -10 22 -12 12 23 -15 15 25 20 -19 -20 -21 -22 -23 -24 -25 -26 -27 -28 -29 -30
leaf_value=-11.125049139286608 -11.125049139286613 -11.125049139286613 -1.6635704461794294 -11.125049139286613 -11.125049139286604 -11.125049139286611 -11.125049139286611 -11.125049139286611 -11.125049139286611 -11.125049139286613 -11.125049139286611 -11.125049139286613 -11.125049139286611 -11.125049139286611 -11.125049139286611 -11.125049139286611 -11.125049139286613 -11.125049139286608 -11.125049139286608 -11.12504913928661 -11.125049139286611 -11.125049139286611 -11.125049139286611 -11.125049139286608 -11.125049139286611 -11.125049139286611 -11.125049139286611 -11.125049139286604 -11.125049139286606
leaf_count=175 6358 2321 71 70824 88 2148 366 585 1209 2296 1781 4296 704 1457 1329 1476 2571 143 124 257 1547 780 984 143 1476 752 1049 74 95
internal_value=0 25.1692 272.075 -1.00001 -1.00001 -1.00001 -1.00001 -1.00001 -1.00001 -1.00001 -1.00001 -1.00001 -1.00001 -1.00001 -1.00001 -1.00001 -1.00001 -1.00001 -1.00001 -1.00001 -1.00001 -1.00001 -1.00001 -1.00001 -1.00001 -1.00001 -1.00001 -1.00001 -1.00001
internal_count=107479 2567 246 104912 73426 73338 71190 31486 30121 28912 25463 23682 17057 14734 13277 8724 6496 6625 6482 4553 5167 1365 3449 2323 2180 2228 3620 2465 2391
shrinkage=1


Tree=1
num_leaves=30
num_cat=0
split_feature=13 7 13 2 7 12 7 7 7 12 7 2 13 2 2 2 2 2 2 2 2 2 2 2 2 2 2 2 7
split_gain=0.283517 0.467646 1.33736 1.83294 3.37388 0.0312544 0.00741718 0.00196859 0.000853142 0.000132809 6.2401e-05 1.69139e-09 4.95529e-09 1.11022e-16 5.55112e-17 1.38778e-17 1.38778e-17 1.38778e-17 1.38778e-17 1.38778e-17 1.38778e-17 1.38778e-17 6.93889e-18 6.93889e-18 6.93889e-18 6.93889e-18 3.46945e-18 3.46945e-18 3.46945e-18
threshold=17.500000000000004 631.50000000000011 16.500000000000004 5314.5000000000009 729.50000000000011 105.50000000000001 847.50000000000011 729.50000000000011 729.50000000000011 105.50000000000001 516.00000000000011 5256.0000000000009 15.500000000000002 5545.0000000000009 5532.5000000000009 5404.5000000000009 5403.5000000000009 5402.5000000000009 5359.5000000000009 5292.0000000000009 5120.0000000000009 5278.5000000000009 5467.5000000000009 5459.5000000000009 5448.0000000000009 5260.5000000000009 5308.5000000000009 5265.5000000000009 23592.500000000004
decision_type=2 2 2 2 2 2 2 2 2 2 2 2 2 2 2 2 2 2 2 2 2 2 2 2 2 2 2 2 2
left_child=1 9 6 7 -5 8 -3 -4 10 11 -2 -1 -13 -7 -8 16 17 18 -6 20 -9 25 23 24 -17 -22 -21 28 -27
right_child=5 2 3 4 15 13 14 19 -10 -11 -12 12 -14 -15 -16 22 -18 -19 -20 26 21 -23 -24 -25 -26 27 -28 -29 -30
leaf_value=-0.011893905509924257 -0.01000014748856194 -0.011893676358790508 -0.011888379719148315 0.062422548752536125 -0.010000147488556458 -0.010000147488556823 -0.010000147488556802 -0.010000147488551322 -0.010000147488556458 -0.010000147488553844 -0.01189461414603152 -0.011893780511521656 -0.01189211544154439 -0.010000147488554814 -0.010000147488553806 -0.010000147488556524 -0.010000147488554385 -0.010000147488551452 -0.010000147488556557 -0.010000147488556176 -0.010000147488556549 -0.010000147488555607 -0.010000147488556148 -0.010000147488550886 -0.010000147488555046 -0.010000147488555695 -0.010000147488555907 -0.010000147488556044 -0.010000147488548447
leaf_count=22 118 22 31 46 1817 67351 22637 123 1619 252 54 20 26 336 224 2197 277 126 2459 1033 2382 553 991 114 380 596 732 860 81
internal_value=0 -0.7995 -0.37606 0.953648 2.78055 -1.16598 -1.11628 -1.11124 -1.18879 -1.18888 -1.18942 -1.18935 -1.18932 -1.00001 -1.00001 -1.00001 -1.00001 -1.00001 -1.00001 -1.00001 -1.00001 -1.00001 -1.00001 -1.00001 -1.00001 -1.00001 -1.00001 -1.00001 -1.00001
internal_count=107479 38001 37681 14798 8407 69478 22883 6391 1791 320 172 68 46 67687 22861 8361 4679 4402 4276 6360 4595 4472 3682 2691 2577 3919 1765 1537 677
shrinkage=0.01


Tree=2
num_leaves=30
num_cat=0
split_feature=7 2 2 12 7 7 12 12 7 12 2 2 2 4 4 2 12 12 2 3 2 2 7 2 7 7 7 2 7
split_gain=0.154811 0.209055 6.31758 0.303147 0.0221012 0.0135488 0.000982617 0.000136871 8.93945e-05 5.36223e-05 5.32907e-15 2.22045e-16 4.44089e-16 2.22045e-16 2.22045e-16 5.55112e-17 5.46438e-17 2.51535e-17 3.46945e-18 6.93889e-18 1.73472e-18 1.73472e-18 3.46945e-18 1.73472e-18 8.67362e-19 8.67362e-19 8.67362e-19 4.33681e-19 4.33681e-19
threshold=631.50000000000011 5314.5000000000009 5316.5000000000009 141.50000000000003 729.50000000000011 729.50000000000011 105.50000000000001 106.50000000000001 516.00000000000011 106.50000000000001 5309.5000000000009 5555.0000000000009 5532.5000000000009 42304.000000000007 12484.000000000002 5310.5000000000009 196.50000000000003 199.50000000000003 5476.5000000000009 2.5000000000000004 5550.0000000000009 5545.0000000000009 19323.500000000004 5542.5000000000009 25343.500000000004 15714.500000000002 14331.500000000002 5509.5000000000009 12821.500000000002
decision_type=2 2 2 2 2 2 2 2 2 2 2 2 2 2 2 2 2 2 2 2 2 2 2 2 2 2 2 2 2
left_child=6 5 3 -3 7 9 8 -4 -1 -2 -10 12 13 14 -6 -7 -9 -18 19 -8 21 22 23 25 -5 26 28 -20 -14
right_child=1 2 4 24 11 15 18 16 10 -11 -12 -13 20 -15 -16 -17 17 -19 27 -21 -22 -23 -24 -25 -26 -27 -28 -29 -30
leaf_value=-0.010000145826560334 -0.011872134305286624 0.059449347299924987 -0.011872005261781534 -0.010000145854276781 -0.010000145854302471 -0.010000145854306326 -0.01000014585427807 -0.010000146369842927 -0.011872210879123371 -0.010000145772582458 -0.01187221149344257 -0.010000145854270464 -0.01000014585427359 -0.010000145854271099 -0.010000145854271015 -0.010000145854278775 -0.010000149899570909 -0.010000147800295298 -0.010000145854274452 -0.010000145854278504 -0.010000145854273872 -0.010000145854273666 -0.010000145854269582 -0.010000145854273201 -0.010000145854274743 -0.010000145854274179 -0.010000145854269176 -0.010000145854269319 -0.010000145854270091
leaf_count=175 22 20 24 294 70857 30390 586 111 22 105 20 88 138 95 94 2051 72 82 147 1130 131 126 72 116 157 139 69 70 76
internal_value=0 -0.948938 -0.759082 5.633 -1.11268 -1.15302 -1.18619 -1.18674 -1.18714 -1.18708 -1.18722 -1.00001 -1.00001 -1.00001 -1.00001 -1.00001 -1.00001 -1.00001 -1.00001 -1.00001 -1.00001 -1.00001 -1.00001 -1.00001 -1.00001 -1.00001 -1.00001 -1.00001 -1.00001
internal_count=107479 105329 72761 471 72290 32568 2150 289 217 127 42 72001 71913 71046 70951 32441 265 154 1933 1716 867 736 610 538 451 422 283 217 214
shrinkage=0.01


Tree=3
num_leaves=30
num_cat=0
split_feature=13 7 13 7 12 7 7 12 7 13 3 3 3 4 4 10 10 10 10 10 3 3 3 7 7 7 7 7 7
split_gain=0.283253 0.46199 1.29688 1.39022 0.0292277 0.00694283 0.000797439 0.000124138 5.8326e-05 1.56302e-09 1.11022e-16 1.11022e-16 1.11022e-16 1.11022e-16 1.11022e-16 1.11022e-16 1.11022e-16 1.11022e-16 1.11022e-16 1.11022e-16 5.55112e-17 5.55112e-17 2.77556e-17 2.77556e-17 2.77556e-17 1.38778e-17 1.38778e-17 1.38778e-17 1.38778e-17
threshold=17.500000000000004 631.50000000000011 16.500000000000004 729.50000000000011 105.50000000000001 847.50000000000011 729.50000000000011 105.50000000000001 516.00000000000011 15.500000000000002 9.5000000000000018 8.5000000000000018 7.5000000000000009 45128.000000000007 14972.000000000002 1757.5000000000002 182.50000000000003 103.50000000000001 94.500000000000014 71.500000000000014 9.5000000000000018 8.5000000000000018 9.5000000000000018 25896.500000000004 25015.500000000004 24916.500000000004 24586.500000000004 24262.500000000004 23813.500000000004
decision_type=2 2 2 2 2 2 2 2 2 2 2 2 2 2 2 2 2 2 2 2 2 2 2 2 2 2 2 2 2
left_child=1 7 5 -4 6 -3 8 9 -2 -1 11 12 13 14 15 16 17 18 19 -6 21 -7 23 24 -5 26 27 28 -13
right_child=4 2 3 22 10 20 -8 -9 -10 -11 -12 25 -14 -15 -16 -17 -18 -19 -20 -21 -22 -23 -24 -25 -26 -27 -28 -29 -30
leaf_value=-0.011849427387548142 -0.010000144172254406 -0.011849206976643678 0.023965046858972709 -0.010000144172249145 -0.010000144176543286 -0.010000144172249157 -0.010000144172248817 -0.010000144172246147 -0.011850115463465561 -0.011848768024064892 -0.010000144172248836 -0.010000144172249054 -0.010000144172411603 -0.010000144172240212 -0.010000144172240096 -0.01000014417224898 -0.01000014417224809 -0.010000144172244523 -0.010000144172244978 -0.010000144172247896 -0.010000144172248536 -0.010000144172249044 -0.010000144172247911 -0.010000144172248289 -0.010000144172247774 -0.010000144172245904 -0.01000014417223959 -0.010000144172240441 -0.01000014417223959
leaf_count=22 118 22 77 12936 52374 17324 1619 252 54 46 1916 4858 3316 77 76 3169 624 148 164 532 1045 4492 538 761 486 210 72 79 72
internal_value=0 -0.793395 -0.371762 0.924669 -1.16215 -1.11371 -1.18436 -1.18444 -1.18497 -1.18491 -1.00001 -1.00001 -1.00001 -1.00001 -1.00001 -1.00001 -1.00001 -1.00001 -1.00001 -1.00001 -1.00001 -1.00001 -1.00001 -1.00001 -1.00001 -1.00001 -1.00001 -1.00001 -1.00001
internal_count=107479 38001 37681 14798 69478 22883 1791 320 172 68 67687 65771 60480 57164 57087 57011 53842 53218 53070 52906 22861 21816 14721 14183 13422 5291 5081 5009 4930
shrinkage=0.01


Tree=4
num_leaves=30
num_cat=0
split_feature=13 7 13 2 7 12 7 7 7 12 7 2 13 7 2 2 2 2 2 2 2 2 7 7 7 7 7 7 12
split_gain=0.283173 0.459289 1.27759 1.69922 2.82206 0.0282657 0.00671752 0.00193479 0.000771018 0.000120025 5.63931e-05 1.50727e-09 4.39225e-09 1.95399e-14 1.11022e-16 5.55112e-17 5.55112e-17 5.55112e-17 5.55112e-17 1.11022e-16 1.38778e-17 1.38778e-17 1.38778e-17 1.38778e-17 1.38778e-17 1.38778e-17 1.38778e-17 1.38778e-17 1.38778e-17
threshold=17.500000000000004 631.50000000000011 16.500000000000004 5314.5000000000009 729.50000000000011 105.50000000000001 847.50000000000011 729.50000000000011 729.50000000000011 105.50000000000001 516.00000000000011 5256.0000000000009 15.500000000000002 631.50000000000011 5484.5000000000009 5532.5000000000009 5241.5000000000009 5484.5000000000009 5481.5000000000009 5462.5000000000009 5312.0000000000009 5303.5000000000009 21526.500000000004 25343.500000000004 23930.500000000004 23044.500000000004 22293.500000000004 18124.500000000004 257.50000000000006
decision_type=2 2 2 2 2 2 2 2 2 2 2 2 2 2 2 2 2 2 2 2 2 2 2 2 2 2 2 2 2
left_child=1 9 6 7 -5 8 -3 -4 10 11 -2 -1 -13 -12 -7 16 -8 18 19 -18 21 28 -6 24 25 26 27 -16 -9
right_child=5 2 3 4 22 14 15 20 -10 -11 13 12 -14 -15 23 -17 17 -19 -20 -21 -22 -23 -24 -25 -26 -27 -28 -29 -30
leaf_value=-0.011827647059209507 -0.010000143077587524 -0.011827428354371569 -0.011888754306865042 0.055301746731986602 -0.010000143077582147 -0.010000143080747415 -0.010000143077581878 -0.010000143077582117 -0.010000143077581878 -0.01000014307757918 -0.011828320519934144 -0.011827526185483944 -0.011825939284927716 -0.011828321587705479 -0.010000143077582074 -0.010000143077579142 -0.010000143077582227 -0.010000143077580979 -0.010000143077578029 -0.01000014307758048 -0.010000143077580157 -0.010000143077580822 -0.010000143077581956 -0.010000143077580299 -0.010000143077578485 -0.010000143077576887 -0.010000143077576486 -0.010000143077581071 -0.010000143077581269
leaf_count=22 118 22 31 46 6066 62571 1827 4839 1619 252 31 20 26 23 3737 224 19708 545 165 392 332 485 2295 356 185 130 121 587 704
internal_value=0 -0.790336 -0.369556 0.910932 2.61385 -1.16028 -1.11245 -1.11264 -1.18219 -1.18227 -1.18279 -1.18273 -1.1827 -1.18283 -1.00001 -1.00001 -1.00001 -1.00001 -1.00001 -1.00001 -1.00001 -1.00001 -1.00001 -1.00001 -1.00001 -1.00001 -1.00001 -1.00001 -1.00001
internal_count=107479 38001 37681 14798 8407 69478 22883 6391 1791 320 172 68 46 54 67687 22861 22637 20810 20265 20100 6360 6028 8361 5116 4760 4575 4445 4324 5543
shrinkage=0.01


Tree=5
num_leaves=30
num_cat=0
split_feature=14 13 7 13 2 7 12 7 7 7 12 7 13 2 7 2 2 2 2 2 2 2 2 2 2 2 2 2 2
split_gain=861.244 0.318633 0.409683 0.805723 2.08138 2.65743 0.0271491 0.00575959 0.00234527 0.000744015 0.000118702 5.54502e-05 1.84304e-09 9.44769e-10 1.77636e-14 1.11022e-16 1.11022e-16 1.11022e-16 1.11022e-16 2.77556e-17 2.77556e-17 1.38778e-17 1.38778e-17 1.38778e-17 2.77556e-17 1.38778e-17 1.38778e-17 1.38778e-17 6.93889e-18
threshold=7116.0000000000009 17.500000000000004 631.50000000000011 16.500000000000004 5314.5000000000009 729.50000000000011 105.50000000000001 847.50000000000011 729.50000000000011 729.50000000000011 105.50000000000001 516.00000000000011 15.500000000000002 5256.0000000000009 631.50000000000011 5453.5000000000009 5452.5000000000009 5445.5000000000009 5433.5000000000009 5550.0000000000009 5467.5000000000009 5479.5000000000009 5467.5000000000009 5456.5000000000009 5410.5000000000009 5313.5000000000009 5297.5000000000009 5285.0000000000009 5275.5000000000009
decision_type=2 2 2 2 2 2 2 2 2 2 2 2 2 2 2 2 2 2 2 2 2 2 2 2 2 2 2 2 2
left_child=1 2 10 7 8 -6 9 -4 -5 11 12 -3 -1 -14 -13 16 17 18 -8 20 -17 22 23 24 -7 26 27 28 -10
right_child=-2 6 3 4 5 21 15 -9 25 -11 -12 14 13 -15 -16 19 -18 -19 -20 -21 -22 -23 -24 -25 -26 -27 -28 -29 -30
leaf_value=-0.011805942697204022 8.6022752406402958 -0.010000141304050077 -0.0118056503119568 -0.011869730323482652 0.052846169147699691 -0.010000141304055164 -0.010000141307855412 -0.010000141304055275 -0.010000141304055124 -0.010000141304054917 -0.010000141304052267 -0.011806821782355788 -0.011805454721056945 -0.011804675742975897 -0.011806822865925508 -0.010000141304054555 -0.010000141304054713 -0.010000141304054392 -0.010000141304498536 -0.010000141304052287 -0.0100001413041648 -0.01000014130405434 -0.010000141304052872 -0.010000141304049614 -0.010000141304055004 -0.010000141304049004 -0.010000141304054697 -0.01000014130405436 -0.010000141304053523
leaf_count=22 82 120 21 30 47 4977 52957 22856 3917 1616 258 30 24 24 22 941 1192 773 1787 234 9647 731 290 124 2338 112 1164 747 396
internal_value=0 -1.05706 -0.747767 -0.370567 0.454225 2.52973 -1.15773 -1.09858 -1.13983 -1.18003 -1.17999 -1.18064 -1.18055 -1.18051 -1.18068 -1.00001 -1.00001 -1.00001 -1.00001 -1.00001 -1.00001 -1.00001 -1.00001 -1.00001 -1.00001 -1.00001 -1.00001 -1.00001 -1.00001
internal_count=107479 107397 38078 37750 14873 8507 69319 22877 6366 1788 328 172 70 48 52 67531 56709 55517 54744 10822 10588 8460 7729 7439 7315 6336 6224 5060 4313
shrinkage=0.01



feature importances:
smart_9_raw=70
smart_3_raw=57
smart_193_raw=18
smart_194_raw=12
smart_4_raw=7
smart_191_raw=5
smart_5_raw=4
smart_196_raw=1

pandas_categorical:[]
