tree
version=v2
num_class=1
num_tree_per_iteration=1
label_index=0
max_feature_idx=14
objective=binary sigmoid:1
feature_names=smart_1_raw smart_3_raw smart_4_raw smart_5_raw smart_7_raw smart_9_raw smart_10_raw smart_11_raw smart_12_raw smart_194_raw smart_196_raw smart_197_raw smart_198_raw smart_199_raw smart_200_raw
feature_infos=[0:1] [2608:2883] [31:115] [0:8] none [36454:59759] none none [31:115] [19:45] [0:1] none none none none
tree_sizes=2407 1418 1829 2462 2450 2464 2477 2472

Tree=0
num_leaves=30
num_cat=0
split_feature=5 5 2 9 9 2 2 2 2 2 2 2 5 2 5 5 5 2 2 5 5 5 5 5 5 5 5 5 5
split_gain=60.5159 181.513 23.8772 51.1877 4.10716 78.8136 8.88178e-16 4.44089e-16 4.44089e-16 4.44089e-16 4.44089e-16 2.22045e-16 4.44089e-16 2.22045e-16 2.22045e-16 1.11022e-16 1.11022e-16 5.55112e-17 5.55112e-17 5.55112e-17 5.55112e-17 5.55112e-17 2.77556e-17 2.77556e-17 2.77556e-17 2.77556e-17 2.77556e-17 2.77556e-17 1.38778e-17
threshold=54727.500000000007 54963.000000000007 79.500000000000014 30.500000000000004 36.500000000000007 88.500000000000014 36.500000000000007 82.500000000000014 37.500000000000007 80.500000000000014 69.500000000000014 38.500000000000007 53147.500000000007 49.500000000000007 50233.500000000007 49622.000000000007 42758.500000000007 48.500000000000007 47.500000000000007 48320.500000000007 40406.000000000007 46286.500000000007 51592.000000000007 41587.000000000007 45322.500000000007 50493.000000000007 45946.500000000007 50233.500000000007 58935.000000000007
decision_type=2 2 2 2 2 2 2 2 2 2 2 2 2 2 2 2 2 2 2 2 2 2 2 2 2 2 2 2 2
left_child=4 -2 28 -4 6 22 15 8 -8 10 11 24 13 17 -15 19 -9 18 -13 20 -1 26 23 -6 -10 -16 -22 -25 -3
right_child=1 2 3 -5 5 -7 7 16 9 -11 -12 12 -14 14 25 -17 -18 -19 -20 -21 21 -23 -24 27 -26 -27 -28 -29 -30
leaf_value=-7.4255422908138122 -6.2372561141028644 -7.4255422908138122 -7.4255422908138122 -6.5937419671161743 -7.4255422908138122 -6.5937419671161743 -7.4255422908138113 -7.4255422908138122 -7.4255422908138122 -7.4255422908138122 -7.4255422908138122 -7.4255422908138122 -7.4255422908138122 -7.4255422908138122 -7.4255422908138122 -7.4255422908138122 -7.4255422908138122 -7.4255422908138122 -7.4255422908138122 -7.4255422908138122 -7.4255422908138122 -7.4255422908138122 -7.4255422908138122 -7.4255422908138122 -7.4255422908138122 -7.4255422908138122 -7.4255422908138122 -7.4255422908138122 -7.4255422908138122
leaf_count=245 28 128 32 20 61 20 25 35 100 103 1324 415 100 1647 25 128 880 140 77 38 308 101 88 164 105 217 23 48 25
internal_value=0 20.4191 7.11452 30.9917 -0.741353 3.3658 -1.0006 -1.0006 -1.0006 -1.0006 -1.0006 -1.0006 -1.0006 -1.0006 -1.0006 -1.0006 -1.0006 -1.0006 -1.0006 -1.0006 -1.0006 -1.0006 -1.0006 -1.0006 -1.0006 -1.0006 -1.0006 -1.0006 -1.0006
internal_count=6650 233 205 52 6417 381 6036 5193 4278 4253 4150 2826 2621 2521 1889 843 915 632 492 715 677 432 361 273 205 242 331 212 153
shrinkage=1


Tree=1
num_leaves=17
num_cat=0
split_feature=5 5 1 5 2 9 9 2 1 1 2 2 2 5 2 5
split_gain=43.1751 33.7349 15.9143 54.1841 14.2976 15.0487 1.27715e-09 1.06585e-08 4.44089e-16 1.11022e-16 1.11022e-16 1.11022e-16 1.11022e-16 1.38778e-17 6.93889e-18 6.93889e-18
threshold=54727.500000000007 54963.000000000007 2879.0000000000005 40723.500000000007 79.500000000000014 30.500000000000004 36.500000000000007 86.500000000000014 2770.5000000000005 2870.5000000000005 83.500000000000014 68.500000000000014 31.500000000000004 56027.000000000007 86.500000000000014 47014.500000000007
decision_type=2 2 2 2 2 2 2 2 2 2 2 2 2 2 2 2
left_child=2 -2 6 -4 13 -6 8 -8 -1 10 11 12 -10 -3 15 -11
right_child=1 4 3 -5 5 -7 7 -9 9 14 -12 -13 -14 -15 -16 -17
leaf_value=-0.010005958397241995 0.35673414396849035 -0.010005958397241636 -0.010005958397241815 0.69358868226577686 -0.010005958397241476 0.35624165801261493 -0.010005958397241959 -0.010012658404932357 -0.010005958397241353 -0.010005958397241686 -0.010005958397241768 -0.010005958397241508 -0.010005958397241983 -0.010005958397241846 -0.010005958397241355 -0.010005958397241162
leaf_count=4754 28 46 80 20 32 20 352 23 23 53 72 34 960 107 26 20
internal_value=0 14.6292 -0.7398 15.1746 6.27716 20.5751 -1.0006 -1.00067 -1.0006 -1.0006 -1.0006 -1.0006 -1.0006 -1.0006 -1.0006 -1.0006
internal_count=6650 233 6417 100 205 52 6317 375 5942 1188 1089 1017 983 153 99 73
shrinkage=0.01


Tree=2
num_leaves=22
num_cat=0
split_feature=5 5 1 5 2 9 9 2 1 1 1 1 1 2 2 2 2 5 5 2 5
split_gain=36.1646 18.3124 12.9769 21.9805 10.5416 8.37619 1.23946e-09 1.03439e-08 4.44089e-16 4.44089e-16 4.44089e-16 4.44089e-16 4.44089e-16 2.77556e-17 2.77556e-17 1.38778e-17 1.38778e-17 1.38778e-17 1.38778e-17 6.93889e-18 6.93889e-18
threshold=54727.500000000007 54963.000000000007 2879.0000000000005 40723.500000000007 79.500000000000014 30.500000000000004 36.500000000000007 86.500000000000014 2870.5000000000005 2779.0000000000005 2645.5000000000005 2679.0000000000005 2770.5000000000005 79.500000000000014 73.500000000000014 70.500000000000014 67.500000000000014 52660.000000000007 44874.000000000007 79.500000000000014 41823.000000000007
decision_type=2 2 2 2 2 2 2 2 2 2 2 2 2 2 2 2 2 2 2 2 2
left_child=2 -2 6 -4 -3 -6 8 13 9 10 -1 19 -13 14 15 16 -8 -16 20 -12 -18
right_child=1 4 3 -5 5 -7 7 -9 -10 -11 11 12 -14 -15 17 -17 18 -19 -20 -21 -22
leaf_value=-0.010005898709544794 0.24711409395611239 -0.010005898709544802 -0.010005898709544726 0.34220253996878541 -0.010005898709544382 0.24677049691911748 -0.010005898709544556 -0.010012532149066649 -0.010005898709544762 -0.010005898709544901 -0.010005898709544363 -0.01000589870954491 -0.010005898709544395 -0.010005898709544105 -0.010005898709544714 -0.010005898709544261 -0.010005898709544665 -0.010005898709544601 -0.010005898709544429 -0.010005898709544587 -0.010005898709544105
leaf_count=438 28 153 80 20 32 20 42 23 99 1060 41 4223 29 21 85 26 68 54 35 52 21
internal_value=0 12.289 -0.738172 12.2391 5.75826 16.3004 -1.00059 -1.00067 -1.00059 -1.00059 -1.00059 -1.00059 -1.00059 -1.00059 -1.00059 -1.00059 -1.00059 -1.00059 -1.00059 -1.00059 -1.00059
internal_count=6650 233 6417 100 205 52 6317 375 5942 5843 4783 4345 4252 352 331 192 166 139 124 93 89
shrinkage=0.01


Tree=3
num_leaves=30
num_cat=0
split_feature=9 1 9 1 2 1 2 9 2 1 2 2 9 9 9 9 9 2 9 0 1 1 9 2 2 2 9 9 9
split_gain=27.6196 10.3216 3.17339 2.22214 7.40724 9.16859 2.42325 10.4777 7.28638 5.67192e-08 4.94939e-08 2.40776e-08 1.30049e-08 1.25878e-08 6.24074e-09 3.7653e-08 1.72822e-09 9.48053e-09 1.47777e-09 4.44089e-16 4.44089e-16 2.77556e-17 5.55112e-17 2.77556e-17 2.77556e-17 1.38778e-17 1.38778e-17 1.38778e-17 6.93889e-18
threshold=40.500000000000007 2879.0000000000005 25.500000000000004 2754.0000000000005 82.500000000000014 2870.5000000000005 50.500000000000007 28.500000000000004 34.500000000000007 2762.0000000000005 69.500000000000014 79.500000000000014 31.500000000000004 33.500000000000007 29.500000000000004 31.500000000000004 36.500000000000007 86.500000000000014 29.500000000000004 1.0000000180025095e-35 2679.0000000000005 2791.5000000000005 24.500000000000004 33.500000000000007 78.500000000000014 31.500000000000004 33.500000000000007 36.500000000000007 34.500000000000007
decision_type=2 2 2 2 2 2 2 2 2 2 2 2 2 2 2 2 2 2 2 2 2 2 2 2 2 2 2 2 2
left_child=1 3 -3 16 6 -6 7 23 -9 10 13 27 18 -8 21 -16 19 -18 -13 20 -1 22 -11 25 -17 -5 -7 28 -12
right_child=-2 2 -4 4 5 26 9 8 -10 14 11 12 -14 -15 15 24 17 -19 -20 -21 -22 -23 -24 -25 -26 -27 -28 -29 -30
leaf_value=-0.010005840215767598 0.2833331983459107 -0.010005840215767208 0.1372073829218691 -0.010005840215767106 0.1793378973010574 -0.010005840215767378 -0.010023897848872858 -0.010005840215767286 0.20071255238536873 -0.010005840215767342 -0.01000584021576705 -0.010010273464589244 -0.010018033665882086 -0.010013100891528782 -0.010014025314899744 -0.010005840215767631 -0.010005840215767619 -0.010012407007592818 -0.010012145956125148 -0.010005840215767515 -0.010005840215767682 -0.010005840215767378 -0.010005840215767616 -0.010005840215767616 -0.01000584021576697 -0.010005840215767543 -0.010005840215767095 -0.010005840215767399 -0.010005840215767246
leaf_count=531 33 32 68 23 84 56 35 43 61 50 27 108 31 20 103 322 232 23 135 89 3710 56 255 249 24 122 29 60 39
internal_value=0 -0.252093 10.5471 -0.490589 0.620664 8.76511 -0.11671 2.30638 12.7846 -1.00093 -1.00125 -1.00108 -1.00125 -1.00211 -1.00071 -1.00081 -1.00059 -1.00069 -1.00114 -1.00058 -1.00058 -1.00058 -1.00058 -1.00058 -1.00058 -1.00058 -1.00058 -1.00058 -1.00058
internal_count=6650 6617 100 6517 1932 169 1763 498 104 1265 455 400 274 55 810 449 4585 255 243 4330 4241 361 305 394 346 145 85 126 66
shrinkage=0.01


Tree=4
num_leaves=30
num_cat=0
split_feature=5 1 5 5 2 9 9 2 9 1 1 5 9 1 9 5 2 1 1 5 2 5 5 5 5 1 5 5 5
split_gain=30.2866 10.1114 11.4714 9.53 8.17111 5.33809 1.78553e-09 9.05747e-09 7.21287e-10 2.81885e-10 2.93845e-10 1.07389e-10 9.8705e-11 8.69491e-11 2.46899e-10 4.04666e-10 4.93646e-11 4.44089e-16 5.55112e-17 5.55112e-17 2.77556e-17 2.77556e-17 2.77556e-17 1.38778e-17 1.38778e-17 6.93889e-18 6.93889e-18 6.93889e-18 6.93889e-18
threshold=54727.500000000007 2879.0000000000005 40723.500000000007 54963.000000000007 79.500000000000014 30.500000000000004 36.500000000000007 86.500000000000014 40.500000000000007 2849.5000000000005 2870.5000000000005 42563.000000000007 25.500000000000004 2812.0000000000005 28.500000000000004 43660.000000000007 79.500000000000014 2658.0000000000005 2645.5000000000005 41636.500000000007 31.500000000000004 55568.500000000007 50407.500000000007 49385.500000000007 53147.500000000007 2779.0000000000005 44826.000000000007 43713.500000000007 41823.000000000007
decision_type=2 2 2 2 2 2 2 2 2 2 2 2 2 2 2 2 2 2 2 2 2 2 2 2 2 2 2 2 2
left_child=1 6 12 -2 21 -6 9 8 16 13 11 -11 -3 17 20 28 19 18 -1 25 -15 -5 23 -21 -24 -8 27 -13 -16
right_child=3 2 -4 4 5 -7 7 -9 -10 10 -12 26 -14 14 15 -17 -18 -19 -20 22 -22 -23 24 -25 -26 -27 -28 -29 -30
leaf_value=-0.010005781967517658 0.17575079414440314 -0.010005781967517297 0.20848798093255191 -0.010005782005376041 -0.010005782120521769 0.18872205902030115 -0.010005781967517351 -0.010012283692742926 -0.010007752952772245 -0.0100059247050835 -0.010005781967517604 -0.010006988001858 -0.010006699266282124 -0.010005781967517112 -0.010005781967517479 -0.010007138475648587 -0.010006413246642127 -0.010005781996379828 -0.010005781967517566 -0.010005781967517583 -0.010005781967517733 -0.010005781969748247 -0.010005781967517589 -0.010005781967517358 -0.010005781967516914 -0.010005781967517113 -0.01000698800185789 -0.010006988001857977 -0.010005781967517087
leaf_count=438 28 32 20 31 32 20 36 23 28 20 99 25 48 23 58 57 21 4700 81 89 371 122 91 41 20 26 21 24 25
internal_value=0 -0.736099 9.37633 10.3266 5.36167 13.5336 -1.00059 -1.00067 -1.0006 -1.00058 -1.00063 -1.00068 -1.00064 -1.00058 -1.0006 -1.00064 -1.00058 -1.00058 -1.00058 -1.00058 -1.00058 -1.00058 -1.00058 -1.00058 -1.00058 -1.00058 -1.0007 -1.0007 -1.00058
internal_count=6650 6417 100 233 205 52 6317 375 352 5942 189 90 80 5753 534 140 324 5219 519 303 394 153 241 130 111 62 70 49 83
shrinkage=0.01


Tree=5
num_leaves=30
num_cat=0
split_feature=1 5 5 2 5 2 5 2 5 1 2 1 1 2 5 2 1 5 5 5 5 5 2 5 5 5 5 1 5
split_gain=9.71986 9.06648 3.27209 16.4141 4.02022e-07 1.29847e-07 3.70664e-08 1.00318e-09 4.77858e-09 2.08954e-09 6.23779e-10 3.52351e-10 3.02809e-10 1.53749e-10 1.3733e-10 9.88746e-11 6.06679e-11 5.84283e-11 1.55042e-10 1.00413e-10 7.0391e-11 5.14101e-11 1.77893e-11 5.91472e-11 1.32175e-11 1.3985e-11 1.1108e-11 7.6219e-12 1.79597e-11
threshold=2879.0000000000005 40624.500000000007 54727.500000000007 68.500000000000014 55281.000000000007 79.500000000000014 56027.000000000007 90.500000000000014 44924.500000000007 2704.0000000000005 95.500000000000014 2849.5000000000005 2870.5000000000005 83.500000000000014 53992.500000000007 76.500000000000014 2812.0000000000005 43599.500000000007 47597.500000000007 46803.500000000007 44284.500000000007 39494.000000000007 88.500000000000014 49622.000000000007 45322.500000000007 46046.000000000007 54372.000000000007 2629.0000000000005 41636.500000000007
decision_type=2 2 2 2 2 2 2 2 2 2 2 2 2 2 2 2 2 2 2 2 2 2 2 2 2 2 2 2 2
left_child=2 21 7 -4 -5 -6 -7 11 9 10 -9 14 13 -13 16 26 22 -18 19 20 -19 -2 27 -24 -22 -26 -16 28 -1
right_child=1 -3 3 4 5 6 -8 8 -10 -11 -12 12 -14 -15 15 -17 17 18 -20 -21 24 -23 23 -25 25 -27 -28 -29 -30
leaf_value=-0.010005725014444048 -0.010006611121231468 0.18524765693122575 0.18942334459490018 -0.010042308568316267 -0.010005725018927311 -0.010010715810709508 -0.010028687280514504 -0.010008826087913323 -0.01000572501444482 -0.010005725014444111 -0.010011430166647661 -0.010005725015280366 -0.010005725014444689 -0.010006917474059403 -0.010005725053126958 -0.01000673400279717 -0.010005725014444806 -0.010006754645934566 -0.010005744340638152 -0.010007067482289824 -0.010005725014444246 -0.010005928910304718 -0.010006525111198506 -0.01000572501444461 -0.010006331004183211 -0.010005866218093969 -0.010006087808994143 -0.010005726043861197 -0.010006071799302369
leaf_count=85 36 20 24 34 120 21 23 21 343 23 22 23 96 88 32 36 237 22 171 22 28 35 20 67 20 23 26 4896 36
internal_value=0 9.45705 -0.747154 2.52706 -1.00263 -1.00155 -1.0025 -1.00058 -1.00064 -1.00092 -1.00104 -1.00058 -1.00063 -1.00067 -1.00058 -1.00062 -1.00057 -1.00059 -1.0006 -1.00064 -1.00062 -1.00063 -1.00057 -1.00059 -1.0006 -1.00061 -1.00059 -1.00057 -1.00058
internal_count=6650 91 6559 222 198 164 44 6337 409 66 43 5928 207 111 5721 94 5627 523 286 115 93 71 5104 87 71 43 58 5017 121
shrinkage=0.01


Tree=6
num_leaves=30
num_cat=0
split_feature=5 5 2 5 5 5 5 2 2 9 9 2 2 2 5 2 5 9 2 2 5 9 2 2 9 5 2 5 9
split_gain=3.02428 47.9532 8.0981 18.7534 8.88135e-07 6.81741e-07 1.47718e-07 1.52932e-07 1.27598e-07 6.41274e-08 9.53572e-09 2.52537e-08 2.11791e-08 1.43352e-08 5.7691e-09 1.43914e-09 1.27903e-09 4.58988e-10 1.30143e-10 8.96264e-10 2.11104e-09 2.07851e-10 2.51697e-10 1.66072e-10 7.46789e-11 6.50172e-11 4.86668e-11 8.78738e-11 1.64387e-10
threshold=49088.500000000007 49160.000000000007 39.500000000000007 53992.500000000007 54727.500000000007 54963.000000000007 48890.500000000007 87.500000000000014 79.500000000000014 29.500000000000004 33.500000000000007 74.500000000000014 78.500000000000014 87.500000000000014 44579.500000000007 72.500000000000014 48131.000000000007 39.500000000000007 71.500000000000014 72.500000000000014 40723.500000000007 32.500000000000007 84.500000000000014 83.500000000000014 33.500000000000007 39494.000000000007 35.500000000000007 46594.500000000007 28.500000000000004
decision_type=2 2 2 2 2 2 2 2 2 2 2 2 2 2 2 2 2 2 2 2 2 2 2 2 2 2 2 2 2
left_child=6 -2 3 -3 17 -6 10 -8 24 -10 18 15 -13 -14 -15 -12 -17 -4 26 20 25 -21 23 -23 -7 -20 27 -1 -29
right_child=1 2 4 -5 5 8 7 -9 9 -11 11 12 13 14 -16 16 -18 -19 19 21 -22 22 -24 -25 -26 -27 -28 28 -30
leaf_value=-0.010005745543669517 0.499487601982741 -0.01000568098012017 -0.010005668044649939 0.26878952825760938 -0.010046796163519389 -0.010006398810339439 -0.010005668375295275 -0.010035689549633743 -0.010005667459720926 -0.010028683252875573 -0.010005690469652171 -0.010019633358835708 -0.010005904033362273 -0.010010069024909553 -0.01001685540790033 -0.010010077872340267 -0.010005668390419959 -0.010007451789983 -0.010006544813023075 -0.010005668179974383 -0.010010445117890466 -0.010005668170219443 -0.010005667434804662 -0.010006849081709792 -0.010005667312498372 -0.01000589143214874 -0.01000566836164128 -0.010005668279328066 -0.010006996841236734
leaf_count=501 24 130 1032 22 24 28 59 24 27 23 578 21 105 33 20 22 21 20 36 1115 20 28 113 70 116 74 2303 37 24
internal_value=0 1.00932 0.0242477 8.12291 -1.00125 -1.00277 -1.00063 -1.00209 -1.00143 -1.00239 -1.0006 -1.00073 -1.00109 -1.00091 -1.00131 -1.00059 -1.00081 -1.00057 -1.00057 -1.00058 -1.00069 -1.00057 -1.00061 -1.00066 -1.00058 -1.00061 -1.00057 -1.00058 -1.00063
internal_count=6650 1446 1422 152 1270 218 5204 83 194 50 5121 800 179 158 53 621 43 1052 4321 1456 130 1326 211 98 144 110 2865 562 61
shrinkage=0.01


Tree=7
num_leaves=30
num_cat=0
split_feature=1 5 5 2 5 2 9 9 2 9 1 5 9 5 1 9 5 5 5 2 5 5 9 9 5 5 5 5 5
split_gain=8.45893 6.15043 3.11391 11.3939 3.78569e-07 1.22278e-07 5.36837e-08 1.77407e-09 8.65405e-09 5.39491e-10 4.28972e-10 5.20092e-10 3.17548e-10 2.75125e-10 4.76858e-10 8.05615e-11 7.13896e-11 1.39322e-09 4.56686e-11 1.22614e-11 3.20837e-11 7.21521e-12 2.37025e-12 2.22675e-12 7.38186e-12 1.16568e-12 8.6864e-12 4.99628e-13 4.86368e-13
threshold=2879.0000000000005 40624.500000000007 54727.500000000007 68.500000000000014 55281.000000000007 79.500000000000014 29.500000000000004 36.500000000000007 86.500000000000014 40.500000000000007 2812.0000000000005 53817.500000000007 27.500000000000004 42453.000000000007 2870.5000000000005 25.500000000000004 49088.500000000007 49231.000000000007 47069.500000000007 76.500000000000014 52660.000000000007 43118.500000000007 30.500000000000004 38.500000000000007 49871.000000000007 49088.500000000007 50151.000000000007 45419.500000000007 43973.500000000007
decision_type=2 2 2 2 2 2 2 2 2 2 2 2 2 2 2 2 2 2 2 2 2 2 2 2 2 2 2 2 2
left_child=2 15 7 -4 -5 -6 -7 10 9 19 16 12 25 -14 18 -2 -1 22 21 23 -21 -15 -18 -9 -25 -12 -27 28 -23
right_child=1 -3 3 4 5 6 -8 8 -10 -11 11 -13 13 14 -16 -17 17 -19 -20 20 -22 27 -24 24 -26 26 -28 -29 -30
leaf_value=-0.010005611092346061 -0.010005612095356107 0.14354487720410816 0.13768796068377087 -0.010041467763002965 -0.010005611094325201 -0.01000561115627281 -0.010028620830154886 -0.010005611090920116 -0.010011644726065303 -0.010007523995158014 -0.010005611160456413 -0.010007676346416097 -0.010005611096904857 -0.01000654782194191 -0.010005611090764191 -0.010006501513694926 -0.010007760398469448 -0.010005611099182592 -0.010007332865960195 -0.01000625129821822 -0.010005611089498019 -0.010006749554664303 -0.010007939740175125 -0.010005911221459081 -0.010005611089917687 -0.010005911171348547 -0.010005611090081032 -0.010006727297616987 -0.010006816213519896
leaf_count=4343 29 20 24 34 120 22 22 191 28 23 252 23 107 26 87 42 20 850 21 20 38 24 20 20 50 20 103 21 50
internal_value=0 8.20239 -0.744109 2.37236 -1.00258 -1.00152 -1.00245 -1.00057 -1.00066 -1.00058 -1.00057 -1.0006 -1.00059 -1.00062 -1.00064 -1.00062 -1.00056 -1.00057 -1.00068 -1.00057 -1.00058 -1.00067 -1.00079 -1.00056 -1.00057 -1.00056 -1.00057 -1.00068 -1.00068
internal_count=6650 91 6559 222 198 164 44 6337 370 342 5967 734 711 336 229 71 5233 890 142 319 58 121 40 261 70 375 123 95 74
shrinkage=0.01



feature importances:
smart_9_raw=82
smart_4_raw=60
smart_194_raw=37
smart_3_raw=31
smart_1_raw=1

pandas_categorical:[]
