tree
version=v2
num_class=1
num_tree_per_iteration=1
label_index=0
max_feature_idx=4
objective=binary sigmoid:1
feature_names=smart_1_raw smart_5_raw smart_9_raw smart_194_raw smart_197_raw
feature_infos=[0:244140173] [0:4118] [10:55368] [17:42] [0:590]
tree_sizes=2297 2304

Tree=0
num_leaves=30
num_cat=0
split_feature=4 2 2 4 0 4 4 2 0 2 4 3 0 3 4 2 0 2 2 2 0 2 0 0 0 0 4 3 0
split_gain=1458.08 501.016 405.202 209.089 466.94 365.797 311.627 1036.06 176.306 175.232 172.34 117.721 198.179 114.035 111.526 110.582 176.909 99.3899 273.505 159.889 148.12 284.956 68.0712 64.4697 50.5147 95.9743 35.6643 29.6249 44.2272
threshold=6.5000000000000009 45252.500000000007 11766.500000000002 12.500000000000002 201856308.00000003 8.5000000000000018 25.500000000000004 36022.500000000007 106051323.50000001 48971.500000000007 232.00000000000003 31.500000000000004 134660805.00000003 21.500000000000004 1.0000000180025095e-35 30022.500000000004 134660805.00000003 36969.500000000007 38157.500000000007 37406.500000000007 24006452.000000004 44148.500000000007 235426314.50000003 49794804.500000007 220916467.50000003 230571891.00000003 4.5000000000000009 23.500000000000004 122219855.50000001
decision_type=2 2 2 2 2 2 2 2 2 2 2 2 2 2 2 2 2 2 2 2 2 2 2 2 2 2 2 2 2
left_child=14 2 -2 4 5 23 22 10 -7 -3 11 13 -13 -8 -1 -15 -17 -16 19 -19 21 -20 27 -4 26 -26 -22 28 -5
right_child=1 9 3 6 -6 8 7 -9 -10 -11 -12 12 -14 15 17 16 -18 18 20 -21 24 -23 -24 -25 25 -27 -28 -29 -30
leaf_value=-7.3417284348216691 -5.3397041482883605 -5.0669604378997688 -6.5782085422808363 -7.3480896520598469 -5.1484293384054816 -6.6481977340789227 -6.5157857495960219 -4.8511779446683718 -5.0384463227228142 -6.41490042808526 -5.9483058160979994 -5.9045625712241598 -7.3480896520598469 -7.3480896520598478 -7.3167724543739192 -5.8083274325018248 -7.3480896520598469 -6.9081575893289688 -7.3480896520598469 -5.6372427414397883 -7.3224696484066341 -5.6983444168190731 -6.5782085422808363 -7.3480896520598478 -6.4926661967498056 -7.3480896520598478 -6.9203779244048267 -7.3480896520598478 -6.5782085422808363
leaf_count=208167 23 27 20 27 28 22 37 37 20 33 22 32 27 254 1475 20 27 35 38 27 601 28 20 103 36 46 36 444 20
internal_value=0 42.3555 36.745 33.5113 70.8017 45.6588 26.0686 49.6494 145.643 152.976 32.073 26.1488 77.2923 17.2214 -0.269134 9.23033 64.5211 8.28302 18.9963 98.3388 12.7297 68.9885 5.02582 11.5177 7.56548 36.5545 3.83377 2.13532 31.7602
internal_count=211732 1243 1183 1160 193 165 967 456 42 60 419 397 59 338 210489 301 47 2322 847 62 785 66 511 123 719 82 637 491 47
shrinkage=1


Tree=1
num_leaves=30
num_cat=0
split_feature=1 4 1 4 3 0 3 3 3 0 0 0 0 4 3 4 3 4 0 4 1 1 0 4 4 1 0 1 3
split_gain=5958.74 1314.99 745.735 540.182 404.595 517.737 348.589 275.471 442.618 328.751 178.157 70.9162 157.904 150.933 112.465 108.875 92.0055 142.597 73.3324 101.706 133.848 45.8436 43.5762 41.8035 40.7958 109.581 40.5292 33.7944 30.0534
threshold=2524.0000000000005 4.5000000000000009 2726.5000000000005 6.5000000000000009 32.500000000000007 111754487.50000001 29.500000000000004 30.500000000000004 28.500000000000004 124056739.50000001 185764321.50000003 94427087.500000015 98257935.500000015 33.500000000000007 33.500000000000007 13.500000000000002 26.500000000000004 11.500000000000002 228635934.50000003 111.50000000000001 1102.5000000000002 68.500000000000014 79545771.500000015 206.00000000000003 186.50000000000003 436.50000000000006 213305460.50000003 370.50000000000006 25.500000000000004
decision_type=2 2 2 2 2 2 2 2 2 2 2 2 2 2 2 2 2 2 2 2 2 2 2 2 2 2 2 2 2
left_child=3 2 6 21 7 -6 -2 8 9 -4 -11 14 -13 15 24 16 17 -14 19 20 28 -1 -9 -21 -5 -26 27 -18 -15
right_child=1 -3 4 11 5 -7 -8 22 -10 10 -12 12 13 18 -16 -17 26 -19 -20 23 -22 -23 -24 -25 25 -27 -28 -29 -30
leaf_value=-0.0079253968459928065 -0.010006497363406332 0.446027874216541 1.9186740895086993 0.027218432556856308 -0.010006486275618237 2.4046468268942283 1.7070803162149542 3.8534388106126269 1.3260035019315921 4.4000597950571887 2.7997719133628509 0.89835887087531263 0.27945745765898361 0.5053237133203573 0.70471651242622491 0.01378724778772402 0.042548294473152781 1.1499697736249395 0.96476983612106115 -0.010009737152796946 0.24183712781923258 0.0081687711084938268 3.0752386716404523 0.35132184976270409 0.83709572822213774 -0.010019287665240942 0.34338337669730457 0.464678859667574 0.96752988545287066
leaf_count=178089 37 34 32 386 24 32 36 20 38 21 22 20 33 25 24 317 90 20 23 92 53 32095 25 23 27 24 22 22 26
internal_value=0 145.989 192.489 -0.319571 228.29 136.917 83.5607 259.057 228.238 287.179 358.179 17.0018 21.6925 19.6697 8.49515 12.5635 24.5699 51.6575 38.7608 34.5506 52.3448 -0.545543 342.076 14.2294 5.62245 28.9196 15.8832 8.46568 84.0402
internal_count=211732 321 287 211411 214 56 73 158 113 75 43 1227 766 746 461 504 187 53 242 219 104 210184 45 115 437 51 134 112 51
shrinkage=0.01



feature importances:
smart_1_raw=18
smart_197_raw=15
smart_194_raw=10
smart_9_raw=9
smart_5_raw=6

pandas_categorical:[]
