tree
version=v2
num_class=1
num_tree_per_iteration=1
label_index=0
max_feature_idx=16
objective=binary sigmoid:1
feature_names=smart_1_raw smart_3_raw smart_4_raw smart_5_raw smart_7_raw smart_9_raw smart_10_raw smart_11_raw smart_12_raw smart_192_raw smart_193_raw smart_194_raw smart_196_raw smart_197_raw smart_198_raw smart_199_raw smart_200_raw
feature_infos=[0:1667] [0:8566] [2:18] none none [7:37836] none none [2:18] [1:7] [0:1763] [18:39] none [0:18] none [0:16] none
tree_sizes=644 1154

Tree=0
num_leaves=7
num_cat=0
split_feature=0 10 0 5 0 5
split_gain=174.297 3785.89 4.44089e-16 4.44089e-16 5.55112e-17 8.67362e-19
threshold=191.50000000000003 1113.5000000000002 173.50000000000003 30270.500000000004 101.50000000000001 35691.000000000007
decision_type=2 2 2 2 2 2
left_child=2 -2 3 -1 -5 -6
right_child=1 -3 -4 4 5 -7
leaf_value=-10.275610479174436 -10.275610479174436 9.5378376395676998 -10.27561047917443 -10.275610479174436 -10.275610479174434 -10.27561047917443
leaf_count=36951 621 29 60 8094 146 61
internal_value=0 87.3984 -1.00003 -1.00003 -1.00003 -1.00003
internal_count=45962 650 45312 45252 8301 207
shrinkage=1


Tree=1
num_leaves=13
num_cat=0
split_feature=0 0 10 13 5 0 0 1 1 5 5 5
split_gain=72830.4 294760 1.74247e-05 4.41638e-06 1.62924e-05 2.22045e-16 2.22045e-16 2.22045e-16 2.22045e-16 2.22045e-16 8.67362e-19 4.33681e-19
threshold=397.50000000000006 400.00000000000006 808.50000000000011 1.0000000180025095e-35 30425.500000000004 382.50000000000006 369.00000000000006 8154.0000000000009 8162.0000000000009 2094.5000000000005 11059.500000000002 29323.500000000004
decision_type=2 2 2 2 2 2 2 2 2 2 2 2
left_child=3 -2 10 5 11 6 7 -1 -9 -10 -3 -5
right_child=1 2 -4 4 -6 -7 -8 8 9 -11 -12 -13
leaf_value=-0.010000345206355805 -136.34442183767482 -0.0100003452063539 -0.0086104153806589295 -0.010000345206351456 -0.0085626368818641982 -0.010000345206349844 -0.010000345206345415 -0.01000034520635543 -0.010000345206355565 -0.010000345206355801 -0.010000345206349886 -0.010000345206347015
leaf_count=14710 28 152 29 74 28 54 31 682 1059 29033 49 33
internal_value=0 -2715.86 -0.981936 -0.999943 -0.969302 -1.00003 -1.00003 -1.00003 -1.00003 -1.00003 -1.00003 -1.00003
internal_count=45962 258 230 45704 135 45569 45515 45484 30774 30092 201 107
shrinkage=0.01



feature importances:
smart_1_raw=7
smart_9_raw=6
smart_3_raw=2
smart_193_raw=2
smart_197_raw=1

pandas_categorical:[]
