tree
version=v2
num_class=1
num_tree_per_iteration=1
label_index=0
max_feature_idx=21
objective=binary sigmoid:1
feature_names=smart_1_raw smart_2_raw smart_3_raw smart_4_raw smart_5_raw smart_7_raw smart_8_raw smart_9_raw smart_10_raw smart_11_raw smart_12_raw smart_191_raw smart_192_raw smart_194_raw smart_195_raw smart_196_raw smart_197_raw smart_198_raw smart_199_raw smart_200_raw smart_223_raw smart_225_raw
feature_infos=[0:59751] none [1549:4296] [1:139] none none none [7:35469] none [0:8906] [1:196] [0:53056] [0:127] [16:50] none none [0:5] none [0:25] [0:791244] [0:8906] [37:2071252]
tree_sizes=2334 2405 2416 2419 2420 2449 2418

Tree=0
num_leaves=30
num_cat=0
split_feature=16 9 0 7 7 21 21 21 9 3 10 21 21 9 7 13 13 9 9 9 12 9 9 0 3 21 7 21 7
split_gain=2798.16 6917.72 940.778 131.337 446.891 512.518 4725.43 1085.28 1608.1 2239.17 4022.14 103.463 907.339 1277.42 76.174 104.31 267.103 673.333 126.858 437.26 37.0749 68.9928 276.636 29.2282 75.3881 2089.43 468.542 35.0068 471.585
threshold=1.0000000180025095e-35 798.50000000000011 89.500000000000014 1231.5000000000002 1132.5000000000002 19659.500000000004 20512.500000000004 25487.000000000004 8.5000000000000018 5.5000000000000009 9.5000000000000018 38124.500000000007 35191.500000000007 8.5000000000000018 1037.5000000000002 34.500000000000007 36.500000000000007 7.5000000000000009 54.500000000000007 61.500000000000007 1.0000000180025095e-35 5.5000000000000009 3.5000000000000004 868.50000000000011 14.500000000000002 188448.00000000003 13834.500000000002 41146.500000000007 10045.500000000002
decision_type=2 2 2 2 2 2 2 2 2 2 2 2 2 2 2 2 2 2 2 2 2 2 2 2 2 2 2 2 2
left_child=3 2 -2 4 14 -6 -7 8 -8 -10 -11 12 -9 -14 -1 18 17 -17 20 -20 -16 22 -22 -5 27 26 -26 28 -25
right_child=1 -3 -4 23 5 6 7 11 9 10 -12 -13 13 -15 15 16 -18 -19 19 -21 21 -23 -24 24 25 -27 -28 -29 -30
leaf_value=-9.3582245828330723 -2.8726237509300629 14.041357371674234 -9.3780011057831398 -9.3732570899543379 -9.3780011057831398 8.1865177523099106 -9.3780011057831398 -9.3780011057831398 -9.3780011057831381 9.5085783115251239 -9.3780011057831345 -9.3780011057831398 2.3316781329455605 -9.3780011057831363 -9.3780011057831398 -3.8019633730534794 -9.3780011057831398 -9.3780011057831381 -3.5231614864187861 -9.3780011057831381 -9.3780011057831381 -9.3780011057831398 -5.4747746928728116 -9.3780011057831398 1.7740743596730777 -9.3780011057831398 -5.0410828692162966 -9.3780011057831398 -4.2868362193789658
leaf_count=17763 36 20 94 468978 963 20 94 254 38 31 23 574 20 24 1275 42 162 64 20 59 73 159 30 289 21 945 27 4327 23
internal_value=0 467.387 179.149 -0.0563235 8.17847 56.3722 107.624 76.4742 313.776 635.396 1083.23 25.857 77.5884 531.258 3.17194 23.8612 86.3856 219.937 13.4921 147.224 6.61844 43.6933 112.686 -0.432625 7.31645 34.3766 730.855 1.5241 36.5309
internal_count=496448 150 130 496298 21688 2041 1078 1058 186 92 54 872 298 44 19647 1884 268 106 1616 79 1537 262 103 474610 5632 993 48 4639 312
shrinkage=1


Tree=1
num_leaves=30
num_cat=0
split_feature=21 21 21 19 19 2 13 9 3 19 19 19 19 2 9 21 10 9 19 12 19 13 21 10 19 13 9 13 2
split_gain=178.826 267.542 1082.68 1165.79 2143.88 1256.71 1932.23 1092.62 2439.3 288.263 1497.72 717.116 2814.58 341.675 998.704 245.859 480.629 793.751 2542.13 4039.63 6871.15 17000.8 20042.6 821.794 2218.5 1966.82 6533.99 582.374 1871.31
threshold=38124.500000000007 19659.500000000004 20512.500000000004 5643.5000000000009 5044.5000000000009 1800.5000000000002 26.500000000000004 1.0000000180025095e-35 5.5000000000000009 22108.500000000004 20923.000000000004 9409.5000000000018 10260.500000000002 1965.5000000000002 15.500000000000002 25487.000000000004 9.5000000000000018 8.5000000000000018 15062.500000000002 1.0000000180025095e-35 6813.0000000000009 28.500000000000004 23807.500000000004 7.5000000000000009 2025.5000000000002 31.500000000000004 46.500000000000007 33.500000000000007 2039.5000000000002
decision_type=2 2 2 2 2 2 2 2 2 2 2 2 2 2 2 2 2 2 2 2 2 2 2 2 2 2 2 2 2
left_child=1 -1 3 4 5 6 -3 8 -7 10 11 -5 -13 -14 -15 16 17 -4 19 23 -21 -22 -23 27 -25 -26 -27 -19 -29
right_child=-2 2 15 9 -6 7 -8 -9 -10 -11 -12 12 13 14 -16 -17 -18 18 -20 20 21 22 -24 24 25 26 -28 28 -30
leaf_value=-0.0039416394899922848 -0.011627910699332729 -0.010000853873481859 0.077064765956654152 -0.010068576697885252 -10.698113718866196 -13.100182506916713 -13.102480256202721 -0.32626300513919132 -0.010000854844796774 -0.010000849592849184 -8.875484627696407 -12.19226420043025 -0.010000851886027451 -7.6244987377215638 -0.010000849629240187 -0.043637883322210892 0.03319396163296174 -0.0099197618221443361 -0.1509870785063952 -0.010000853872138702 -0.010000850599954149 -10.173046608713314 -53.394693797499016 -11.096209210456328 -0.010000850973890321 -22.829269310346223 -0.010000849629239918 -0.0098376307537046733 -8.6344966600329958
leaf_count=46960 409217 26 2248 180 26 20 20 366 44 999 22 22 169 24 59 26731 4612 645 3340 115 66 35 21 32 228 21 52 107 41
internal_value=0 -5.79159 -10.4823 -80.1337 -223.328 -166.985 -665.813 -107.208 -496.465 -42.214 -83.4184 -61.4761 -205 -91.7005 -262.681 -7.73295 -21.1492 -39.1412 -66.0722 -190.911 -598.842 -1171.52 -2588.46 -105.413 -248.525 -157.41 -649.188 -45.4434 -239.6
internal_count=496448 87231 40271 1977 502 476 46 430 64 1475 476 454 274 252 83 38294 11563 6951 4703 1363 237 122 56 1126 333 301 73 793 148
shrinkage=0.01


Tree=2
num_leaves=30
num_cat=0
split_feature=16 21 2 7 19 9 7 21 21 3 10 2 21 21 19 7 7 9 12 19 7 21 9 21 7 21 19 19 19
split_gain=102.122 251314 44.1506 34.716 202.116 2752.89 69.1739 62.2934 530.757 17.0798 484.222 16.6142 11.7401 45.2669 67.722 371.941 30.3893 69.4958 85.2567 14.7797 8.85746 8.53142 120.162 433.695 5.61367 67.544 391.982 5.6019 5.51187
threshold=1.0000000180025095e-35 90067.500000000015 2220.5000000000005 1231.5000000000002 24297.000000000004 13.500000000000002 1132.5000000000002 23807.500000000004 24724.500000000004 5.5000000000000009 7.5000000000000009 2022.5000000000002 18851.500000000004 23807.500000000004 40.500000000000007 746.50000000000011 1037.5000000000002 4.5000000000000009 1.0000000180025095e-35 12652.500000000002 13834.500000000002 53226.000000000007 22.500000000000004 55446.000000000007 218.50000000000003 12060.500000000002 1781.5000000000002 8573.5000000000018 119014.50000000001
decision_type=2 2 2 2 2 2 2 2 2 2 2 2 2 2 2 2 2 2 2 2 2 2 2 2 2 2 2 2 2
left_child=2 -2 3 4 6 -6 12 9 -9 10 -8 -10 24 14 15 -14 -16 19 27 -18 -4 -15 -23 -24 25 -1 -27 -19 -5
right_child=1 -3 20 28 5 -7 7 8 11 -11 -12 -13 13 21 16 -17 17 18 -20 -21 -22 22 23 -25 -26 26 -28 -29 -30
leaf_value=-0.010000858894553004 -157.14880998285312 0.0004823846517239137 -0.062792069158886327 -0.0081916427234213132 -0.010124633329090445 -9.8940162496173762 -0.010041512322403521 -5.4777252094283977 -0.099609572338544228 -0.016308956045154987 -5.0423649930636643 -0.020243540465865725 -0.010000904179686869 -0.010114959509667263 -0.010000887235556524 4.6270088993322984 -0.01019854844763339 0.36263456018569684 1.5499046958018539 0.2076657658258475 -0.010028015531686203 -0.010060548039427224 5.6236448199418101 -0.010000847791116037 -0.010124863708310783 -0.010000858894551014 4.6466291315156818 -0.01000085700421839 -0.00036823540650718844
leaf_count=1739 31 119 2182 309576 168 36 272 29 592 759 20 281 98 5024 1635 24 47 53 33 22 2609 567 21 70 9925 133 25 55 160303
internal_value=0 -8.77876 -1.14109 -0.938707 -2.81215 -71.6021 -2.45488 -4.77783 -9.1862 -1.94835 -19.6364 -8.68144 1.18489 3.41659 13.1568 90.7601 10.6839 18.2893 45.5564 5.98532 -5.41027 -0.0130615 8.5131 128.67 -0.465602 5.13675 72.6808 33.4606 -0.558886
internal_count=496448 150 496298 491507 21628 204 21424 1953 902 1051 292 873 19471 7649 1967 122 1845 210 141 69 4791 5682 658 91 11822 1897 158 108 469879
shrinkage=0.01


Tree=3
num_leaves=30
num_cat=0
split_feature=11 9 2 7 7 3 9 19 19 0 13 19 7 19 7 0 0 19 3 0 3 0 19 7 9 11 2 16 0
split_gain=76.5127 555.214 44.1903 23.0767 56.9588 34.3308 16.0308 28.2337 25.9013 8.25577 30.0358 28.9922 7.83663 6.85956 6.54203 9.07158 8.15844 40.0564 559.08 15.2381 52.7568 405.05 103.043 473.931 25.5804 141.703 313.33 15.7333 14.4288
threshold=11173.500000000002 355.50000000000006 2220.5000000000005 1231.5000000000002 1132.5000000000002 5.5000000000000009 9.5000000000000018 21477.500000000004 8186.5000000000009 3998.5000000000005 27.500000000000004 210123.00000000003 13834.500000000002 23180.500000000004 13441.500000000002 868.50000000000011 64.500000000000014 6473.5000000000009 13.500000000000002 80.500000000000014 22.500000000000004 79.500000000000014 188169.50000000003 16514.500000000004 155.50000000000003 2.5000000000000004 2030.5000000000002 1.5000000000000002 67.500000000000014
decision_type=2 2 2 2 2 2 2 2 2 2 2 2 2 2 2 2 2 2 2 2 2 2 2 2 2 2 2 2 2
left_child=2 -2 3 4 -1 -6 7 8 -7 14 -11 -12 -4 -9 15 -5 -16 18 -18 20 24 22 23 -22 25 28 -27 -21 -19
right_child=1 -3 12 9 5 6 -8 13 -10 10 11 -13 -14 -15 16 -17 17 19 -20 27 21 -23 -24 -25 -26 26 -28 -29 -30
leaf_value=0.0067610540234668264 -0.010000832493534862 6.307460103218796 -0.060054955551895398 -0.0069814534166926755 -0.097064398571875293 -0.085202680733898903 -0.018726148590347599 -0.45917499528039413 -0.0030183136082037126 -0.010022414130541033 -0.01000083156869243 0.67280047880890392 -0.010028159543386457 -0.010000825580715038 -0.00414074668347824 -0.034538473052141409 -0.010000830265452072 -0.010388836995171367 6.0220315732566725 -0.0012226380363073838 -0.010000837783486012 4.5720854048262325 -0.010000836649044408 5.9467112779965543 -0.010131641389335772 4.7822532872931616 -0.010000838362270607 0.16750960345144697 0.22030328710378314
leaf_count=19589 138 20 2182 277333 547 292 806 20 325 844 130 30 2539 49 148832 1345 253 264 21 35647 78 26 541 20 3914 25 47 73 518
internal_value=0 75.5324 -0.999332 -0.807656 -2.16765 -4.15651 -3.1127 -5.70433 -5.17542 -0.482758 8.24314 38.2826 -5.22201 -38.7717 -0.505202 -0.840253 -0.0408349 1.19951 43.1231 0.965119 5.59172 34.9275 17.6967 120.74 2.62185 15.4198 164.895 0.152632 7.62582
internal_count=496448 158 496290 491569 21628 2039 1492 686 617 469941 1004 160 4721 69 468937 278678 190259 41427 274 41153 5433 665 639 98 4768 854 72 35720 782
shrinkage=0.01


Tree=4
num_leaves=30
num_cat=0
split_feature=2 7 7 21 16 0 21 7 12 0 13 7 9 2 3 10 21 21 13 7 13 9 21 13 21 10 0 2 13
split_gain=41.2168 21.993 54.4628 48.9446 9.04382 557.139 36.8802 7.78282 7.50761 7.48021 17.4999 9.73254 6.59183 13.2334 6.11949 6.05174 5.90502 23.5664 23.5639 23.5867 35.9496 15.2526 28.1932 13.7042 25.2718 5.5536 4.1536 13.1161 68.4402
threshold=2220.5000000000005 1231.5000000000002 1132.5000000000002 23807.500000000004 1.0000000180025095e-35 314.50000000000006 273941.00000000006 13834.500000000002 1.0000000180025095e-35 3998.5000000000005 27.500000000000004 19156.500000000004 9.5000000000000018 2044.5000000000002 5.5000000000000009 7.5000000000000009 18851.500000000004 23807.500000000004 27.500000000000004 937.50000000000011 28.500000000000004 6.5000000000000009 22962.500000000004 36.500000000000007 53226.000000000007 7.5000000000000009 868.50000000000011 2025.5000000000002 34.500000000000007
decision_type=2 2 2 2 2 2 2 2 2 2 2 2 2 2 2 2 2 2 2 2 2 2 2 2 2 2 2 2 2
left_child=1 2 16 14 9 6 -6 -2 12 26 -11 -12 13 -5 15 -4 -1 18 -18 -20 -21 22 -22 -19 -25 -23 -3 -28 -29
right_child=7 4 3 8 5 -7 -8 -9 -10 10 11 -13 -14 -15 -16 -17 17 23 19 20 21 25 -24 24 -26 -27 27 28 -30
leaf_value=-0.005297707872101284 -0.057526916898633165 -0.0053027321223304306 -0.010036165738061518 -0.083326055394775514 0.13971981715093887 5.6097807493955214 -0.0043616689619890431 -0.010070572816342367 0.0080170999251530789 -0.010022195015404543 0.34532744692184203 -0.010000835406175346 -0.030726781330145406 -0.28046323923850403 -0.016033814157650612 -0.16190397975656573 -0.010071784572706705 -0.010152893691096091 -0.010017686916248504 0.41825745404841619 -0.010214045018618976 -0.010001850545333799 0.33700838106775727 -0.010000841427511391 0.38647437999561562 0.24899765001968541 -0.024811810060468741 -0.0100008267492223 0.77991203488866878
leaf_count=11910 2182 464556 292 332 23 31 96 2609 205 844 20 128 328 54 808 20 604 5151 1066 41 91 95 20 528 31 52 3257 994 80
internal_value=0 -0.791509 -2.11431 -4.03213 -0.487189 1.69889 1.15006 -4.9589 -7.6918 -0.580332 7.28349 24.7937 -8.07987 -8.68426 -1.82008 -9.31415 0.664925 1.84964 6.99922 11.716 16.4393 11.4934 5.5032 -0.33503 13.3621 22.1192 -0.602661 -1.95341 9.54824
internal_count=496448 491657 21628 2039 470029 150 119 4791 919 469879 992 148 714 386 1120 312 19589 7679 1969 1365 299 258 111 5710 559 147 468887 4331 1074
shrinkage=0.01


Tree=5
num_leaves=30
num_cat=0
split_feature=2 21 21 12 3 9 9 3 9 3 21 10 21 2 9 9 0 13 13 12 21 13 2 12 0 2 9 16 13
split_gain=33.9908 24.7645 46.1858 15.6433 248.739 309.04 12.9559 12.6299 270.983 8.32941 10.4948 19.9162 477.3 8.85976 17.9269 55.6985 7.33172 12.111 6.63587 76.0198 258.209 13.8273 25.5762 6.45304 6.27247 6.22992 5.89254 4.85408 171.146
threshold=2220.5000000000005 38124.500000000007 35191.500000000007 8.5000000000000018 19.500000000000004 9.5000000000000018 7.5000000000000009 57.500000000000007 1.0000000180025095e-35 8.5000000000000018 19659.500000000004 11.500000000000002 20512.500000000004 2031.5000000000002 9.5000000000000018 8.5000000000000018 3998.5000000000005 27.500000000000004 34.500000000000007 1.0000000180025095e-35 22962.500000000004 33.500000000000007 1800.5000000000002 1.0000000180025095e-35 868.50000000000011 2033.5000000000002 11.500000000000002 1.0000000180025095e-35 24.500000000000004
decision_type=2 2 2 2 2 2 2 2 2 2 2 2 2 2 2 2 2 2 2 2 2 2 2 2 2 2 2 2 2
left_child=1 2 3 9 5 -5 23 16 -9 10 -1 13 -13 18 15 -15 27 -18 21 -20 -21 -12 26 -4 -2 -16 -23 -3 -29
right_child=24 7 6 4 -6 -7 -8 8 -10 -11 11 12 -14 14 25 -17 17 -19 19 20 -22 22 -24 -25 -26 -27 -28 28 -30
leaf_value=-0.0040107445613528879 -0.010049410310461334 -0.0058668551924978907 -0.074499772379971782 -0.010000851809254939 -0.010013866387973509 5.719446965130679 -0.010014355070954486 2.8365195952703455 -0.010000825633676227 -0.00024487890317025519 -0.018670907208083076 -5.0169488185017013 -0.010000821366805633 -0.010051712542584605 -0.12256673672085837 -0.45149087253602943 -0.01002493972962634 0.19447981974702791 -0.010096959694875741 3.3777763486115426 -0.010000817443287614 -0.010000921064253973 -0.010000809227531913 0.0077126404426182439 -0.054171686014747235 -0.028999576676095956 -0.49924997593415377 0.58624100855957839 -0.0051030136094848567
leaf_count=29951 4502 402788 619 24 501 21 4831 43 845 29392 15730 22 506 752 128 47 713 156 1466 23 116 31 463 199 302 2134 20 22 101
internal_value=0 -0.875809 -1.97099 -1.19655 14.1667 262.905 -5.96085 -0.458189 12.6686 -1.27789 -1.81159 -2.66357 -23.981 -2.49197 -4.86653 -16.1118 -0.482735 7.32254 -1.80115 3.55811 79.5689 -2.0971 -17.259 -7.03604 -4.71523 -3.5568 -43.8083 -0.506743 1.04997
internal_count=496448 491644 86976 81327 546 45 5649 404668 888 80781 51389 21438 528 20910 3061 799 403780 869 17849 1605 139 16244 514 818 4804 2262 51 402911 123
shrinkage=0.01


Tree=6
num_leaves=30
num_cat=0
split_feature=2 7 21 7 21 2 12 3 21 21 10 0 13 12 7 9 9 16 13 7 3 3 21 21 7 0 3 9 13
split_gain=32.235 24.3395 365.255 45.857 41.8464 19.6235 232.333 14.096 576.886 10.7722 10.0119 6.27582 9.80776 6.23693 6.18173 5.06789 652.22 5.06346 100.019 4.86633 3.77396 3.56212 5.04427 210.959 492.646 197.478 364.604 19.5251 9.36328
threshold=2220.5000000000005 1231.5000000000002 149780.00000000003 1132.5000000000002 23807.500000000004 1811.5000000000002 1.0000000180025095e-35 9.5000000000000018 20512.500000000004 24724.500000000004 11.500000000000002 3998.5000000000005 27.500000000000004 1.0000000180025095e-35 13834.500000000002 9.5000000000000018 8.5000000000000018 1.0000000180025095e-35 24.500000000000004 19014.500000000004 5.5000000000000009 18.500000000000004 130187.50000000001 127661.00000000001 7419.5000000000009 48.500000000000007 21.500000000000004 340.50000000000006 21.500000000000004
decision_type=2 2 2 2 2 2 2 2 2 2 2 2 2 2 2 2 2 2 2 2 2 2 2 2 2 2 2 2 2
left_child=1 2 3 -1 5 6 -5 10 -9 -6 20 17 -13 15 -2 16 -11 21 -19 -14 -7 -3 23 28 -25 -26 -27 -28 -23
right_child=14 11 -4 4 9 7 -8 8 -10 13 -12 12 19 -15 -16 -17 -18 18 -20 -21 -22 22 -24 24 25 26 27 -29 -30
leaf_value=0.00087879732963933922 -0.052733002966121545 -0.0074521941327055554 3.6170171357576648 -0.010053414584046285 -0.17076508943166613 -0.083109142029331076 2.4850714894896759 0.0089900800767066229 5.8278960177849912 -0.073402581562342806 -0.15775636465111115 -0.010021660821276035 0.20858322130009177 0.0077286362995348159 -0.01006806653231942 -0.029681417782641689 -6.6673650088369003 0.34917436497777976 -0.0050755220879469846 -0.01000100956846138 -0.024966678925085067 0.09056518672665298 -0.0047816273975974898 6.1034341404453816 -0.010000822295880929 5.7732248059938183 1.0464849270708987 -0.010000825644456 -0.010001288619116564
leaf_count=19620 2171 416219 20 164 23 242 20 191 21 351 32 850 23 197 2633 314 22 22 101 134 457 1213 34738 20 313 21 20 26 16270
internal_value=0 -0.8682 -2.22763 -2.32217 -4.11498 -2.04177 16.1776 -2.32938 4.02066 -7.43153 -2.93149 -0.541098 6.15744 -6.95444 -4.5679 -7.31628 -7.86325 -0.562334 1.02161 15.9827 -2.70001 -0.635019 0.133669 1.69733 72.6865 50.1801 148.922 85.1222 -0.306715
internal_count=496448 491644 21674 21654 2034 1127 184 943 212 907 731 469970 1007 884 4804 687 373 468963 123 157 699 468840 52621 17883 400 380 67 46 17483
shrinkage=0.01



feature importances:
smart_225_raw=37
smart_11_raw=29
smart_9_raw=26
smart_200_raw=21
smart_194_raw=19
smart_3_raw=16
smart_1_raw=15
smart_4_raw=15
smart_192_raw=9
smart_12_raw=8
smart_197_raw=6
smart_191_raw=2

pandas_categorical:[]
