tree
version=v2
num_class=1
num_tree_per_iteration=1
label_index=0
max_feature_idx=21
objective=binary sigmoid:1
feature_names=smart_1_raw smart_3_raw smart_4_raw smart_5_raw smart_7_raw smart_9_raw smart_10_raw smart_12_raw smart_183_raw smart_184_raw smart_187_raw smart_188_raw smart_189_raw smart_190_raw smart_194_raw smart_195_raw smart_197_raw smart_198_raw smart_199_raw smart_240_raw smart_241_raw smart_242_raw
feature_infos=[4317:244139278] none [5:268] [0:2075] [49561249:17474014866] [2289:59954] none [5:134] [0:1] none none [14:25770262604] [0:76] [19:46] [19:46] [4317:244139278] [0:10] [0:10] [0:4] [26031:281436322040619] [67135:4294896709] [108945:4294948920]
tree_sizes=2408

Tree=0
num_leaves=30
num_cat=0
split_feature=16 19 21 20 4 7 20 0 13 5 0 0 20 19 19 4 0 0 0 0 0 0 5 0 0 0 0 0 0
split_gain=268.752 15.1024 273.557 844.966 6.41916 69.3813 207.304 4.58507 92.6597 186.124 4.14677 32.0628 210.373 1.02934 35.004 141.363 1.77636e-15 2.22045e-16 2.22045e-16 1.11022e-16 1.11022e-16 1.11022e-16 2.22045e-16 1.11022e-16 1.11022e-16 1.11022e-16 1.11022e-16 2.77556e-17 2.77556e-17
threshold=2.0000000000000004 272096915657902.03 4060034264.0000005 3528793464.0000005 4835548404.000001 25.500000000000004 2806649677.0000005 237196528.50000003 33.500000000000007 33704.500000000007 7542795.0000000009 6636581.0000000009 3718513471.0000005 32736240765975.504 31471372893366.504 343150279.50000006 193774907.00000003 235267147.00000003 234435272.50000003 233460002.00000003 228667799.00000003 220104326.00000003 48563.500000000007 202576066.50000003 200720785.50000003 195717484.00000003 223779140.50000003 240293011.50000003 233460002.00000003
decision_type=2 2 2 2 2 2 2 2 2 2 2 2 2 2 2 2 2 2 2 2 2 2 2 2 2 2 2 2 2
left_child=1 4 27 -4 7 6 -6 10 -9 -10 11 -1 -13 14 17 -16 -15 19 26 20 21 22 23 24 25 -12 -18 28 -3
right_child=-2 2 3 -5 5 -7 -8 8 9 -11 13 12 -14 16 15 -17 18 -19 -20 -21 -22 -23 -24 -25 -26 -27 -28 -29 -30
leaf_value=-8.6546495856126988 -5.9490938695027857 -8.6546495856126988 -8.654649585612697 -2.9729825817821336 -5.8138160836973256 -8.6546495856126988 -8.654649585612697 -8.6546495856126988 -5.8138160836974144 -8.654649585612697 -8.6546495856126988 -8.6546495856126988 -6.1843595839471419 -8.6546495856126988 -6.879128646915456 -8.6546495856126988 -8.6546495856126988 -8.654649585612697 -8.6546495856126988 -8.654649585612697 -8.6546495856126988 -8.6546495856126988 -8.6546495856126988 -8.6546495856126988 -8.654649585612697 -8.6546495856126988 -8.6546495856126988 -8.654649585612697 -8.654649585612697
leaf_count=1082 21 1137 58 20 20 694 54 1014 20 38 3218 132 23 25763 32 125 4118 35 393 38 75 175 711 272 35 79 1452 24 37
internal_value=0 -0.16615 7.90526 144.684 -0.426241 6.39783 75.7791 -0.561211 4.29989 96.9596 -0.699224 3.59293 35.6557 -0.844604 0.184739 35.1888 -1.00018 -1.00018 -1.00018 -1.00018 -1.00018 -1.00018 -1.00018 -1.00018 -1.00018 -1.00018 -1.00018 -1.00018 -1.00018
internal_count=40895 40874 1276 78 39598 768 74 38830 1072 58 37758 1237 155 36521 4795 157 31726 4638 5963 4603 4565 4490 4315 3604 3332 3297 5570 1198 1174
shrinkage=1



feature importances:
smart_1_raw=15
smart_240_raw=3
smart_241_raw=3
smart_7_raw=2
smart_9_raw=2
smart_12_raw=1
smart_190_raw=1
smart_197_raw=1
smart_242_raw=1

pandas_categorical:[]
