tree
version=v2
num_class=1
num_tree_per_iteration=1
label_index=0
max_feature_idx=4
objective=binary sigmoid:1
feature_names=smart_1_raw smart_5_raw smart_9_raw smart_194_raw smart_197_raw
feature_infos=[0:6631633650457] [0:3400] [6:47076] [18:46] [0:45]
tree_sizes=2339 2390

Tree=0
num_leaves=30
num_cat=0
split_feature=4 0 2 2 4 2 2 0 2 3 2 0 2 0 0 2 2 0 2 3 2 0 2 0 0 2 2 3 0
split_gain=289.768 451.567 706.762 330.718 27.1779 324.505 15.5562 83.1 215.272 19.4621 113.939 161.913 19.5576 36.3434 307.623 1.97727 10.9984 192.934 3.14154 23.4448 76.6602 234.249 2.38802 29.2041 275.477 2.61 10.454 40.9497 151.573
threshold=1.5000000000000002 197909984.00000003 24334.500000000004 27981.500000000004 1.0000000180025095e-35 19095.500000000004 6132.0000000000009 238437277.00000003 2495.5000000000005 28.500000000000004 4012.0000000000005 127057706.50000001 510.00000000000006 115530231.50000001 136867230.50000003 25813.500000000004 25893.500000000004 228178140.50000003 29251.500000000004 39.500000000000007 29138.500000000004 175493268.00000003 26124.500000000004 34473528.500000007 31616784.000000004 27361.500000000004 27437.500000000004 32.500000000000007 181309484.50000003
decision_type=2 2 2 2 2 2 2 2 2 2 2 2 2 2 2 2 2 2 2 2 2 2 2 2 2 2 2 2 2
left_child=4 3 -3 -2 6 -6 7 9 -9 -1 12 -12 13 -11 -15 -8 17 -17 19 22 -21 -22 23 24 -18 -24 27 -27 -29
right_child=1 2 -4 -5 5 -7 15 8 -10 10 11 -13 -14 14 -16 16 18 -19 -20 20 21 -23 25 -25 -26 26 -28 28 -30
leaf_value=-8.9218009039017669 -8.9218009039017669 -1.8541818163804225 -8.9218009039017634 -5.2113008829531253 -5.387991360139849 -8.9218009039017669 -8.9167559874421247 -8.9218009039017652 -5.8297175531110419 -8.9218009039017669 -5.9534008871426334 -8.9218009039017652 -8.9218009039017669 -5.2113008829531253 -8.9218009039017669 -8.9218009039017669 -8.9218009039017669 -6.860412003374404 -8.9218009039017669 -8.9218009039017669 -8.9218009039017652 -5.5486190666756166 -8.9218009039017669 -8.9218009039017669 -5.8297175531110419 -8.9218009039017669 -8.9079428272595642 -8.9218009039017669 -6.860412003374404
leaf_count=2238 164 21 21 20 21 236 102969 55 24 157 25 30 712 20 97 526 196 36 13080 209 50 22 8837 1419 24 409 10710 100 36
internal_value=0 97.5087 352.381 39.3314 -0.113192 27.8754 -0.163854 5.6297 92.9366 3.52625 13.2573 133.927 6.52623 26.0838 62.4272 -0.304197 0.248701 12.2045 0.0572287 0.685537 25.4091 102.069 0.36584 3.52763 32.7317 0.107918 0.977919 12.6164 53.566
internal_count=142464 226 42 184 142238 257 141981 3358 79 3279 1041 55 986 274 117 138623 35654 562 35092 22012 281 72 21731 1639 220 20092 11255 545 136
shrinkage=1


Tree=1
num_leaves=30
num_cat=0
split_feature=1 3 0 1 1 0 0 3 3 0 0 3 3 4 0 0 0 0 3 3 3 3 0 0 0 3 3 3 0
split_gain=20.6049 38.1035 58.7592 10.8975 190.883 2.94433 9.00276 67.8345 123.976 2.46563 10.9211 35.7336 114.031 7.74898 38.9879 93.4608 1.67035 9.7462 33.7174 81.9318 1.64549 1.5114 3.3164 1.3878 17.7055 16.1422 32.839 16.4273 36.6864
threshold=799.50000000000011 38.500000000000007 85887283.000000015 877.00000000000011 833.50000000000011 228178140.50000003 229160974.50000003 35.500000000000007 37.500000000000007 191165755.00000003 190190538.00000003 24.500000000000004 23.500000000000004 1.0000000180025095e-35 26818616.500000004 17203577.000000004 232847908.00000003 233806149.50000003 24.500000000000004 23.500000000000004 39.500000000000007 25.500000000000004 200801126.50000003 32549734.500000004 34473528.500000007 27.500000000000004 24.500000000000004 25.500000000000004 33544521.000000004
decision_type=2 2 2 2 2 2 2 2 2 2 2 2 2 2 2 2 2 2 2 2 2 2 2 2 2 2 2 2 2
left_child=5 3 -3 4 -2 9 7 -7 -9 10 13 12 -12 23 15 -15 -8 18 19 -18 -19 22 -5 -1 25 26 -25 28 -28
right_child=1 2 -4 21 -6 6 16 8 -10 -11 11 -13 -14 14 -16 -17 17 20 -20 -21 -22 -23 -24 24 -26 -27 27 -29 -30
leaf_value=-0.010001772595679628 -0.010001341767151119 -0.010050099279865899 0.57033924124380486 0.059727275385434257 2.0616274064398916 -0.010001884498729441 -0.010673943032793974 2.028712113704322 -0.010020416388484233 -0.010540841846556643 -0.010001340782825129 -0.010004858713301732 1.6116707674412165 -0.010030618086362644 -0.010028424362458589 1.4055046229773456 -0.010001341250069273 -0.0014987397097681108 -0.010001682012106959 1.2754140094298849 0.026106292457997782 -0.010014497294864252 -0.011502198250623371 -0.010007705555254754 -0.003416063688642162 -0.010008991920830955 -0.010001341359586637 0.23186331262594692 0.97448448319591341
leaf_count=18738 422 28 33 178 36 498 2218 23 29 20992 109 407 46 37 272 20 102 6004 405 58 135 1112 38 301 89404 473 45 246 55
internal_value=0 5.71204 27.6545 2.77072 15.2798 -0.275806 0.847808 11.061 78.8965 -0.397085 -0.204646 11.4028 47.1361 -0.267024 8.1016 47.0897 0.429034 0.981068 11.8922 45.6096 0.376352 1.09735 2.66564 -0.328742 -0.189958 9.26994 17.341 33.7604 60.7618
internal_count=142464 1847 61 1786 458 140617 9472 550 52 131145 110153 562 155 109591 329 57 8922 6704 565 160 6139 1328 216 109262 90524 1120 647 346 100
shrinkage=0.01



feature importances:
smart_1_raw=23
smart_194_raw=15
smart_9_raw=14
smart_5_raw=3
smart_197_raw=3

pandas_categorical:[]
