tree
version=v2
num_class=1
num_tree_per_iteration=1
label_index=0
max_feature_idx=16
objective=binary sigmoid:1
feature_names=smart_1_raw smart_3_raw smart_4_raw smart_5_raw smart_7_raw smart_9_raw smart_10_raw smart_11_raw smart_12_raw smart_192_raw smart_193_raw smart_194_raw smart_196_raw smart_197_raw smart_198_raw smart_199_raw smart_200_raw
feature_infos=none [2941:4250] [13:17772] none [0:569] [10663:50260] none none [11:91] [8:26] [13:17772] [23:45] none none none [0:2] none
tree_sizes=635 2492

Tree=0
num_leaves=7
num_cat=0
split_feature=5 11 5 1 1 5
split_gain=41.7862 21.046 24.7789 4.44089e-16 2.22045e-16 5.55112e-17
threshold=49206.500000000007 41.500000000000007 30575.000000000004 4149.5000000000009 4245.5000000000009 36666.500000000007
decision_type=2 2 2 2 2 2
left_child=1 3 -3 -1 -5 -6
right_child=-2 2 -4 4 5 -7
leaf_value=-7.0588294034829104 -6.6316068577950755 -7.0588294034829095 -6.5974290541400524 -7.0588294034829104 -7.0588294034829104 -7.0588294034829095
leaf_count=2403 27 29 25 760 400 44
internal_value=0 -0.68579 20.3603 -1.00087 -1.00087 -1.00087
internal_count=3688 3661 54 3607 1204 444
shrinkage=1


Tree=1
num_leaves=30
num_cat=0
split_feature=5 11 5 1 1 1 5 2 2 5 5 5 5 5 5 5 5 5 5 5 5 5 5 5 5 5 5 5 5
split_gain=27.2364 16.6619 12.4285 4.44089e-16 4.44089e-16 2.22045e-16 2.22045e-16 1.11022e-16 1.11022e-16 1.11022e-16 1.11022e-16 1.11022e-16 1.11022e-16 1.11022e-16 5.55112e-17 1.11022e-16 5.55112e-17 5.55112e-17 5.55112e-17 5.55112e-17 5.55112e-17 5.55112e-17 5.55112e-17 5.55112e-17 2.77556e-17 2.77556e-17 2.77556e-17 1.38778e-17 1.38778e-17
threshold=49206.500000000007 41.500000000000007 30575.000000000004 4041.5000000000005 4149.5000000000009 4245.5000000000009 14710.500000000002 17.500000000000004 67.500000000000014 45374.500000000007 44395.000000000007 40686.000000000007 37951.500000000007 14502.500000000002 36666.500000000007 23813.500000000004 13059.500000000002 33948.000000000007 21562.500000000004 47956.000000000007 35775.000000000007 31881.500000000004 28052.500000000004 42687.500000000007 12778.000000000002 37230.000000000007 42001.000000000007 22785.500000000004 11718.500000000002
decision_type=2 2 2 2 2 2 2 2 2 2 2 2 2 2 2 2 2 2 2 2 2 2 2 2 2 2 2 2 2
left_child=1 3 -3 9 6 7 13 -6 18 10 11 12 14 16 15 27 24 -7 -9 20 -10 -17 -20 25 28 -22 -27 -1 -5
right_child=-2 2 -4 4 5 17 -8 8 19 -11 -12 -13 -14 -15 -16 21 -18 -19 22 -21 23 -23 -24 -25 -26 26 -28 -29 -30
leaf_value=-0.010008597813762218 0.27172815583668808 -0.010008597813762369 0.28406999627342033 -0.010008597813762459 -0.010008597813762484 -0.010008597813762692 -0.010008597813762718 -0.010008597813762491 -0.010008597813762312 -0.010008597813762555 -0.01000859781376234 -0.010008597813762605 -0.010008597813762581 -0.010008597813762312 -0.010008597813762312 -0.010008597813762668 -0.010008597813762675 -0.010008597813762633 -0.010008597813762662 -0.010008597813762312 -0.010008597813762451 -0.010008597813762633 -0.010008597813762633 -0.010008597813762636 -0.010008597813762312 -0.010008597813762635 -0.010008597813762199 -0.010008597813762312 -0.010008597813762595
leaf_count=51 27 29 25 58 37 323 1284 49 28 67 30 95 79 28 28 197 222 121 179 28 42 121 121 128 28 126 22 28 87
internal_value=0 -0.683889 15.9783 -1.00086 -1.00086 -1.00086 -1.00086 -1.00086 -1.00086 -1.00086 -1.00086 -1.00086 -1.00086 -1.00086 -1.00086 -1.00086 -1.00086 -1.00086 -1.00086 -1.00086 -1.00086 -1.00086 -1.00086 -1.00086 -1.00086 -1.00086 -1.00086 -1.00086 -1.00086
internal_count=3688 3661 54 3607 2911 1204 1707 760 723 696 629 599 504 423 425 397 395 444 349 374 346 318 300 318 173 190 148 79 145
shrinkage=0.01



feature importances:
smart_9_raw=26
smart_3_raw=5
smart_4_raw=2
smart_194_raw=2

pandas_categorical:[]
